<?xml version="1.0"?>
<opencv_storage>
<cascade>
  <stageType>BOOST</stageType>
  <featureType>HAAR</featureType>
  <height>20</height>
  <width>20</width>
  <stageParams>
    <boostType>GAB</boostType>
    <minHitRate>9.9500000476837158e-01</minHitRate>
    <maxFalseAlarm>5.0000000000000000e-01</maxFalseAlarm>
    <weightTrimRate>9.4999999999999996e-01</weightTrimRate>
    <maxDepth>1</maxDepth>
    <maxWeakCount>100</maxWeakCount></stageParams>
  <featureParams>
    <maxCatCount>0</maxCatCount>
    <featSize>1</featSize>
    <mode>BASIC</mode></featureParams>
  <stageNum>18</stageNum>
  <stages>
    <!-- stage 0 -->
    <_>
      <maxWeakCount>2</maxWeakCount>
      <stageThreshold>-3.5273589193820953e-02</stageThreshold>
      <weakClassifiers>
        <_>
          <internalNodes>
            0 -1 40 9.9195361137390137e-02</internalNodes>
          <leafValues>
            -9.2511016130447388e-01 9.7098213434219360e-01</leafValues></_>
        <_>
          <internalNodes>
            0 -1 74 5.9566870331764221e-03</internalNodes>
          <leafValues>
            -9.1801786422729492e-01 8.8983654975891113e-01</leafValues></_></weakClassifiers></_>
    <!-- stage 1 -->
    <_>
      <maxWeakCount>2</maxWeakCount>
      <stageThreshold>-1.9476020336151123e-01</stageThreshold>
      <weakClassifiers>
        <_>
          <internalNodes>
            0 -1 71 7.7094197273254395e-02</internalNodes>
          <leafValues>
            -9.5005947351455688e-01 9.1393220424652100e-01</leafValues></_>
        <_>
          <internalNodes>
            0 -1 15 8.3715841174125671e-02</internalNodes>
          <leafValues>
            -8.8340604305267334e-01 7.5529927015304565e-01</leafValues></_></weakClassifiers></_>
    <!-- stage 2 -->
    <_>
      <maxWeakCount>3</maxWeakCount>
      <stageThreshold>-7.4925321340560913e-01</stageThreshold>
      <weakClassifiers>
        <_>
          <internalNodes>
            0 -1 30 2.3557370901107788e-01</internalNodes>
          <leafValues>
            -6.1530715227127075e-01 8.8517868518829346e-01</leafValues></_>
        <_>
          <internalNodes>
            0 -1 75 2.5568105280399323e-02</internalNodes>
          <leafValues>
            -7.3125827312469482e-01 6.6490340232849121e-01</leafValues></_>
        <_>
          <internalNodes>
            0 -1 0 -1.2871813774108887e-01</internalNodes>
          <leafValues>
            5.9731221199035645e-01 -5.6606823205947876e-01</leafValues></_></weakClassifiers></_>
    <!-- stage 3 -->
    <_>
      <maxWeakCount>5</maxWeakCount>
      <stageThreshold>-1.1680016517639160e+00</stageThreshold>
      <weakClassifiers>
        <_>
          <internalNodes>
            0 -1 70 2.0225790143013000e-01</internalNodes>
          <leafValues>
            -6.1795169115066528e-01 7.8481703996658325e-01</leafValues></_>
        <_>
          <internalNodes>
            0 -1 32 1.1527444422245026e-01</internalNodes>
          <leafValues>
            -5.4869616031646729e-01 6.3153451681137085e-01</leafValues></_>
        <_>
          <internalNodes>
            0 -1 88 9.1921610874123871e-05</internalNodes>
          <leafValues>
            -8.4315776824951172e-01 3.6951795220375061e-01</leafValues></_>
        <_>
          <internalNodes>
            0 -1 111 -1.8159439787268639e-02</internalNodes>
          <leafValues>
            3.7551370263099670e-01 -6.6529119014739990e-01</leafValues></_>
        <_>
          <internalNodes>
            0 -1 122 -9.9219512194395065e-03</internalNodes>
          <leafValues>
            2.9441931843757629e-01 -7.1459251642227173e-01</leafValues></_></weakClassifiers></_>
    <!-- stage 4 -->
    <_>
      <maxWeakCount>6</maxWeakCount>
      <stageThreshold>-1.2466189861297607e+00</stageThreshold>
      <weakClassifiers>
        <_>
          <internalNodes>
            0 -1 54 9.3274787068367004e-03</internalNodes>
          <leafValues>
            -6.2028986215591431e-01 6.6069650650024414e-01</leafValues></_>
        <_>
          <internalNodes>
            0 -1 94 1.1434443295001984e-01</internalNodes>
          <leafValues>
            -6.6116064786911011e-01 5.2848231792449951e-01</leafValues></_>
        <_>
          <internalNodes>
            0 -1 91 3.0107188504189253e-03</internalNodes>
          <leafValues>
            -8.3588218688964844e-01 3.4556359052658081e-01</leafValues></_>
        <_>
          <internalNodes>
            0 -1 112 9.8771722987294197e-03</internalNodes>
          <leafValues>
            -4.8135009407997131e-01 5.3169679641723633e-01</leafValues></_>
        <_>
          <internalNodes>
            0 -1 66 -5.2997288294136524e-03</internalNodes>
          <leafValues>
            4.2391350865364075e-01 -6.1682051420211792e-01</leafValues></_>
        <_>
          <internalNodes>
            0 -1 22 -1.6380941960960627e-03</internalNodes>
          <leafValues>
            5.3375327587127686e-01 -4.9354788661003113e-01</leafValues></_></weakClassifiers></_>
    <!-- stage 5 -->
    <_>
      <maxWeakCount>6</maxWeakCount>
      <stageThreshold>-9.1338038444519043e-01</stageThreshold>
      <weakClassifiers>
        <_>
          <internalNodes>
            0 -1 29 2.9862475395202637e-01</internalNodes>
          <leafValues>
            -3.7193328142166138e-01 7.6085662841796875e-01</leafValues></_>
        <_>
          <internalNodes>
            0 -1 65 1.9256721716374159e-03</internalNodes>
          <leafValues>
            3.6722099781036377e-01 -8.9703541994094849e-01</leafValues></_>
        <_>
          <internalNodes>
            0 -1 78 8.0969871487468481e-04</internalNodes>
          <leafValues>
            -8.1082868576049805e-01 3.2742649316787720e-01</leafValues></_>
        <_>
          <internalNodes>
            0 -1 38 -1.3230580091476440e-01</internalNodes>
          <leafValues>
            3.5943907499313354e-01 -5.8227938413619995e-01</leafValues></_>
        <_>
          <internalNodes>
            0 -1 84 9.0733729302883148e-03</internalNodes>
          <leafValues>
            -7.4042046070098877e-01 2.8061261773109436e-01</leafValues></_>
        <_>
          <internalNodes>
            0 -1 82 5.0404965877532959e-03</internalNodes>
          <leafValues>
            -9.2684566974639893e-01 2.0382736623287201e-01</leafValues></_></weakClassifiers></_>
    <!-- stage 6 -->
    <_>
      <maxWeakCount>6</maxWeakCount>
      <stageThreshold>-8.1915134191513062e-01</stageThreshold>
      <weakClassifiers>
        <_>
          <internalNodes>
            0 -1 69 1.4449885487556458e-01</internalNodes>
          <leafValues>
            -3.4868422150611877e-01 6.8120807409286499e-01</leafValues></_>
        <_>
          <internalNodes>
            0 -1 43 3.8318512961268425e-03</internalNodes>
          <leafValues>
            -6.7160993814468384e-01 3.4756398200988770e-01</leafValues></_>
        <_>
          <internalNodes>
            0 -1 109 2.2456245496869087e-03</internalNodes>
          <leafValues>
            2.1274378895759583e-01 -8.1494492292404175e-01</leafValues></_>
        <_>
          <internalNodes>
            0 -1 89 -9.7501948475837708e-03</internalNodes>
          <leafValues>
            -9.0861320495605469e-01 1.7752519249916077e-01</leafValues></_>
        <_>
          <internalNodes>
            0 -1 98 1.4977614046074450e-04</internalNodes>
          <leafValues>
            -8.2058477401733398e-01 2.3783314228057861e-01</leafValues></_>
        <_>
          <internalNodes>
            0 -1 8 6.8296948447823524e-03</internalNodes>
          <leafValues>
            -3.8771533966064453e-01 5.4527431726455688e-01</leafValues></_></weakClassifiers></_>
    <!-- stage 7 -->
    <_>
      <maxWeakCount>6</maxWeakCount>
      <stageThreshold>-6.6769623756408691e-01</stageThreshold>
      <weakClassifiers>
        <_>
          <internalNodes>
            0 -1 17 1.2039682269096375e-01</internalNodes>
          <leafValues>
            -4.2036554217338562e-01 6.3185107707977295e-01</leafValues></_>
        <_>
          <internalNodes>
            0 -1 53 5.4326374083757401e-02</internalNodes>
          <leafValues>
            -8.0587595701217651e-01 3.3608454465866089e-01</leafValues></_>
        <_>
          <internalNodes>
            0 -1 39 -4.6361386775970459e-03</internalNodes>
          <leafValues>
            5.0197690725326538e-01 -4.5448064804077148e-01</leafValues></_>
        <_>
          <internalNodes>
            0 -1 99 2.2461852058768272e-03</internalNodes>
          <leafValues>
            2.7230119705200195e-01 -7.7276158332824707e-01</leafValues></_>
        <_>
          <internalNodes>
            0 -1 106 -1.3291612267494202e-02</internalNodes>
          <leafValues>
            3.8861045241355896e-01 -4.6992227435112000e-01</leafValues></_>
        <_>
          <internalNodes>
            0 -1 102 1.9742261429200880e-05</internalNodes>
          <leafValues>
            -7.6049077510833740e-01 2.5521656870841980e-01</leafValues></_></weakClassifiers></_>
    <!-- stage 8 -->
    <_>
      <maxWeakCount>9</maxWeakCount>
      <stageThreshold>-9.6731013059616089e-01</stageThreshold>
      <weakClassifiers>
        <_>
          <internalNodes>
            0 -1 80 5.1501483540050685e-05</internalNodes>
          <leafValues>
            -7.4123990535736084e-01 5.0450837612152100e-01</leafValues></_>
        <_>
          <internalNodes>
            0 -1 34 -1.7632041126489639e-02</internalNodes>
          <leafValues>
            4.5129919052124023e-01 -4.9260324239730835e-01</leafValues></_>
        <_>
          <internalNodes>
            0 -1 47 -1.7715673893690109e-02</internalNodes>
          <leafValues>
            -8.4727257490158081e-01 2.5287765264511108e-01</leafValues></_>
        <_>
          <internalNodes>
            0 -1 33 9.6428103744983673e-02</internalNodes>
          <leafValues>
            -5.9055101871490479e-01 2.5318002700805664e-01</leafValues></_>
        <_>
          <internalNodes>
            0 -1 4 3.4741554409265518e-03</internalNodes>
          <leafValues>
            -2.9072245955467224e-01 5.7418256998062134e-01</leafValues></_>
        <_>
          <internalNodes>
            0 -1 134 2.7690888382494450e-03</internalNodes>
          <leafValues>
            -3.2396304607391357e-01 6.1459922790527344e-01</leafValues></_>
        <_>
          <internalNodes>
            0 -1 31 3.7669032812118530e-02</internalNodes>
          <leafValues>
            -7.8083097934722900e-01 2.6123228669166565e-01</leafValues></_>
        <_>
          <internalNodes>
            0 -1 113 1.0565316304564476e-02</internalNodes>
          <leafValues>
            -5.3120177984237671e-01 2.9140204191207886e-01</leafValues></_>
        <_>
          <internalNodes>
            0 -1 37 -8.9444043114781380e-03</internalNodes>
          <leafValues>
            6.6625750064849854e-01 -2.3669880628585815e-01</leafValues></_></weakClassifiers></_>
    <!-- stage 9 -->
    <_>
      <maxWeakCount>10</maxWeakCount>
      <stageThreshold>-8.6990541219711304e-01</stageThreshold>
      <weakClassifiers>
        <_>
          <internalNodes>
            0 -1 3 -1.1952815949916840e-01</internalNodes>
          <leafValues>
            5.9979635477066040e-01 -3.7771740555763245e-01</leafValues></_>
        <_>
          <internalNodes>
            0 -1 127 -5.2178027108311653e-03</internalNodes>
          <leafValues>
            3.2321780920028687e-01 -6.1358356475830078e-01</leafValues></_>
        <_>
          <internalNodes>
            0 -1 19 9.4763276865705848e-04</internalNodes>
          <leafValues>
            -3.3023211359977722e-01 5.4417288303375244e-01</leafValues></_>
        <_>
          <internalNodes>
            0 -1 87 1.4311759150587022e-04</internalNodes>
          <leafValues>
            -8.7828290462493896e-01 1.5904860198497772e-01</leafValues></_>
        <_>
          <internalNodes>
            0 -1 72 3.4396871924400330e-02</internalNodes>
          <leafValues>
            -5.1549392938613892e-01 3.3118909597396851e-01</leafValues></_>
        <_>
          <internalNodes>
            0 -1 61 5.8906361460685730e-02</internalNodes>
          <leafValues>
            -5.0578665733337402e-01 3.4974065423011780e-01</leafValues></_>
        <_>
          <internalNodes>
            0 -1 25 2.6460736989974976e-03</internalNodes>
          <leafValues>
            -3.9618363976478577e-01 3.8136976957321167e-01</leafValues></_>
        <_>
          <internalNodes>
            0 -1 2 5.2767861634492874e-03</internalNodes>
          <leafValues>
            -2.3620076477527618e-01 6.4754337072372437e-01</leafValues></_>
        <_>
          <internalNodes>
            0 -1 118 -1.3229664182290435e-04</internalNodes>
          <leafValues>
            -8.0994749069213867e-01 2.0728975534439087e-01</leafValues></_>
        <_>
          <internalNodes>
            0 -1 60 1.3987816870212555e-02</internalNodes>
          <leafValues>
            1.4251513779163361e-01 -8.2131797075271606e-01</leafValues></_></weakClassifiers></_>
    <!-- stage 10 -->
    <_>
      <maxWeakCount>9</maxWeakCount>
      <stageThreshold>-6.5965247154235840e-01</stageThreshold>
      <weakClassifiers>
        <_>
          <internalNodes>
            0 -1 79 9.5847900956869125e-04</internalNodes>
          <leafValues>
            -3.7570622563362122e-01 5.8534139394760132e-01</leafValues></_>
        <_>
          <internalNodes>
            0 -1 136 -6.4661810174584389e-03</internalNodes>
          <leafValues>
            5.8074569702148438e-01 -2.7630001306533813e-01</leafValues></_>
        <_>
          <internalNodes>
            0 -1 120 -9.1713503934442997e-05</internalNodes>
          <leafValues>
            -8.0786299705505371e-01 2.1982647478580475e-01</leafValues></_>
        <_>
          <internalNodes>
            0 -1 51 -4.7948285937309265e-03</internalNodes>
          <leafValues>
            5.2633035182952881e-01 -3.0213314294815063e-01</leafValues></_>
        <_>
          <internalNodes>
            0 -1 83 3.9599403738975525e-02</internalNodes>
          <leafValues>
            -3.6894702911376953e-01 4.2826083302497864e-01</leafValues></_>
        <_>
          <internalNodes>
            0 -1 116 -7.8040349762886763e-04</internalNodes>
          <leafValues>
            2.2593700885772705e-01 -7.1756666898727417e-01</leafValues></_>
        <_>
          <internalNodes>
            0 -1 114 8.0753630027174950e-03</internalNodes>
          <leafValues>
            -4.5698541402816772e-01 4.0966033935546875e-01</leafValues></_>
        <_>
          <internalNodes>
            0 -1 131 -3.2934984192252159e-03</internalNodes>
          <leafValues>
            6.3227868080139160e-01 -2.5444144010543823e-01</leafValues></_>
        <_>
          <internalNodes>
            0 -1 73 5.1075126975774765e-03</internalNodes>
          <leafValues>
            -8.3195191621780396e-01 2.0874732732772827e-01</leafValues></_></weakClassifiers></_>
    <!-- stage 11 -->
    <_>
      <maxWeakCount>10</maxWeakCount>
      <stageThreshold>-9.3918919563293457e-01</stageThreshold>
      <weakClassifiers>
        <_>
          <internalNodes>
            0 -1 115 8.3817634731531143e-04</internalNodes>
          <leafValues>
            -8.2352942228317261e-01 4.6293246746063232e-01</leafValues></_>
        <_>
          <internalNodes>
            0 -1 107 1.4213667251169682e-02</internalNodes>
          <leafValues>
            2.5727254152297974e-01 -8.4837716817855835e-01</leafValues></_>
        <_>
          <internalNodes>
            0 -1 14 1.5199838578701019e-01</internalNodes>
          <leafValues>
            -4.6111211180686951e-01 3.1551927328109741e-01</leafValues></_>
        <_>
          <internalNodes>
            0 -1 16 -4.3271882459521294e-03</internalNodes>
          <leafValues>
            5.7609301805496216e-01 -2.5415778160095215e-01</leafValues></_>
        <_>
          <internalNodes>
            0 -1 12 -1.8027038313448429e-03</internalNodes>
          <leafValues>
            5.6585222482681274e-01 -2.4498189985752106e-01</leafValues></_>
        <_>
          <internalNodes>
            0 -1 90 2.6033525355160236e-03</internalNodes>
          <leafValues>
            1.5806795656681061e-01 -8.8768458366394043e-01</leafValues></_>
        <_>
          <internalNodes>
            0 -1 59 -6.2798419967293739e-03</internalNodes>
          <leafValues>
            -9.0582185983657837e-01 1.2322317808866501e-01</leafValues></_>
        <_>
          <internalNodes>
            0 -1 96 4.5934682711958885e-03</internalNodes>
          <leafValues>
            1.3731203973293304e-01 -8.0357176065444946e-01</leafValues></_>
        <_>
          <internalNodes>
            0 -1 78 1.5022875741124153e-03</internalNodes>
          <leafValues>
            -6.0654222965240479e-01 2.1091473102569580e-01</leafValues></_>
        <_>
          <internalNodes>
            0 -1 44 2.2831326350569725e-03</internalNodes>
          <leafValues>
            -2.9961523413658142e-01 5.0445842742919922e-01</leafValues></_></weakClassifiers></_>
    <!-- stage 12 -->
    <_>
      <maxWeakCount>11</maxWeakCount>
      <stageThreshold>-9.6911561489105225e-01</stageThreshold>
      <weakClassifiers>
        <_>
          <internalNodes>
            0 -1 128 5.0213362555950880e-04</internalNodes>
          <leafValues>
            -6.9273740053176880e-01 4.9017933011054993e-01</leafValues></_>
        <_>
          <internalNodes>
            0 -1 100 4.5376572757959366e-02</internalNodes>
          <leafValues>
            1.9288793206214905e-01 -8.4992754459381104e-01</leafValues></_>
        <_>
          <internalNodes>
            0 -1 26 1.0962499305605888e-02</internalNodes>
          <leafValues>
            -2.7981275320053101e-01 5.8135133981704712e-01</leafValues></_>
        <_>
          <internalNodes>
            0 -1 10 -4.3383272713981569e-04</internalNodes>
          <leafValues>
            2.9401001334190369e-01 -4.8525533080101013e-01</leafValues></_>
        <_>
          <internalNodes>
            0 -1 92 3.5317591391503811e-03</internalNodes>
          <leafValues>
            -7.9176509380340576e-01 1.5849691629409790e-01</leafValues></_>
        <_>
          <internalNodes>
            0 -1 27 -1.2557634618133307e-03</internalNodes>
          <leafValues>
            6.6607272624969482e-01 -2.1008595824241638e-01</leafValues></_>
        <_>
          <internalNodes>
            0 -1 36 -2.8543325606733561e-03</internalNodes>
          <leafValues>
            5.6062471866607666e-01 -2.5223094224929810e-01</leafValues></_>
        <_>
          <internalNodes>
            0 -1 108 1.0212828638032079e-03</internalNodes>
          <leafValues>
            -8.6801576614379883e-01 1.5571807324886322e-01</leafValues></_>
        <_>
          <internalNodes>
            0 -1 105 -3.6354824900627136e-02</internalNodes>
          <leafValues>
            2.4359409511089325e-01 -5.2235871553421021e-01</leafValues></_>
        <_>
          <internalNodes>
            0 -1 13 -1.9742261429200880e-05</internalNodes>
          <leafValues>
            2.5341367721557617e-01 -5.6108748912811279e-01</leafValues></_>
        <_>
          <internalNodes>
            0 -1 135 -1.1929402127861977e-02</internalNodes>
          <leafValues>
            6.3679134845733643e-01 -2.5052288174629211e-01</leafValues></_></weakClassifiers></_>
    <!-- stage 13 -->
    <_>
      <maxWeakCount>10</maxWeakCount>
      <stageThreshold>-1.0234060287475586e+00</stageThreshold>
      <weakClassifiers>
        <_>
          <internalNodes>
            0 -1 63 2.2068060934543610e-03</internalNodes>
          <leafValues>
            -7.2644376754760742e-01 4.8038801550865173e-01</leafValues></_>
        <_>
          <internalNodes>
            0 -1 57 -4.0326407179236412e-04</internalNodes>
          <leafValues>
            4.1038703918457031e-01 -4.3470108509063721e-01</leafValues></_>
        <_>
          <internalNodes>
            0 -1 81 2.1969391964375973e-03</internalNodes>
          <leafValues>
            -2.7894166111946106e-01 5.3989750146865845e-01</leafValues></_>
        <_>
          <internalNodes>
            0 -1 123 -2.4723620299482718e-05</internalNodes>
          <leafValues>
            1.7379021644592285e-01 -8.4529423713684082e-01</leafValues></_>
        <_>
          <internalNodes>
            0 -1 7 1.0689728893339634e-02</internalNodes>
          <leafValues>
            -2.6161956787109375e-01 5.4947221279144287e-01</leafValues></_>
        <_>
          <internalNodes>
            0 -1 68 1.5467850491404533e-02</internalNodes>
          <leafValues>
            -2.5325298309326172e-01 4.8191848397254944e-01</leafValues></_>
        <_>
          <internalNodes>
            0 -1 95 2.3374840617179871e-02</internalNodes>
          <leafValues>
            -5.2459561824798584e-01 1.9157285988330841e-01</leafValues></_>
        <_>
          <internalNodes>
            0 -1 67 -4.5554609969258308e-03</internalNodes>
          <leafValues>
            5.1598644256591797e-01 -2.2720953822135925e-01</leafValues></_>
        <_>
          <internalNodes>
            0 -1 132 1.2699470389634371e-03</internalNodes>
          <leafValues>
            -2.6677057147026062e-01 4.9459943175315857e-01</leafValues></_>
        <_>
          <internalNodes>
            0 -1 5 4.2548039928078651e-03</internalNodes>
          <leafValues>
            -2.4420103430747986e-01 4.7911021113395691e-01</leafValues></_></weakClassifiers></_>
    <!-- stage 14 -->
    <_>
      <maxWeakCount>10</maxWeakCount>
      <stageThreshold>-6.2881284952163696e-01</stageThreshold>
      <weakClassifiers>
        <_>
          <internalNodes>
            0 -1 6 2.4048121273517609e-01</internalNodes>
          <leafValues>
            -1.8816067278385162e-01 6.1459523439407349e-01</leafValues></_>
        <_>
          <internalNodes>
            0 -1 117 -2.2042443742975593e-04</internalNodes>
          <leafValues>
            -7.9913431406021118e-01 2.1613328158855438e-01</leafValues></_>
        <_>
          <internalNodes>
            0 -1 9 -3.3475756645202637e-03</internalNodes>
          <leafValues>
            1.9591395556926727e-01 -6.2559425830841064e-01</leafValues></_>
        <_>
          <internalNodes>
            0 -1 103 2.2912065105629154e-05</internalNodes>
          <leafValues>
            -6.8234676122665405e-01 1.3726635277271271e-01</leafValues></_>
        <_>
          <internalNodes>
            0 -1 48 1.9607871945481747e-04</internalNodes>
          <leafValues>
            1.2284453213214874e-01 -8.3573472499847412e-01</leafValues></_>
        <_>
          <internalNodes>
            0 -1 55 -3.1745387241244316e-03</internalNodes>
          <leafValues>
            -8.0102759599685669e-01 1.4684961736202240e-01</leafValues></_>
        <_>
          <internalNodes>
            0 -1 23 1.8734182231128216e-03</internalNodes>
          <leafValues>
            -2.7358600497245789e-01 4.9779120087623596e-01</leafValues></_>
        <_>
          <internalNodes>
            0 -1 86 -3.1939446926116943e-02</internalNodes>
          <leafValues>
            -8.9479398727416992e-01 1.3753679394721985e-01</leafValues></_>
        <_>
          <internalNodes>
            0 -1 130 -3.6542918533086777e-03</internalNodes>
          <leafValues>
            5.2242195606231689e-01 -2.5008246302604675e-01</leafValues></_>
        <_>
          <internalNodes>
            0 -1 85 4.4013615697622299e-03</internalNodes>
          <leafValues>
            -7.5805771350860596e-01 1.4173932373523712e-01</leafValues></_></weakClassifiers></_>
    <!-- stage 15 -->
    <_>
      <maxWeakCount>11</maxWeakCount>
      <stageThreshold>-7.9049450159072876e-01</stageThreshold>
      <weakClassifiers>
        <_>
          <internalNodes>
            0 -1 41 7.7328141778707504e-03</internalNodes>
          <leafValues>
            -3.0269414186477661e-01 5.2730786800384521e-01</leafValues></_>
        <_>
          <internalNodes>
            0 -1 76 2.6727989315986633e-03</internalNodes>
          <leafValues>
            -7.5744354724884033e-01 2.1566191315650940e-01</leafValues></_>
        <_>
          <internalNodes>
            0 -1 49 -9.9063143134117126e-03</internalNodes>
          <leafValues>
            5.7901829481124878e-01 -2.2518900036811829e-01</leafValues></_>
        <_>
          <internalNodes>
            0 -1 24 -3.8289700169116259e-03</internalNodes>
          <leafValues>
            4.3550416827201843e-01 -2.8002825379371643e-01</leafValues></_>
        <_>
          <internalNodes>
            0 -1 129 1.8528052605688572e-03</internalNodes>
          <leafValues>
            -5.1244235038757324e-01 2.1923789381980896e-01</leafValues></_>
        <_>
          <internalNodes>
            0 -1 119 3.0676060123369098e-04</internalNodes>
          <leafValues>
            1.2863908708095551e-01 -8.9224308729171753e-01</leafValues></_>
        <_>
          <internalNodes>
            0 -1 20 1.1014994233846664e-02</internalNodes>
          <leafValues>
            -3.3742254972457886e-01 3.0002406239509583e-01</leafValues></_>
        <_>
          <internalNodes>
            0 -1 42 1.5508238226175308e-02</internalNodes>
          <leafValues>
            -3.8633298873901367e-01 2.8448757529258728e-01</leafValues></_>
        <_>
          <internalNodes>
            0 -1 110 -8.0516524612903595e-03</internalNodes>
          <leafValues>
            -9.0260493755340576e-01 1.3626012206077576e-01</leafValues></_>
        <_>
          <internalNodes>
            0 -1 137 -4.5035351067781448e-03</internalNodes>
          <leafValues>
            5.9085154533386230e-01 -2.2676071524620056e-01</leafValues></_>
        <_>
          <internalNodes>
            0 -1 125 -4.0954779833555222e-03</internalNodes>
          <leafValues>
            4.1123759746551514e-01 -2.7712878584861755e-01</leafValues></_></weakClassifiers></_>
    <!-- stage 16 -->
    <_>
      <maxWeakCount>14</maxWeakCount>
      <stageThreshold>-9.1148680448532104e-01</stageThreshold>
      <weakClassifiers>
        <_>
          <internalNodes>
            0 -1 77 6.9673750549554825e-03</internalNodes>
          <leafValues>
            -5.7928800582885742e-01 4.5127561688423157e-01</leafValues></_>
        <_>
          <internalNodes>
            0 -1 1 8.6347963660955429e-03</internalNodes>
          <leafValues>
            -1.9460685551166534e-01 6.0117626190185547e-01</leafValues></_>
        <_>
          <internalNodes>
            0 -1 62 -2.6673735119402409e-03</internalNodes>
          <leafValues>
            4.7761511802673340e-01 -2.4109272658824921e-01</leafValues></_>
        <_>
          <internalNodes>
            0 -1 46 -5.5653583258390427e-03</internalNodes>
          <leafValues>
            4.6509224176406860e-01 -2.3840512335300446e-01</leafValues></_>
        <_>
          <internalNodes>
            0 -1 50 2.9633146524429321e-01</internalNodes>
          <leafValues>
            -3.2829052209854126e-01 3.8796770572662354e-01</leafValues></_>
        <_>
          <internalNodes>
            0 -1 133 6.2045257072895765e-04</internalNodes>
          <leafValues>
            -3.2160553336143494e-01 3.3027887344360352e-01</leafValues></_>
        <_>
          <internalNodes>
            0 -1 93 -2.3997640237212181e-02</internalNodes>
          <leafValues>
            -6.7417579889297485e-01 1.5255390107631683e-01</leafValues></_>
        <_>
          <internalNodes>
            0 -1 104 -1.5580535400658846e-03</internalNodes>
          <leafValues>
            1.5286979079246521e-01 -7.6588988304138184e-01</leafValues></_>
        <_>
          <internalNodes>
            0 -1 45 2.3318100720643997e-02</internalNodes>
          <leafValues>
            -3.4738785028457642e-01 2.8369936347007751e-01</leafValues></_>
        <_>
          <internalNodes>
            0 -1 58 2.9378063045442104e-03</internalNodes>
          <leafValues>
            -7.6354396343231201e-01 1.2456759065389633e-01</leafValues></_>
        <_>
          <internalNodes>
            0 -1 78 1.9147067796438932e-03</internalNodes>
          <leafValues>
            -5.1064163446426392e-01 1.8850156664848328e-01</leafValues></_>
        <_>
          <internalNodes>
            0 -1 52 5.1289640367031097e-02</internalNodes>
          <leafValues>
            1.4557588100433350e-01 -6.6138762235641479e-01</leafValues></_>
        <_>
          <internalNodes>
            0 -1 101 -6.4168260432779789e-03</internalNodes>
          <leafValues>
            -9.0665394067764282e-01 1.1056739836931229e-01</leafValues></_>
        <_>
          <internalNodes>
            0 -1 35 -1.3376378919929266e-03</internalNodes>
          <leafValues>
            5.1181244850158691e-01 -2.0689618587493896e-01</leafValues></_></weakClassifiers></_>
    <!-- stage 17 -->
    <_>
      <maxWeakCount>14</maxWeakCount>
      <stageThreshold>-9.8631757497787476e-01</stageThreshold>
      <weakClassifiers>
        <_>
          <internalNodes>
            0 -1 92 2.4673722218722105e-03</internalNodes>
          <leafValues>
            -7.5206613540649414e-01 4.4019529223442078e-01</leafValues></_>
        <_>
          <internalNodes>
            0 -1 79 1.4394046738743782e-03</internalNodes>
          <leafValues>
            -4.6638187766075134e-01 3.2946908473968506e-01</leafValues></_>
        <_>
          <internalNodes>
            0 -1 81 2.7665661182254553e-03</internalNodes>
          <leafValues>
            -2.6337748765945435e-01 4.5750865340232849e-01</leafValues></_>
        <_>
          <internalNodes>
            0 -1 136 -1.0848894715309143e-02</internalNodes>
          <leafValues>
            5.3666466474533081e-01 -2.2876287996768951e-01</leafValues></_>
        <_>
          <internalNodes>
            0 -1 56 -3.0911920475773513e-04</internalNodes>
          <leafValues>
            4.5755782723426819e-01 -2.3768387734889984e-01</leafValues></_>
        <_>
          <internalNodes>
            0 -1 121 7.2848936542868614e-03</internalNodes>
          <leafValues>
            -3.4346088767051697e-01 3.2060313224792480e-01</leafValues></_>
        <_>
          <internalNodes>
            0 -1 97 4.5268996618688107e-03</internalNodes>
          <leafValues>
            1.6482228040695190e-01 -7.6062184572219849e-01</leafValues></_>
        <_>
          <internalNodes>
            0 -1 21 -1.4714200515300035e-03</internalNodes>
          <leafValues>
            3.4778326749801636e-01 -3.5877498984336853e-01</leafValues></_>
        <_>
          <internalNodes>
            0 -1 64 2.7755924966186285e-03</internalNodes>
          <leafValues>
            1.4094872772693634e-01 -7.6565551757812500e-01</leafValues></_>
        <_>
          <internalNodes>
            0 -1 28 -3.6069736815989017e-03</internalNodes>
          <leafValues>
            4.2631357908248901e-01 -2.9240950942039490e-01</leafValues></_>
        <_>
          <internalNodes>
            0 -1 124 -1.2939572334289551e-03</internalNodes>
          <leafValues>
            6.3097482919692993e-01 -1.6104170680046082e-01</leafValues></_>
        <_>
          <internalNodes>
            0 -1 18 4.6508863306371495e-05</internalNodes>
          <leafValues>
            -4.0324163436889648e-01 3.0101937055587769e-01</leafValues></_>
        <_>
          <internalNodes>
            0 -1 11 8.1407837569713593e-03</internalNodes>
          <leafValues>
            -1.9584442675113678e-01 6.8417131900787354e-01</leafValues></_>
        <_>
          <internalNodes>
            0 -1 126 1.7107659950852394e-03</internalNodes>
          <leafValues>
            -1.5192689001560211e-01 6.6664803028106689e-01</leafValues></_></weakClassifiers></_></stages>
  <features>
    <_>
      <rects>
        <_>
          0 5 12 12 -1.</_>
        <_>
          4 5 4 12 3.</_></rects>
      <tilted>0</tilted></_>
    <_>
      <rects>
        <_>
          0 6 2 10 -1.</_>
        <_>
          1 6 1 10 2.</_></rects>
      <tilted>0</tilted></_>
    <_>
      <rects>
        <_>
          0 7 2 8 -1.</_>
        <_>
          0 7 1 4 2.</_>
        <_>
          1 11 1 4 2.</_></rects>
      <tilted>0</tilted></_>
    <_>
      <rects>
        <_>
          0 7 12 9 -1.</_>
        <_>
          4 7 4 9 3.</_></rects>
      <tilted>0</tilted></_>
    <_>
      <rects>
        <_>
          0 9 2 6 -1.</_>
        <_>
          0 9 1 3 2.</_>
        <_>
          1 12 1 3 2.</_></rects>
      <tilted>0</tilted></_>
    <_>
      <rects>
        <_>
          0 9 2 8 -1.</_>
        <_>
          0 9 1 4 2.</_>
        <_>
          1 13 1 4 2.</_></rects>
      <tilted>0</tilted></_>
    <_>
      <rects>
        <_>
          0 10 16 7 -1.</_>
        <_>
          8 10 8 7 2.</_></rects>
      <tilted>0</tilted></_>
    <_>
      <rects>
        <_>
          1 6 3 9 -1.</_>
        <_>
          2 6 1 9 3.</_></rects>
      <tilted>0</tilted></_>
    <_>
      <rects>
        <_>
          1 6 3 10 -1.</_>
        <_>
          2 6 1 10 3.</_></rects>
      <tilted>0</tilted></_>
    <_>
      <rects>
        <_>
          1 6 6 12 -1.</_>
        <_>
          4 6 3 12 2.</_></rects>
      <tilted>0</tilted></_>
    <_>
      <rects>
        <_>
          1 7 2 6 -1.</_>
        <_>
          1 9 2 2 3.</_></rects>
      <tilted>0</tilted></_>
    <_>
      <rects>
        <_>
          1 8 3 4 -1.</_>
        <_>
          2 8 1 4 3.</_></rects>
      <tilted>0</tilted></_>
    <_>
      <rects>
        <_>
          1 10 2 4 -1.</_>
        <_>
          1 10 1 2 2.</_>
        <_>
          2 12 1 2 2.</_></rects>
      <tilted>0</tilted></_>
    <_>
      <rects>
        <_>
          1 11 6 3 -1.</_>
        <_>
          4 11 3 3 2.</_></rects>
      <tilted>0</tilted></_>
    <_>
      <rects>
        <_>
          2 3 12 10 -1.</_>
        <_>
          2 3 6 5 2.</_>
        <_>
          8 8 6 5 2.</_></rects>
      <tilted>0</tilted></_>
    <_>
      <rects>
        <_>
          2 4 14 10 -1.</_>
        <_>
          2 4 7 5 2.</_>
        <_>
          9 9 7 5 2.</_></rects>
      <tilted>0</tilted></_>
    <_>
      <rects>
        <_>
          2 10 3 4 -1.</_>
        <_>
          3 10 1 4 3.</_></rects>
      <tilted>0</tilted></_>
    <_>
      <rects>
        <_>
          2 11 12 5 -1.</_>
        <_>
          8 11 6 5 2.</_></rects>
      <tilted>0</tilted></_>
    <_>
      <rects>
        <_>
          2 12 1 2 -1.</_>
        <_>
          2 13 1 1 2.</_></rects>
      <tilted>0</tilted></_>
    <_>
      <rects>
        <_>
          2 13 2 2 -1.</_>
        <_>
          2 14 2 1 2.</_></rects>
      <tilted>0</tilted></_>
    <_>
      <rects>
        <_>
          2 15 7 4 -1.</_>
        <_>
          2 17 7 2 2.</_></rects>
      <tilted>0</tilted></_>
    <_>
      <rects>
        <_>
          3 5 2 2 -1.</_>
        <_>
          4 5 1 2 2.</_></rects>
      <tilted>0</tilted></_>
    <_>
      <rects>
        <_>
          3 5 2 3 -1.</_>
        <_>
          4 5 1 3 2.</_></rects>
      <tilted>0</tilted></_>
    <_>
      <rects>
        <_>
          3 6 2 4 -1.</_>
        <_>
          3 6 1 2 2.</_>
        <_>
          4 8 1 2 2.</_></rects>
      <tilted>0</tilted></_>
    <_>
      <rects>
        <_>
          3 13 4 4 -1.</_>
        <_>
          3 13 2 2 2.</_>
        <_>
          5 15 2 2 2.</_></rects>
      <tilted>0</tilted></_>
    <_>
      <rects>
        <_>
          3 16 5 2 -1.</_>
        <_>
          3 17 5 1 2.</_></rects>
      <tilted>0</tilted></_>
    <_>
      <rects>
        <_>
          4 1 11 3 -1.</_>
        <_>
          4 2 11 1 3.</_></rects>
      <tilted>0</tilted></_>
    <_>
      <rects>
        <_>
          4 16 2 2 -1.</_>
        <_>
          4 16 1 1 2.</_>
        <_>
          5 17 1 1 2.</_></rects>
      <tilted>0</tilted></_>
    <_>
      <rects>
        <_>
          5 2 5 3 -1.</_>
        <_>
          5 3 5 1 3.</_></rects>
      <tilted>0</tilted></_>
    <_>
      <rects>
        <_>
          5 7 15 10 -1.</_>
        <_>
          10 7 5 10 3.</_></rects>
      <tilted>0</tilted></_>
    <_>
      <rects>
        <_>
          5 8 15 8 -1.</_>
        <_>
          10 8 5 8 3.</_></rects>
      <tilted>0</tilted></_>
    <_>
      <rects>
        <_>
          5 8 11 9 -1.</_>
        <_>
          5 11 11 3 3.</_></rects>
      <tilted>0</tilted></_>
    <_>
      <rects>
        <_>
          5 9 8 8 -1.</_>
        <_>
          9 9 4 8 2.</_></rects>
      <tilted>0</tilted></_>
    <_>
      <rects>
        <_>
          5 9 15 3 -1.</_>
        <_>
          10 9 5 3 3.</_></rects>
      <tilted>0</tilted></_>
    <_>
      <rects>
        <_>
          5 14 6 6 -1.</_>
        <_>
          5 14 3 3 2.</_>
        <_>
          8 17 3 3 2.</_></rects>
      <tilted>0</tilted></_>
    <_>
      <rects>
        <_>
          5 15 2 2 -1.</_>
        <_>
          5 15 1 1 2.</_>
        <_>
          6 16 1 1 2.</_></rects>
      <tilted>0</tilted></_>
    <_>
      <rects>
        <_>
          5 16 4 2 -1.</_>
        <_>
          5 16 2 1 2.</_>
        <_>
          7 17 2 1 2.</_></rects>
      <tilted>0</tilted></_>
    <_>
      <rects>
        <_>
          5 18 9 2 -1.</_>
        <_>
          5 19 9 1 2.</_></rects>
      <tilted>0</tilted></_>
    <_>
      <rects>
        <_>
          6 0 11 12 -1.</_>
        <_>
          6 4 11 4 3.</_></rects>
      <tilted>0</tilted></_>
    <_>
      <rects>
        <_>
          6 2 9 2 -1.</_>
        <_>
          6 3 9 1 2.</_></rects>
      <tilted>0</tilted></_>
    <_>
      <rects>
        <_>
          6 9 12 7 -1.</_>
        <_>
          10 9 4 7 3.</_></rects>
      <tilted>0</tilted></_>
    <_>
      <rects>
        <_>
          6 12 4 2 -1.</_>
        <_>
          8 12 2 2 2.</_></rects>
      <tilted>0</tilted></_>
    <_>
      <rects>
        <_>
          6 12 8 6 -1.</_>
        <_>
          6 14 8 2 3.</_></rects>
      <tilted>0</tilted></_>
    <_>
      <rects>
        <_>
          6 16 8 1 -1.</_>
        <_>
          10 16 4 1 2.</_></rects>
      <tilted>0</tilted></_>
    <_>
      <rects>
        <_>
          6 17 2 3 -1.</_>
        <_>
          6 18 2 1 3.</_></rects>
      <tilted>0</tilted></_>
    <_>
      <rects>
        <_>
          7 0 12 7 -1.</_>
        <_>
          13 0 6 7 2.</_></rects>
      <tilted>0</tilted></_>
    <_>
      <rects>
        <_>
          7 2 4 3 -1.</_>
        <_>
          7 3 4 1 3.</_></rects>
      <tilted>0</tilted></_>
    <_>
      <rects>
        <_>
          7 7 12 3 -1.</_>
        <_>
          13 7 6 3 2.</_></rects>
      <tilted>0</tilted></_>
    <_>
      <rects>
        <_>
          7 12 8 4 -1.</_>
        <_>
          7 12 4 2 2.</_>
        <_>
          11 14 4 2 2.</_></rects>
      <tilted>0</tilted></_>
    <_>
      <rects>
        <_>
          7 18 7 2 -1.</_>
        <_>
          7 19 7 1 2.</_></rects>
      <tilted>0</tilted></_>
    <_>
      <rects>
        <_>
          8 1 10 14 -1.</_>
        <_>
          8 8 10 7 2.</_></rects>
      <tilted>0</tilted></_>
    <_>
      <rects>
        <_>
          8 2 5 3 -1.</_>
        <_>
          8 3 5 1 3.</_></rects>
      <tilted>0</tilted></_>
    <_>
      <rects>
        <_>
          8 7 4 9 -1.</_>
        <_>
          8 10 4 3 3.</_></rects>
      <tilted>0</tilted></_>
    <_>
      <rects>
        <_>
          8 7 9 9 -1.</_>
        <_>
          8 10 9 3 3.</_></rects>
      <tilted>0</tilted></_>
    <_>
      <rects>
        <_>
          8 8 2 9 -1.</_>
        <_>
          9 8 1 9 2.</_></rects>
      <tilted>0</tilted></_>
    <_>
      <rects>
        <_>
          8 8 2 9 -1.</_>
        <_>
          8 11 2 3 3.</_></rects>
      <tilted>0</tilted></_>
    <_>
      <rects>
        <_>
          8 9 2 2 -1.</_>
        <_>
          8 9 1 1 2.</_>
        <_>
          9 10 1 1 2.</_></rects>
      <tilted>0</tilted></_>
    <_>
      <rects>
        <_>
          8 9 2 4 -1.</_>
        <_>
          8 9 1 2 2.</_>
        <_>
          9 11 1 2 2.</_></rects>
      <tilted>0</tilted></_>
    <_>
      <rects>
        <_>
          8 9 9 1 -1.</_>
        <_>
          11 9 3 1 3.</_></rects>
      <tilted>0</tilted></_>
    <_>
      <rects>
        <_>
          8 9 8 6 -1.</_>
        <_>
          8 9 4 3 2.</_>
        <_>
          12 12 4 3 2.</_></rects>
      <tilted>0</tilted></_>
    <_>
      <rects>
        <_>
          8 10 10 6 -1.</_>
        <_>
          8 10 5 3 2.</_>
        <_>
          13 13 5 3 2.</_></rects>
      <tilted>0</tilted></_>
    <_>
      <rects>
        <_>
          8 10 11 9 -1.</_>
        <_>
          8 13 11 3 3.</_></rects>
      <tilted>0</tilted></_>
    <_>
      <rects>
        <_>
          8 11 4 3 -1.</_>
        <_>
          8 12 4 1 3.</_></rects>
      <tilted>0</tilted></_>
    <_>
      <rects>
        <_>
          8 12 2 3 -1.</_>
        <_>
          9 12 1 3 2.</_></rects>
      <tilted>0</tilted></_>
    <_>
      <rects>
        <_>
          8 12 2 6 -1.</_>
        <_>
          8 15 2 3 2.</_></rects>
      <tilted>0</tilted></_>
    <_>
      <rects>
        <_>
          8 12 8 4 -1.</_>
        <_>
          8 12 4 2 2.</_>
        <_>
          12 14 4 2 2.</_></rects>
      <tilted>0</tilted></_>
    <_>
      <rects>
        <_>
          8 15 8 2 -1.</_>
        <_>
          8 16 8 1 2.</_></rects>
      <tilted>0</tilted></_>
    <_>
      <rects>
        <_>
          8 18 6 2 -1.</_>
        <_>
          8 18 3 1 2.</_>
        <_>
          11 19 3 1 2.</_></rects>
      <tilted>0</tilted></_>
    <_>
      <rects>
        <_>
          9 0 10 4 -1.</_>
        <_>
          9 0 5 2 2.</_>
        <_>
          14 2 5 2 2.</_></rects>
      <tilted>0</tilted></_>
    <_>
      <rects>
        <_>
          9 3 7 10 -1.</_>
        <_>
          9 8 7 5 2.</_></rects>
      <tilted>0</tilted></_>
    <_>
      <rects>
        <_>
          9 5 7 15 -1.</_>
        <_>
          9 10 7 5 3.</_></rects>
      <tilted>0</tilted></_>
    <_>
      <rects>
        <_>
          9 6 6 12 -1.</_>
        <_>
          9 10 6 4 3.</_></rects>
      <tilted>0</tilted></_>
    <_>
      <rects>
        <_>
          9 6 7 4 -1.</_>
        <_>
          9 8 7 2 2.</_></rects>
      <tilted>0</tilted></_>
    <_>
      <rects>
        <_>
          9 7 2 7 -1.</_>
        <_>
          10 7 1 7 2.</_></rects>
      <tilted>0</tilted></_>
    <_>
      <rects>
        <_>
          9 7 2 9 -1.</_>
        <_>
          10 7 1 9 2.</_></rects>
      <tilted>0</tilted></_>
    <_>
      <rects>
        <_>
          9 7 7 4 -1.</_>
        <_>
          9 9 7 2 2.</_></rects>
      <tilted>0</tilted></_>
    <_>
      <rects>
        <_>
          9 8 6 6 -1.</_>
        <_>
          9 8 3 3 2.</_>
        <_>
          12 11 3 3 2.</_></rects>
      <tilted>0</tilted></_>
    <_>
      <rects>
        <_>
          9 8 9 2 -1.</_>
        <_>
          9 9 9 1 2.</_></rects>
      <tilted>0</tilted></_>
    <_>
      <rects>
        <_>
          9 9 3 2 -1.</_>
        <_>
          10 9 1 2 3.</_></rects>
      <tilted>0</tilted></_>
    <_>
      <rects>
        <_>
          9 9 2 3 -1.</_>
        <_>
          9 10 2 1 3.</_></rects>
      <tilted>0</tilted></_>
    <_>
      <rects>
        <_>
          9 9 6 4 -1.</_>
        <_>
          9 9 3 2 2.</_>
        <_>
          12 11 3 2 2.</_></rects>
      <tilted>0</tilted></_>
    <_>
      <rects>
        <_>
          9 10 2 3 -1.</_>
        <_>
          9 11 2 1 3.</_></rects>
      <tilted>0</tilted></_>
    <_>
      <rects>
        <_>
          9 11 6 3 -1.</_>
        <_>
          11 11 2 3 3.</_></rects>
      <tilted>0</tilted></_>
    <_>
      <rects>
        <_>
          9 11 7 9 -1.</_>
        <_>
          9 14 7 3 3.</_></rects>
      <tilted>0</tilted></_>
    <_>
      <rects>
        <_>
          9 11 8 6 -1.</_>
        <_>
          9 13 8 2 3.</_></rects>
      <tilted>0</tilted></_>
    <_>
      <rects>
        <_>
          9 13 6 2 -1.</_>
        <_>
          11 13 2 2 3.</_></rects>
      <tilted>0</tilted></_>
    <_>
      <rects>
        <_>
          10 7 8 3 -1.</_>
        <_>
          14 7 4 3 2.</_></rects>
      <tilted>0</tilted></_>
    <_>
      <rects>
        <_>
          10 8 4 6 -1.</_>
        <_>
          10 8 2 3 2.</_>
        <_>
          12 11 2 3 2.</_></rects>
      <tilted>0</tilted></_>
    <_>
      <rects>
        <_>
          10 9 4 4 -1.</_>
        <_>
          10 9 2 2 2.</_>
        <_>
          12 11 2 2 2.</_></rects>
      <tilted>0</tilted></_>
    <_>
      <rects>
        <_>
          10 10 6 6 -1.</_>
        <_>
          10 10 3 3 2.</_>
        <_>
          13 13 3 3 2.</_></rects>
      <tilted>0</tilted></_>
    <_>
      <rects>
        <_>
          10 11 4 6 -1.</_>
        <_>
          10 11 2 3 2.</_>
        <_>
          12 14 2 3 2.</_></rects>
      <tilted>0</tilted></_>
    <_>
      <rects>
        <_>
          10 14 6 2 -1.</_>
        <_>
          12 14 2 2 3.</_></rects>
      <tilted>0</tilted></_>
    <_>
      <rects>
        <_>
          10 14 6 3 -1.</_>
        <_>
          12 14 2 3 3.</_></rects>
      <tilted>0</tilted></_>
    <_>
      <rects>
        <_>
          10 14 3 4 -1.</_>
        <_>
          10 16 3 2 2.</_></rects>
      <tilted>0</tilted></_>
    <_>
      <rects>
        <_>
          11 4 6 10 -1.</_>
        <_>
          11 9 6 5 2.</_></rects>
      <tilted>0</tilted></_>
    <_>
      <rects>
        <_>
          11 6 5 4 -1.</_>
        <_>
          11 8 5 2 2.</_></rects>
      <tilted>0</tilted></_>
    <_>
      <rects>
        <_>
          11 8 4 4 -1.</_>
        <_>
          11 8 2 2 2.</_>
        <_>
          13 10 2 2 2.</_></rects>
      <tilted>0</tilted></_>
    <_>
      <rects>
        <_>
          11 9 4 8 -1.</_>
        <_>
          11 9 2 4 2.</_>
        <_>
          13 13 2 4 2.</_></rects>
      <tilted>0</tilted></_>
    <_>
      <rects>
        <_>
          11 10 6 1 -1.</_>
        <_>
          13 10 2 1 3.</_></rects>
      <tilted>0</tilted></_>
    <_>
      <rects>
        <_>
          11 10 4 6 -1.</_>
        <_>
          11 10 2 3 2.</_>
        <_>
          13 13 2 3 2.</_></rects>
      <tilted>0</tilted></_>
    <_>
      <rects>
        <_>
          11 10 7 6 -1.</_>
        <_>
          11 12 7 2 3.</_></rects>
      <tilted>0</tilted></_>
    <_>
      <rects>
        <_>
          11 12 4 4 -1.</_>
        <_>
          11 12 2 2 2.</_>
        <_>
          13 14 2 2 2.</_></rects>
      <tilted>0</tilted></_>
    <_>
      <rects>
        <_>
          11 13 3 3 -1.</_>
        <_>
          11 14 3 1 3.</_></rects>
      <tilted>0</tilted></_>
    <_>
      <rects>
        <_>
          11 13 4 3 -1.</_>
        <_>
          11 14 4 1 3.</_></rects>
      <tilted>0</tilted></_>
    <_>
      <rects>
        <_>
          11 14 1 4 -1.</_>
        <_>
          11 16 1 2 2.</_></rects>
      <tilted>0</tilted></_>
    <_>
      <rects>
        <_>
          12 1 5 9 -1.</_>
        <_>
          12 4 5 3 3.</_></rects>
      <tilted>0</tilted></_>
    <_>
      <rects>
        <_>
          12 5 8 4 -1.</_>
        <_>
          12 5 4 2 2.</_>
        <_>
          16 7 4 2 2.</_></rects>
      <tilted>0</tilted></_>
    <_>
      <rects>
        <_>
          12 8 2 6 -1.</_>
        <_>
          12 10 2 2 3.</_></rects>
      <tilted>0</tilted></_>
    <_>
      <rects>
        <_>
          12 9 1 6 -1.</_>
        <_>
          12 11 1 2 3.</_></rects>
      <tilted>0</tilted></_>
    <_>
      <rects>
        <_>
          12 9 4 6 -1.</_>
        <_>
          12 9 2 3 2.</_>
        <_>
          14 12 2 3 2.</_></rects>
      <tilted>0</tilted></_>
    <_>
      <rects>
        <_>
          12 10 4 6 -1.</_>
        <_>
          12 10 2 3 2.</_>
        <_>
          14 13 2 3 2.</_></rects>
      <tilted>0</tilted></_>
    <_>
      <rects>
        <_>
          13 1 3 9 -1.</_>
        <_>
          13 4 3 3 3.</_></rects>
      <tilted>0</tilted></_>
    <_>
      <rects>
        <_>
          13 3 6 3 -1.</_>
        <_>
          16 3 3 3 2.</_></rects>
      <tilted>0</tilted></_>
    <_>
      <rects>
        <_>
          13 3 6 5 -1.</_>
        <_>
          16 3 3 5 2.</_></rects>
      <tilted>0</tilted></_>
    <_>
      <rects>
        <_>
          13 4 6 2 -1.</_>
        <_>
          16 4 3 2 2.</_></rects>
      <tilted>0</tilted></_>
    <_>
      <rects>
        <_>
          13 8 2 6 -1.</_>
        <_>
          13 10 2 2 3.</_></rects>
      <tilted>0</tilted></_>
    <_>
      <rects>
        <_>
          13 9 4 1 -1.</_>
        <_>
          15 9 2 1 2.</_></rects>
      <tilted>0</tilted></_>
    <_>
      <rects>
        <_>
          13 10 3 4 -1.</_>
        <_>
          14 10 1 4 3.</_></rects>
      <tilted>0</tilted></_>
    <_>
      <rects>
        <_>
          13 11 2 3 -1.</_>
        <_>
          13 12 2 1 3.</_></rects>
      <tilted>0</tilted></_>
    <_>
      <rects>
        <_>
          13 12 2 2 -1.</_>
        <_>
          14 12 1 2 2.</_></rects>
      <tilted>0</tilted></_>
    <_>
      <rects>
        <_>
          13 12 2 3 -1.</_>
        <_>
          13 13 2 1 3.</_></rects>
      <tilted>0</tilted></_>
    <_>
      <rects>
        <_>
          14 5 6 2 -1.</_>
        <_>
          17 5 3 2 2.</_></rects>
      <tilted>0</tilted></_>
    <_>
      <rects>
        <_>
          14 10 4 5 -1.</_>
        <_>
          16 10 2 5 2.</_></rects>
      <tilted>0</tilted></_>
    <_>
      <rects>
        <_>
          14 13 2 3 -1.</_>
        <_>
          15 13 1 3 2.</_></rects>
      <tilted>0</tilted></_>
    <_>
      <rects>
        <_>
          15 5 2 2 -1.</_>
        <_>
          15 5 1 1 2.</_>
        <_>
          16 6 1 1 2.</_></rects>
      <tilted>0</tilted></_>
    <_>
      <rects>
        <_>
          15 5 3 6 -1.</_>
        <_>
          16 5 1 6 3.</_></rects>
      <tilted>0</tilted></_>
    <_>
      <rects>
        <_>
          15 7 3 1 -1.</_>
        <_>
          16 7 1 1 3.</_></rects>
      <tilted>0</tilted></_>
    <_>
      <rects>
        <_>
          15 8 2 8 -1.</_>
        <_>
          16 8 1 8 2.</_></rects>
      <tilted>0</tilted></_>
    <_>
      <rects>
        <_>
          16 7 1 8 -1.</_>
        <_>
          16 11 1 4 2.</_></rects>
      <tilted>0</tilted></_>
    <_>
      <rects>
        <_>
          16 9 1 6 -1.</_>
        <_>
          16 11 1 2 3.</_></rects>
      <tilted>0</tilted></_>
    <_>
      <rects>
        <_>
          17 7 2 4 -1.</_>
        <_>
          17 7 1 2 2.</_>
        <_>
          18 9 1 2 2.</_></rects>
      <tilted>0</tilted></_>
    <_>
      <rects>
        <_>
          17 8 3 2 -1.</_>
        <_>
          18 8 1 2 3.</_></rects>
      <tilted>0</tilted></_>
    <_>
      <rects>
        <_>
          17 9 2 4 -1.</_>
        <_>
          17 9 1 2 2.</_>
        <_>
          18 11 1 2 2.</_></rects>
      <tilted>0</tilted></_>
    <_>
      <rects>
        <_>
          17 10 2 4 -1.</_>
        <_>
          17 10 1 2 2.</_>
        <_>
          18 12 1 2 2.</_></rects>
      <tilted>0</tilted></_>
    <_>
      <rects>
        <_>
          17 12 3 2 -1.</_>
        <_>
          18 12 1 2 3.</_></rects>
      <tilted>0</tilted></_>
    <_>
      <rects>
        <_>
          18 6 2 8 -1.</_>
        <_>
          19 6 1 8 2.</_></rects>
      <tilted>0</tilted></_>
    <_>
      <rects>
        <_>
          18 7 2 7 -1.</_>
        <_>
          19 7 1 7 2.</_></rects>
      <tilted>0</tilted></_>
    <_>
      <rects>
        <_>
          18 8 2 4 -1.</_>
        <_>
          18 8 1 2 2.</_>
        <_>
          19 10 1 2 2.</_></rects>
      <tilted>0</tilted></_></features></cascade>
</opencv_storage>
