<?xml version="1.0"?>
<opencv_storage>
<cascade>
  <stageType>BOOST</stageType>
  <featureType>HAAR</featureType>
  <height>20</height>
  <width>20</width>
  <stageParams>
    <boostType>GAB</boostType>
    <minHitRate>9.9500000476837158e-01</minHitRate>
    <maxFalseAlarm>5.0000000000000000e-01</maxFalseAlarm>
    <weightTrimRate>9.4999999999999996e-01</weightTrimRate>
    <maxDepth>1</maxDepth>
    <maxWeakCount>100</maxWeakCount></stageParams>
  <featureParams>
    <maxCatCount>0</maxCatCount>
    <featSize>1</featSize>
    <mode>BASIC</mode></featureParams>
  <stageNum>8</stageNum>
  <stages>
    <!-- stage 0 -->
    <_>
      <maxWeakCount>2</maxWeakCount>
      <stageThreshold>-7.6846294105052948e-02</stageThreshold>
      <weakClassifiers>
        <_>
          <internalNodes>
            0 -1 7 1.3048298656940460e-01</internalNodes>
          <leafValues>
            -9.3591159582138062e-01 9.7325903177261353e-01</leafValues></_>
        <_>
          <internalNodes>
            0 -1 14 2.2633507847785950e-02</internalNodes>
          <leafValues>
            -9.8081076145172119e-01 8.5906529426574707e-01</leafValues></_></weakClassifiers></_>
    <!-- stage 1 -->
    <_>
      <maxWeakCount>2</maxWeakCount>
      <stageThreshold>-1.6636259853839874e-01</stageThreshold>
      <weakClassifiers>
        <_>
          <internalNodes>
            0 -1 30 9.1705158352851868e-02</internalNodes>
          <leafValues>
            -9.4339621067047119e-01 9.1792654991149902e-01</leafValues></_>
        <_>
          <internalNodes>
            0 -1 26 2.3112762719392776e-03</internalNodes>
          <leafValues>
            -8.8848555088043213e-01 7.7703362703323364e-01</leafValues></_></weakClassifiers></_>
    <!-- stage 2 -->
    <_>
      <maxWeakCount>5</maxWeakCount>
      <stageThreshold>-1.0890552997589111e+00</stageThreshold>
      <weakClassifiers>
        <_>
          <internalNodes>
            0 -1 8 2.1010725200176239e-01</internalNodes>
          <leafValues>
            -7.0136696100234985e-01 8.9594054222106934e-01</leafValues></_>
        <_>
          <internalNodes>
            0 -1 25 1.2865999341011047e-01</internalNodes>
          <leafValues>
            -6.6787332296371460e-01 6.9768697023391724e-01</leafValues></_>
        <_>
          <internalNodes>
            0 -1 0 -1.0303092002868652e-01</internalNodes>
          <leafValues>
            5.8802181482315063e-01 -5.6897890567779541e-01</leafValues></_>
        <_>
          <internalNodes>
            0 -1 36 -1.2053951621055603e-02</internalNodes>
          <leafValues>
            4.1655772924423218e-01 -8.6725598573684692e-01</leafValues></_>
        <_>
          <internalNodes>
            0 -1 29 5.5168280377984047e-03</internalNodes>
          <leafValues>
            -7.7744662761688232e-01 4.3260622024536133e-01</leafValues></_></weakClassifiers></_>
    <!-- stage 3 -->
    <_>
      <maxWeakCount>5</maxWeakCount>
      <stageThreshold>-9.7232908010482788e-01</stageThreshold>
      <weakClassifiers>
        <_>
          <internalNodes>
            0 -1 3 1.7009961605072021e-01</internalNodes>
          <leafValues>
            -6.1936938762664795e-01 8.0022072792053223e-01</leafValues></_>
        <_>
          <internalNodes>
            0 -1 16 1.1405374109745026e-01</internalNodes>
          <leafValues>
            -7.7997016906738281e-01 4.9869510531425476e-01</leafValues></_>
        <_>
          <internalNodes>
            0 -1 20 1.0118752252310514e-03</internalNodes>
          <leafValues>
            -7.6165401935577393e-01 3.8927903771400452e-01</leafValues></_>
        <_>
          <internalNodes>
            0 -1 24 9.6392845734953880e-03</internalNodes>
          <leafValues>
            -5.4238849878311157e-01 4.8295241594314575e-01</leafValues></_>
        <_>
          <internalNodes>
            0 -1 10 -5.7021565735340118e-03</internalNodes>
          <leafValues>
            6.4119815826416016e-01 -4.4522094726562500e-01</leafValues></_></weakClassifiers></_>
    <!-- stage 4 -->
    <_>
      <maxWeakCount>6</maxWeakCount>
      <stageThreshold>-9.5857012271881104e-01</stageThreshold>
      <weakClassifiers>
        <_>
          <internalNodes>
            0 -1 13 3.9744533598423004e-02</internalNodes>
          <leafValues>
            -5.7291668653488159e-01 6.9358175992965698e-01</leafValues></_>
        <_>
          <internalNodes>
            0 -1 32 8.5419550305232406e-04</internalNodes>
          <leafValues>
            -8.9997923374176025e-01 4.0345650911331177e-01</leafValues></_>
        <_>
          <internalNodes>
            0 -1 31 2.5232940912246704e-02</internalNodes>
          <leafValues>
            -6.0658788681030273e-01 4.7250708937644958e-01</leafValues></_>
        <_>
          <internalNodes>
            0 -1 39 1.8031455110758543e-03</internalNodes>
          <leafValues>
            -8.7363791465759277e-01 2.5632378458976746e-01</leafValues></_>
        <_>
          <internalNodes>
            0 -1 23 8.2313548773527145e-03</internalNodes>
          <leafValues>
            -8.3243507146835327e-01 2.5473526120185852e-01</leafValues></_>
        <_>
          <internalNodes>
            0 -1 37 4.8063588328659534e-03</internalNodes>
          <leafValues>
            -5.4949092864990234e-01 4.4445592164993286e-01</leafValues></_></weakClassifiers></_>
    <!-- stage 5 -->
    <_>
      <maxWeakCount>7</maxWeakCount>
      <stageThreshold>-8.0637103319168091e-01</stageThreshold>
      <weakClassifiers>
        <_>
          <internalNodes>
            0 -1 6 2.5405085086822510e-01</internalNodes>
          <leafValues>
            -5.3589743375778198e-01 6.8645834922790527e-01</leafValues></_>
        <_>
          <internalNodes>
            0 -1 9 -1.0918110609054565e-01</internalNodes>
          <leafValues>
            4.5591044425964355e-01 -6.7973196506500244e-01</leafValues></_>
        <_>
          <internalNodes>
            0 -1 27 2.3133028662414290e-05</internalNodes>
          <leafValues>
            -8.4819531440734863e-01 3.1409806013107300e-01</leafValues></_>
        <_>
          <internalNodes>
            0 -1 5 -6.7332219332456589e-03</internalNodes>
          <leafValues>
            4.0009167790412903e-01 -5.1517087221145630e-01</leafValues></_>
        <_>
          <internalNodes>
            0 -1 35 4.1529368609189987e-03</internalNodes>
          <leafValues>
            1.9147722423076630e-01 -9.3056380748748779e-01</leafValues></_>
        <_>
          <internalNodes>
            0 -1 19 8.3494903519749641e-03</internalNodes>
          <leafValues>
            -8.7644755840301514e-01 2.1336451172828674e-01</leafValues></_>
        <_>
          <internalNodes>
            0 -1 28 4.7107273712754250e-03</internalNodes>
          <leafValues>
            -8.2631856203079224e-01 2.0548947155475616e-01</leafValues></_></weakClassifiers></_>
    <!-- stage 6 -->
    <_>
      <maxWeakCount>7</maxWeakCount>
      <stageThreshold>-6.3441073894500732e-01</stageThreshold>
      <weakClassifiers>
        <_>
          <internalNodes>
            0 -1 17 4.0009126067161560e-02</internalNodes>
          <leafValues>
            -4.8857143521308899e-01 6.2099999189376831e-01</leafValues></_>
        <_>
          <internalNodes>
            0 -1 15 5.4201409220695496e-03</internalNodes>
          <leafValues>
            -6.8770515918731689e-01 3.9694935083389282e-01</leafValues></_>
        <_>
          <internalNodes>
            0 -1 21 1.5891976654529572e-02</internalNodes>
          <leafValues>
            2.5630715489387512e-01 -9.5682829618453979e-01</leafValues></_>
        <_>
          <internalNodes>
            0 -1 2 9.2277266085147858e-03</internalNodes>
          <leafValues>
            -3.7429258227348328e-01 6.3420474529266357e-01</leafValues></_>
        <_>
          <internalNodes>
            0 -1 22 1.5242609661072493e-03</internalNodes>
          <leafValues>
            -8.0554485321044922e-01 2.3846007883548737e-01</leafValues></_>
        <_>
          <internalNodes>
            0 -1 33 6.7250384017825127e-03</internalNodes>
          <leafValues>
            -5.2052599191665649e-01 3.3258122205734253e-01</leafValues></_>
        <_>
          <internalNodes>
            0 -1 38 -2.2673676721751690e-03</internalNodes>
          <leafValues>
            2.1729092299938202e-01 -8.1318986415863037e-01</leafValues></_></weakClassifiers></_>
    <!-- stage 7 -->
    <_>
      <maxWeakCount>6</maxWeakCount>
      <stageThreshold>-5.9483051300048828e-01</stageThreshold>
      <weakClassifiers>
        <_>
          <internalNodes>
            0 -1 11 1.1469346471130848e-02</internalNodes>
          <leafValues>
            -4.0806046128273010e-01 6.4218258857727051e-01</leafValues></_>
        <_>
          <internalNodes>
            0 -1 18 1.4912939071655273e-01</internalNodes>
          <leafValues>
            -5.5216622352600098e-01 4.6083366870880127e-01</leafValues></_>
        <_>
          <internalNodes>
            0 -1 34 5.3887104149907827e-04</internalNodes>
          <leafValues>
            -9.3147552013397217e-01 2.1639770269393921e-01</leafValues></_>
        <_>
          <internalNodes>
            0 -1 12 -3.3291196450591087e-03</internalNodes>
          <leafValues>
            2.1180655062198639e-01 -7.5647640228271484e-01</leafValues></_>
        <_>
          <internalNodes>
            0 -1 4 9.0705626644194126e-04</internalNodes>
          <leafValues>
            -4.8187258839607239e-01 3.5737073421478271e-01</leafValues></_>
        <_>
          <internalNodes>
            0 -1 1 3.9566629566252232e-03</internalNodes>
          <leafValues>
            -2.8530547022819519e-01 6.5331721305847168e-01</leafValues></_></weakClassifiers></_></stages>
  <features>
    <_>
      <rects>
        <_>
          0 8 12 9 -1.</_>
        <_>
          4 8 4 9 3.</_></rects>
      <tilted>0</tilted></_>
    <_>
      <rects>
        <_>
          0 9 2 6 -1.</_>
        <_>
          0 9 1 3 2.</_>
        <_>
          1 12 1 3 2.</_></rects>
      <tilted>0</tilted></_>
    <_>
      <rects>
        <_>
          1 6 3 10 -1.</_>
        <_>
          2 6 1 10 3.</_></rects>
      <tilted>0</tilted></_>
    <_>
      <rects>
        <_>
          3 9 12 7 -1.</_>
        <_>
          9 9 6 7 2.</_></rects>
      <tilted>0</tilted></_>
    <_>
      <rects>
        <_>
          3 16 5 2 -1.</_>
        <_>
          3 17 5 1 2.</_></rects>
      <tilted>0</tilted></_>
    <_>
      <rects>
        <_>
          4 14 6 4 -1.</_>
        <_>
          4 14 3 2 2.</_>
        <_>
          7 16 3 2 2.</_></rects>
      <tilted>0</tilted></_>
    <_>
      <rects>
        <_>
          5 8 15 9 -1.</_>
        <_>
          10 8 5 9 3.</_></rects>
      <tilted>0</tilted></_>
    <_>
      <rects>
        <_>
          5 9 15 6 -1.</_>
        <_>
          10 9 5 6 3.</_></rects>
      <tilted>0</tilted></_>
    <_>
      <rects>
        <_>
          5 9 15 7 -1.</_>
        <_>
          10 9 5 7 3.</_></rects>
      <tilted>0</tilted></_>
    <_>
      <rects>
        <_>
          6 0 12 12 -1.</_>
        <_>
          6 4 12 4 3.</_></rects>
      <tilted>0</tilted></_>
    <_>
      <rects>
        <_>
          6 2 7 2 -1.</_>
        <_>
          6 3 7 1 2.</_></rects>
      <tilted>0</tilted></_>
    <_>
      <rects>
        <_>
          6 11 4 3 -1.</_>
        <_>
          8 11 2 3 2.</_></rects>
      <tilted>0</tilted></_>
    <_>
      <rects>
        <_>
          6 15 9 2 -1.</_>
        <_>
          6 16 9 1 2.</_></rects>
      <tilted>0</tilted></_>
    <_>
      <rects>
        <_>
          7 8 4 9 -1.</_>
        <_>
          9 8 2 9 2.</_></rects>
      <tilted>0</tilted></_>
    <_>
      <rects>
        <_>
          7 8 6 6 -1.</_>
        <_>
          10 8 3 6 2.</_></rects>
      <tilted>0</tilted></_>
    <_>
      <rects>
        <_>
          7 10 4 1 -1.</_>
        <_>
          9 10 2 1 2.</_></rects>
      <tilted>0</tilted></_>
    <_>
      <rects>
        <_>
          8 6 8 12 -1.</_>
        <_>
          8 10 8 4 3.</_></rects>
      <tilted>0</tilted></_>
    <_>
      <rects>
        <_>
          8 7 10 4 -1.</_>
        <_>
          8 9 10 2 2.</_></rects>
      <tilted>0</tilted></_>
    <_>
      <rects>
        <_>
          8 8 12 11 -1.</_>
        <_>
          12 8 4 11 3.</_></rects>
      <tilted>0</tilted></_>
    <_>
      <rects>
        <_>
          9 8 6 6 -1.</_>
        <_>
          9 10 6 2 3.</_></rects>
      <tilted>0</tilted></_>
    <_>
      <rects>
        <_>
          9 9 3 2 -1.</_>
        <_>
          10 9 1 2 3.</_></rects>
      <tilted>0</tilted></_>
    <_>
      <rects>
        <_>
          9 10 8 6 -1.</_>
        <_>
          9 10 4 3 2.</_>
        <_>
          13 13 4 3 2.</_></rects>
      <tilted>0</tilted></_>
    <_>
      <rects>
        <_>
          9 11 2 2 -1.</_>
        <_>
          10 11 1 2 2.</_></rects>
      <tilted>0</tilted></_>
    <_>
      <rects>
        <_>
          9 12 6 4 -1.</_>
        <_>
          11 12 2 4 3.</_></rects>
      <tilted>0</tilted></_>
    <_>
      <rects>
        <_>
          9 12 6 6 -1.</_>
        <_>
          9 14 6 2 3.</_></rects>
      <tilted>0</tilted></_>
    <_>
      <rects>
        <_>
          10 3 6 12 -1.</_>
        <_>
          10 9 6 6 2.</_></rects>
      <tilted>0</tilted></_>
    <_>
      <rects>
        <_>
          10 8 3 2 -1.</_>
        <_>
          10 9 3 1 2.</_></rects>
      <tilted>0</tilted></_>
    <_>
      <rects>
        <_>
          10 9 4 4 -1.</_>
        <_>
          10 9 2 2 2.</_>
        <_>
          12 11 2 2 2.</_></rects>
      <tilted>0</tilted></_>
    <_>
      <rects>
        <_>
          10 11 7 6 -1.</_>
        <_>
          10 13 7 2 3.</_></rects>
      <tilted>0</tilted></_>
    <_>
      <rects>
        <_>
          10 12 6 2 -1.</_>
        <_>
          12 12 2 2 3.</_></rects>
      <tilted>0</tilted></_>
    <_>
      <rects>
        <_>
          11 5 4 15 -1.</_>
        <_>
          11 10 4 5 3.</_></rects>
      <tilted>0</tilted></_>
    <_>
      <rects>
        <_>
          11 6 5 4 -1.</_>
        <_>
          11 8 5 2 2.</_></rects>
      <tilted>0</tilted></_>
    <_>
      <rects>
        <_>
          11 13 6 2 -1.</_>
        <_>
          13 13 2 2 3.</_></rects>
      <tilted>0</tilted></_>
    <_>
      <rects>
        <_>
          12 2 6 5 -1.</_>
        <_>
          15 2 3 5 2.</_></rects>
      <tilted>0</tilted></_>
    <_>
      <rects>
        <_>
          12 9 1 6 -1.</_>
        <_>
          12 11 1 2 3.</_></rects>
      <tilted>0</tilted></_>
    <_>
      <rects>
        <_>
          12 9 4 6 -1.</_>
        <_>
          12 9 2 3 2.</_>
        <_>
          14 12 2 3 2.</_></rects>
      <tilted>0</tilted></_>
    <_>
      <rects>
        <_>
          13 2 3 9 -1.</_>
        <_>
          13 5 3 3 3.</_></rects>
      <tilted>0</tilted></_>
    <_>
      <rects>
        <_>
          13 4 6 2 -1.</_>
        <_>
          16 4 3 2 2.</_></rects>
      <tilted>0</tilted></_>
    <_>
      <rects>
        <_>
          13 8 4 3 -1.</_>
        <_>
          15 8 2 3 2.</_></rects>
      <tilted>0</tilted></_>
    <_>
      <rects>
        <_>
          14 10 2 6 -1.</_>
        <_>
          14 12 2 2 3.</_></rects>
      <tilted>0</tilted></_></features></cascade>
</opencv_storage>
