<?xml version="1.0"?>
<opencv_storage>
<stage11>
  <maxWeakCount>10</maxWeakCount>
  <stageThreshold>-9.3918919563293457e-01</stageThreshold>
  <weakClassifiers>
    <_>
      <internalNodes>
        0 -1 70341 8.3817634731531143e-04</internalNodes>
      <leafValues>
        -8.2352942228317261e-01 4.6293246746063232e-01</leafValues></_>
    <_>
      <internalNodes>
        0 -1 67678 1.4213667251169682e-02</internalNodes>
      <leafValues>
        2.5727254152297974e-01 -8.4837716817855835e-01</leafValues></_>
    <_>
      <internalNodes>
        0 -1 17001 1.5199838578701019e-01</internalNodes>
      <leafValues>
        -4.6111211180686951e-01 3.1551927328109741e-01</leafValues></_>
    <_>
      <internalNodes>
        0 -1 19998 -4.3271882459521294e-03</internalNodes>
      <leafValues>
        5.7609301805496216e-01 -2.5415778160095215e-01</leafValues></_>
    <_>
      <internalNodes>
        0 -1 12966 -1.8027038313448429e-03</internalNodes>
      <leafValues>
        5.6585222482681274e-01 -2.4498189985752106e-01</leafValues></_>
    <_>
      <internalNodes>
        0 -1 61668 2.6033525355160236e-03</internalNodes>
      <leafValues>
        1.5806795656681061e-01 -8.8768458366394043e-01</leafValues></_>
    <_>
      <internalNodes>
        0 -1 53325 -6.2798419967293739e-03</internalNodes>
      <leafValues>
        -9.0582185983657837e-01 1.2322317808866501e-01</leafValues></_>
    <_>
      <internalNodes>
        0 -1 64579 4.5934682711958885e-03</internalNodes>
      <leafValues>
        1.3731203973293304e-01 -8.0357176065444946e-01</leafValues></_>
    <_>
      <internalNodes>
        0 -1 57396 1.5022875741124153e-03</internalNodes>
      <leafValues>
        -6.0654222965240479e-01 2.1091473102569580e-01</leafValues></_>
    <_>
      <internalNodes>
        0 -1 45037 2.2831326350569725e-03</internalNodes>
      <leafValues>
        -2.9961523413658142e-01 5.0445842742919922e-01</leafValues></_></weakClassifiers></stage11>
</opencv_storage>
