<?xml version="1.0"?>
<opencv_storage>
<stage6>
  <maxWeakCount>7</maxWeakCount>
  <stageThreshold>-6.3441073894500732e-01</stageThreshold>
  <weakClassifiers>
    <_>
      <internalNodes>
        0 -1 52902 4.0009126067161560e-02</internalNodes>
      <leafValues>
        -4.8857143521308899e-01 6.2099999189376831e-01</leafValues></_>
    <_>
      <internalNodes>
        0 -1 48779 5.4201409220695496e-03</internalNodes>
      <leafValues>
        -6.8770515918731689e-01 3.9694935083389282e-01</leafValues></_>
    <_>
      <internalNodes>
        0 -1 57700 1.5891976654529572e-02</internalNodes>
      <leafValues>
        2.5630715489387512e-01 -9.5682829618453979e-01</leafValues></_>
    <_>
      <internalNodes>
        0 -1 11287 9.2277266085147858e-03</internalNodes>
      <leafValues>
        -3.7429258227348328e-01 6.3420474529266357e-01</leafValues></_>
    <_>
      <internalNodes>
        0 -1 57788 1.5242609661072493e-03</internalNodes>
      <leafValues>
        -8.0554485321044922e-01 2.3846007883548737e-01</leafValues></_>
    <_>
      <internalNodes>
        0 -1 66436 6.7250384017825127e-03</internalNodes>
      <leafValues>
        -5.2052599191665649e-01 3.3258122205734253e-01</leafValues></_>
    <_>
      <internalNodes>
        0 -1 70343 -2.2673676721751690e-03</internalNodes>
      <leafValues>
        2.1729092299938202e-01 -8.1318986415863037e-01</leafValues></_></weakClassifiers></stage6>
</opencv_storage>
