<?xml version="1.0"?>
<opencv_storage>
<stage10>
  <maxWeakCount>9</maxWeakCount>
  <stageThreshold>-6.5965247154235840e-01</stageThreshold>
  <weakClassifiers>
    <_>
      <internalNodes>
        0 -1 57427 9.5847900956869125e-04</internalNodes>
      <leafValues>
        -3.7570622563362122e-01 5.8534139394760132e-01</leafValues></_>
    <_>
      <internalNodes>
        0 -1 78050 -6.4661810174584389e-03</internalNodes>
      <leafValues>
        5.8074569702148438e-01 -2.7630001306533813e-01</leafValues></_>
    <_>
      <internalNodes>
        0 -1 70823 -9.1713503934442997e-05</internalNodes>
      <leafValues>
        -8.0786299705505371e-01 2.1982647478580475e-01</leafValues></_>
    <_>
      <internalNodes>
        0 -1 51084 -4.7948285937309265e-03</internalNodes>
      <leafValues>
        5.2633035182952881e-01 -3.0213314294815063e-01</leafValues></_>
    <_>
      <internalNodes>
        0 -1 57922 3.9599403738975525e-02</internalNodes>
      <leafValues>
        -3.6894702911376953e-01 4.2826083302497864e-01</leafValues></_>
    <_>
      <internalNodes>
        0 -1 70476 -7.8040349762886763e-04</internalNodes>
      <leafValues>
        2.2593700885772705e-01 -7.1756666898727417e-01</leafValues></_>
    <_>
      <internalNodes>
        0 -1 69707 8.0753630027174950e-03</internalNodes>
      <leafValues>
        -4.5698541402816772e-01 4.0966033935546875e-01</leafValues></_>
    <_>
      <internalNodes>
        0 -1 77302 -3.2934984192252159e-03</internalNodes>
      <leafValues>
        6.3227868080139160e-01 -2.5444144010543823e-01</leafValues></_>
    <_>
      <internalNodes>
        0 -1 56937 5.1075126975774765e-03</internalNodes>
      <leafValues>
        -8.3195191621780396e-01 2.0874732732772827e-01</leafValues></_></weakClassifiers></stage10>
</opencv_storage>
