<?xml version="1.0"?>
<opencv_storage>
<stage4>
  <maxWeakCount>6</maxWeakCount>
  <stageThreshold>-9.5857012271881104e-01</stageThreshold>
  <weakClassifiers>
    <_>
      <internalNodes>
        0 -1 48288 3.9744533598423004e-02</internalNodes>
      <leafValues>
        -5.7291668653488159e-01 6.9358175992965698e-01</leafValues></_>
    <_>
      <internalNodes>
        0 -1 65356 8.5419550305232406e-04</internalNodes>
      <leafValues>
        -8.9997923374176025e-01 4.0345650911331177e-01</leafValues></_>
    <_>
      <internalNodes>
        0 -1 64272 2.5232940912246704e-02</internalNodes>
      <leafValues>
        -6.0658788681030273e-01 4.7250708937644958e-01</leafValues></_>
    <_>
      <internalNodes>
        0 -1 72976 1.8031455110758543e-03</internalNodes>
      <leafValues>
        -8.7363791465759277e-01 2.5632378458976746e-01</leafValues></_>
    <_>
      <internalNodes>
        0 -1 57994 8.2313548773527145e-03</internalNodes>
      <leafValues>
        -8.3243507146835327e-01 2.5473526120185852e-01</leafValues></_>
    <_>
      <internalNodes>
        0 -1 69707 4.8063588328659534e-03</internalNodes>
      <leafValues>
        -5.4949092864990234e-01 4.4445592164993286e-01</leafValues></_></weakClassifiers></stage4>
</opencv_storage>
