<?xml version="1.0"?>
<opencv_storage>
<stage3>
  <maxWeakCount>5</maxWeakCount>
  <stageThreshold>-9.7232908010482788e-01</stageThreshold>
  <weakClassifiers>
    <_>
      <internalNodes>
        0 -1 26332 1.7009961605072021e-01</internalNodes>
      <leafValues>
        -6.1936938762664795e-01 8.0022072792053223e-01</leafValues></_>
    <_>
      <internalNodes>
        0 -1 52596 1.1405374109745026e-01</internalNodes>
      <leafValues>
        -7.7997016906738281e-01 4.9869510531425476e-01</leafValues></_>
    <_>
      <internalNodes>
        0 -1 57396 1.0118752252310514e-03</internalNodes>
      <leafValues>
        -7.6165401935577393e-01 3.8927903771400452e-01</leafValues></_>
    <_>
      <internalNodes>
        0 -1 58069 9.6392845734953880e-03</internalNodes>
      <leafValues>
        -5.4238849878311157e-01 4.8295241594314575e-01</leafValues></_>
    <_>
      <internalNodes>
        0 -1 41176 -5.7021565735340118e-03</internalNodes>
      <leafValues>
        6.4119815826416016e-01 -4.4522094726562500e-01</leafValues></_></weakClassifiers></stage3>
</opencv_storage>
