<?xml version="1.0"?>
<opencv_storage>
<stage2>
  <maxWeakCount>5</maxWeakCount>
  <stageThreshold>-1.0890552997589111e+00</stageThreshold>
  <weakClassifiers>
    <_>
      <internalNodes>
        0 -1 38299 2.1010725200176239e-01</internalNodes>
      <leafValues>
        -7.0136696100234985e-01 8.9594054222106934e-01</leafValues></_>
    <_>
      <internalNodes>
        0 -1 59902 1.2865999341011047e-01</internalNodes>
      <leafValues>
        -6.6787332296371460e-01 6.9768697023391724e-01</leafValues></_>
    <_>
      <internalNodes>
        0 -1 5005 -1.0303092002868652e-01</internalNodes>
      <leafValues>
        5.8802181482315063e-01 -5.6897890567779541e-01</leafValues></_>
    <_>
      <internalNodes>
        0 -1 69305 -1.2053951621055603e-02</internalNodes>
      <leafValues>
        4.1655772924423218e-01 -8.6725598573684692e-01</leafValues></_>
    <_>
      <internalNodes>
        0 -1 61820 5.5168280377984047e-03</internalNodes>
      <leafValues>
        -7.7744662761688232e-01 4.3260622024536133e-01</leafValues></_></weakClassifiers></stage2>
</opencv_storage>
