<?xml version="1.0"?>
<opencv_storage>
<stage9>
  <maxWeakCount>10</maxWeakCount>
  <stageThreshold>-8.6990541219711304e-01</stageThreshold>
  <weakClassifiers>
    <_>
      <internalNodes>
        0 -1 4543 -1.1952815949916840e-01</internalNodes>
      <leafValues>
        5.9979635477066040e-01 -3.7771740555763245e-01</leafValues></_>
    <_>
      <internalNodes>
        0 -1 74604 -5.2178027108311653e-03</internalNodes>
      <leafValues>
        3.2321780920028687e-01 -6.1358356475830078e-01</leafValues></_>
    <_>
      <internalNodes>
        0 -1 20904 9.4763276865705848e-04</internalNodes>
      <leafValues>
        -3.3023211359977722e-01 5.4417288303375244e-01</leafValues></_>
    <_>
      <internalNodes>
        0 -1 61075 1.4311759150587022e-04</internalNodes>
      <leafValues>
        -8.7828290462493896e-01 1.5904860198497772e-01</leafValues></_>
    <_>
      <internalNodes>
        0 -1 56856 3.4396871924400330e-02</internalNodes>
      <leafValues>
        -5.1549392938613892e-01 3.3118909597396851e-01</leafValues></_>
    <_>
      <internalNodes>
        0 -1 53657 5.8906361460685730e-02</internalNodes>
      <leafValues>
        -5.0578665733337402e-01 3.4974065423011780e-01</leafValues></_>
    <_>
      <internalNodes>
        0 -1 27841 2.6460736989974976e-03</internalNodes>
      <leafValues>
        -3.9618363976478577e-01 3.8136976957321167e-01</leafValues></_>
    <_>
      <internalNodes>
        0 -1 4403 5.2767861634492874e-03</internalNodes>
      <leafValues>
        -2.3620076477527618e-01 6.4754337072372437e-01</leafValues></_>
    <_>
      <internalNodes>
        0 -1 70720 -1.3229664182290435e-04</internalNodes>
      <leafValues>
        -8.0994749069213867e-01 2.0728975534439087e-01</leafValues></_>
    <_>
      <internalNodes>
        0 -1 53585 1.3987816870212555e-02</internalNodes>
      <leafValues>
        1.4251513779163361e-01 -8.2131797075271606e-01</leafValues></_></weakClassifiers></stage9>
</opencv_storage>
