<?xml version="1.0"?>
<opencv_storage>
<stage12>
  <maxWeakCount>11</maxWeakCount>
  <stageThreshold>-9.6911561489105225e-01</stageThreshold>
  <weakClassifiers>
    <_>
      <internalNodes>
        0 -1 76039 5.0213362555950880e-04</internalNodes>
      <leafValues>
        -6.9273740053176880e-01 4.9017933011054993e-01</leafValues></_>
    <_>
      <internalNodes>
        0 -1 65038 4.5376572757959366e-02</internalNodes>
      <leafValues>
        1.9288793206214905e-01 -8.4992754459381104e-01</leafValues></_>
    <_>
      <internalNodes>
        0 -1 29118 1.0962499305605888e-02</internalNodes>
      <leafValues>
        -2.7981275320053101e-01 5.8135133981704712e-01</leafValues></_>
    <_>
      <internalNodes>
        0 -1 11782 -4.3383272713981569e-04</internalNodes>
      <leafValues>
        2.9401001334190369e-01 -4.8525533080101013e-01</leafValues></_>
    <_>
      <internalNodes>
        0 -1 62084 3.5317591391503811e-03</internalNodes>
      <leafValues>
        -7.9176509380340576e-01 1.5849691629409790e-01</leafValues></_>
    <_>
      <internalNodes>
        0 -1 33936 -1.2557634618133307e-03</internalNodes>
      <leafValues>
        6.6607272624969482e-01 -2.1008595824241638e-01</leafValues></_>
    <_>
      <internalNodes>
        0 -1 39634 -2.8543325606733561e-03</internalNodes>
      <leafValues>
        5.6062471866607666e-01 -2.5223094224929810e-01</leafValues></_>
    <_>
      <internalNodes>
        0 -1 67814 1.0212828638032079e-03</internalNodes>
      <leafValues>
        -8.6801576614379883e-01 1.5571807324886322e-01</leafValues></_>
    <_>
      <internalNodes>
        0 -1 66245 -3.6354824900627136e-02</internalNodes>
      <leafValues>
        2.4359409511089325e-01 -5.2235871553421021e-01</leafValues></_>
    <_>
      <internalNodes>
        0 -1 13372 -1.9742261429200880e-05</internalNodes>
      <leafValues>
        2.5341367721557617e-01 -5.6108748912811279e-01</leafValues></_>
    <_>
      <internalNodes>
        0 -1 78010 -1.1929402127861977e-02</internalNodes>
      <leafValues>
        6.3679134845733643e-01 -2.5052288174629211e-01</leafValues></_></weakClassifiers></stage12>
</opencv_storage>
