<?xml version="1.0"?>
<opencv_storage>
<stage7>
  <maxWeakCount>6</maxWeakCount>
  <stageThreshold>-5.9483051300048828e-01</stageThreshold>
  <weakClassifiers>
    <_>
      <internalNodes>
        0 -1 44103 1.1469346471130848e-02</internalNodes>
      <leafValues>
        -4.0806046128273010e-01 6.4218258857727051e-01</leafValues></_>
    <_>
      <internalNodes>
        0 -1 53087 1.4912939071655273e-01</internalNodes>
      <leafValues>
        -5.5216622352600098e-01 4.6083366870880127e-01</leafValues></_>
    <_>
      <internalNodes>
        0 -1 67814 5.3887104149907827e-04</internalNodes>
      <leafValues>
        -9.3147552013397217e-01 2.1639770269393921e-01</leafValues></_>
    <_>
      <internalNodes>
        0 -1 44907 -3.3291196450591087e-03</internalNodes>
      <leafValues>
        2.1180655062198639e-01 -7.5647640228271484e-01</leafValues></_>
    <_>
      <internalNodes>
        0 -1 27841 9.0705626644194126e-04</internalNodes>
      <leafValues>
        -4.8187258839607239e-01 3.5737073421478271e-01</leafValues></_>
    <_>
      <internalNodes>
        0 -1 5318 3.9566629566252232e-03</internalNodes>
      <leafValues>
        -2.8530547022819519e-01 6.5331721305847168e-01</leafValues></_></weakClassifiers></stage7>
</opencv_storage>
