<?xml version="1.0"?>
<opencv_storage>
<stage5>
  <maxWeakCount>14</maxWeakCount>
  <stageThreshold>-9.4381016492843628e-01</stageThreshold>
  <weakClassifiers>
    <_>
      <internalNodes>
        0 -1 19270 3.2362870872020721e-02</internalNodes>
      <leafValues>
        -1.2950190901756287e-01 7.6630824804306030e-01</leafValues></_>
    <_>
      <internalNodes>
        0 -1 61089 2.3824080824851990e-02</internalNodes>
      <leafValues>
        -5.5369484424591064e-01 3.6829212307929993e-01</leafValues></_>
    <_>
      <internalNodes>
        0 -1 71794 -8.8795006275177002e-02</internalNodes>
      <leafValues>
        5.2825212478637695e-01 -2.7929449081420898e-01</leafValues></_>
    <_>
      <internalNodes>
        0 -1 49529 6.5232543274760246e-03</internalNodes>
      <leafValues>
        -1.6837850213050842e-01 7.0153391361236572e-01</leafValues></_>
    <_>
      <internalNodes>
        0 -1 44839 -2.5525182485580444e-02</internalNodes>
      <leafValues>
        6.3994914293289185e-01 -2.2381897270679474e-01</leafValues></_>
    <_>
      <internalNodes>
        0 -1 30274 -1.5271622687578201e-02</internalNodes>
      <leafValues>
        7.1221852302551270e-01 -1.6209404170513153e-01</leafValues></_>
    <_>
      <internalNodes>
        0 -1 50073 -2.6658615097403526e-02</internalNodes>
      <leafValues>
        5.4423576593399048e-01 -2.4015265703201294e-01</leafValues></_>
    <_>
      <internalNodes>
        0 -1 70694 2.9794294387102127e-03</internalNodes>
      <leafValues>
        -2.1121926605701447e-01 5.5765539407730103e-01</leafValues></_>
    <_>
      <internalNodes>
        0 -1 52950 -1.0201985016465187e-02</internalNodes>
      <leafValues>
        4.8456057906150818e-01 -2.0923474431037903e-01</leafValues></_>
    <_>
      <internalNodes>
        0 -1 49892 5.0599640235304832e-04</internalNodes>
      <leafValues>
        -3.2731190323829651e-01 3.2863721251487732e-01</leafValues></_>
    <_>
      <internalNodes>
        0 -1 44947 2.1869929507374763e-02</internalNodes>
      <leafValues>
        -1.8335647881031036e-01 6.6189777851104736e-01</leafValues></_>
    <_>
      <internalNodes>
        0 -1 28584 1.0717393830418587e-02</internalNodes>
      <leafValues>
        -2.1694844961166382e-01 4.7533425688743591e-01</leafValues></_>
    <_>
      <internalNodes>
        0 -1 7604 4.3549164547584951e-04</internalNodes>
      <leafValues>
        1.9647525250911713e-01 -5.1445925235748291e-01</leafValues></_>
    <_>
      <internalNodes>
        0 -1 74000 -3.9214268326759338e-03</internalNodes>
      <leafValues>
        2.8653702139854431e-01 -3.3462512493133545e-01</leafValues></_></weakClassifiers></stage5>
</opencv_storage>
