<?xml version="1.0"?>
<opencv_storage>
<stage8>
  <maxWeakCount>18</maxWeakCount>
  <stageThreshold>-9.2392033338546753e-01</stageThreshold>
  <weakClassifiers>
    <_>
      <internalNodes>
        0 -1 52498 1.2490030378103256e-01</internalNodes>
      <leafValues>
        -1.6681222617626190e-01 7.0160770416259766e-01</leafValues></_>
    <_>
      <internalNodes>
        0 -1 64899 2.2885655052959919e-03</internalNodes>
      <leafValues>
        -3.2319983839988708e-01 3.9223074913024902e-01</leafValues></_>
    <_>
      <internalNodes>
        0 -1 75020 -4.5770392171107233e-04</internalNodes>
      <leafValues>
        -5.5416214466094971e-01 2.0874941349029541e-01</leafValues></_>
    <_>
      <internalNodes>
        0 -1 45551 7.0619052276015282e-03</internalNodes>
      <leafValues>
        -3.1034338474273682e-01 3.3533442020416260e-01</leafValues></_>
    <_>
      <internalNodes>
        0 -1 12600 -1.3714294182136655e-03</internalNodes>
      <leafValues>
        -5.4175114631652832e-01 1.6434182226657867e-01</leafValues></_>
    <_>
      <internalNodes>
        0 -1 12957 8.1629562191665173e-04</internalNodes>
      <leafValues>
        1.7220363020896912e-01 -5.8040571212768555e-01</leafValues></_>
    <_>
      <internalNodes>
        0 -1 49700 4.8579286783933640e-02</internalNodes>
      <leafValues>
        -1.8038955330848694e-01 6.7749691009521484e-01</leafValues></_>
    <_>
      <internalNodes>
        0 -1 58168 4.9266070127487183e-03</internalNodes>
      <leafValues>
        -4.9628248810768127e-01 2.7177673578262329e-01</leafValues></_>
    <_>
      <internalNodes>
        0 -1 32804 3.4256778657436371e-02</internalNodes>
      <leafValues>
        1.0925973206758499e-01 -7.3083168268203735e-01</leafValues></_>
    <_>
      <internalNodes>
        0 -1 74000 4.7603268176317215e-03</internalNodes>
      <leafValues>
        1.4424657821655273e-01 -5.1179873943328857e-01</leafValues></_>
    <_>
      <internalNodes>
        0 -1 29406 -2.6413840241730213e-03</internalNodes>
      <leafValues>
        1.8307007849216461e-01 -4.2631632089614868e-01</leafValues></_>
    <_>
      <internalNodes>
        0 -1 38145 -4.0357820689678192e-03</internalNodes>
      <leafValues>
        2.7747151255607605e-01 -3.2956576347351074e-01</leafValues></_>
    <_>
      <internalNodes>
        0 -1 62167 2.0853631212958135e-05</internalNodes>
      <leafValues>
        -3.0761802196502686e-01 2.6079151034355164e-01</leafValues></_>
    <_>
      <internalNodes>
        0 -1 70143 -2.4878187105059624e-04</internalNodes>
      <leafValues>
        -4.4355270266532898e-01 1.8191836774349213e-01</leafValues></_>
    <_>
      <internalNodes>
        0 -1 70294 1.6121677617775276e-05</internalNodes>
      <leafValues>
        -3.3127313852310181e-01 2.4209232628345490e-01</leafValues></_>
    <_>
      <internalNodes>
        0 -1 32326 -1.5549343079328537e-03</internalNodes>
      <leafValues>
        4.0753528475761414e-01 -1.9426386058330536e-01</leafValues></_>
    <_>
      <internalNodes>
        0 -1 70294 2.0183887681923807e-04</internalNodes>
      <leafValues>
        2.5599959492683411e-01 -3.5292986035346985e-01</leafValues></_>
    <_>
      <internalNodes>
        0 -1 54581 -4.6368231996893883e-03</internalNodes>
      <leafValues>
        5.0378656387329102e-01 -1.7640486359596252e-01</leafValues></_></weakClassifiers></stage8>
</opencv_storage>
