<?xml version="1.0"?>
<opencv_storage>
<cascade>
  <stageType>BOOST</stageType>
  <featureType>HAAR</featureType>
  <height>20</height>
  <width>20</width>
  <stageParams>
    <boostType>GAB</boostType>
    <minHitRate>9.9500000476837158e-01</minHitRate>
    <maxFalseAlarm>5.0000000000000000e-01</maxFalseAlarm>
    <weightTrimRate>9.4999999999999996e-01</weightTrimRate>
    <maxDepth>1</maxDepth>
    <maxWeakCount>100</maxWeakCount></stageParams>
  <featureParams>
    <maxCatCount>0</maxCatCount>
    <featSize>1</featSize>
    <mode>BASIC</mode></featureParams>
  <stageNum>15</stageNum>
  <stages>
    <!-- stage 0 -->
    <_>
      <maxWeakCount>3</maxWeakCount>
      <stageThreshold>-5.0287544727325439e-01</stageThreshold>
      <weakClassifiers>
        <_>
          <internalNodes>
            0 -1 134 -1.8615958979353309e-03</internalNodes>
          <leafValues>
            8.4242421388626099e-01 -7.1073448657989502e-01</leafValues></_>
        <_>
          <internalNodes>
            0 -1 7 9.5045268535614014e-03</internalNodes>
          <leafValues>
            -5.6029689311981201e-01 9.0863227844238281e-01</leafValues></_>
        <_>
          <internalNodes>
            0 -1 178 1.1944117024540901e-02</internalNodes>
          <leafValues>
            -6.9105762243270874e-01 7.6815593242645264e-01</leafValues></_></weakClassifiers></_>
    <!-- stage 1 -->
    <_>
      <maxWeakCount>6</maxWeakCount>
      <stageThreshold>-9.2333573102951050e-01</stageThreshold>
      <weakClassifiers>
        <_>
          <internalNodes>
            0 -1 119 -2.0627904683351517e-02</internalNodes>
          <leafValues>
            8.1731343269348145e-01 -4.5756098628044128e-01</leafValues></_>
        <_>
          <internalNodes>
            0 -1 179 1.8984081223607063e-02</internalNodes>
          <leafValues>
            -5.7754409313201904e-01 6.1953365802764893e-01</leafValues></_>
        <_>
          <internalNodes>
            0 -1 5 1.0607158765196800e-02</internalNodes>
          <leafValues>
            -5.9497892856597900e-01 6.1812216043472290e-01</leafValues></_>
        <_>
          <internalNodes>
            0 -1 108 -2.4402227718383074e-03</internalNodes>
          <leafValues>
            6.1404532194137573e-01 -5.5324780941009521e-01</leafValues></_>
        <_>
          <internalNodes>
            0 -1 105 1.3738828711211681e-03</internalNodes>
          <leafValues>
            -5.1370614767074585e-01 6.4476495981216431e-01</leafValues></_>
        <_>
          <internalNodes>
            0 -1 69 -1.3870060443878174e-02</internalNodes>
          <leafValues>
            5.7662445306777954e-01 -4.9723315238952637e-01</leafValues></_></weakClassifiers></_>
    <!-- stage 2 -->
    <_>
      <maxWeakCount>8</maxWeakCount>
      <stageThreshold>-7.4005842208862305e-01</stageThreshold>
      <weakClassifiers>
        <_>
          <internalNodes>
            0 -1 41 8.1339031457901001e-03</internalNodes>
          <leafValues>
            -2.5931927561759949e-01 8.3219647407531738e-01</leafValues></_>
        <_>
          <internalNodes>
            0 -1 85 6.9655962288379669e-03</internalNodes>
          <leafValues>
            -3.2901000976562500e-01 7.4348616600036621e-01</leafValues></_>
        <_>
          <internalNodes>
            0 -1 167 -1.0239539667963982e-02</internalNodes>
          <leafValues>
            4.7621420025825500e-01 -6.0952532291412354e-01</leafValues></_>
        <_>
          <internalNodes>
            0 -1 157 7.5477443169802427e-04</internalNodes>
          <leafValues>
            -4.3460375070571899e-01 6.1547785997390747e-01</leafValues></_>
        <_>
          <internalNodes>
            0 -1 29 -6.9562192074954510e-03</internalNodes>
          <leafValues>
            3.6228957772254944e-01 -6.5287375450134277e-01</leafValues></_>
        <_>
          <internalNodes>
            0 -1 175 -5.6007495149970055e-03</internalNodes>
          <leafValues>
            4.0256074070930481e-01 -6.0139936208724976e-01</leafValues></_>
        <_>
          <internalNodes>
            0 -1 6 8.8881347328424454e-03</internalNodes>
          <leafValues>
            -4.4624608755111694e-01 5.2545922994613647e-01</leafValues></_>
        <_>
          <internalNodes>
            0 -1 168 -1.5576248988509178e-03</internalNodes>
          <leafValues>
            6.5267187356948853e-01 -3.9790955185890198e-01</leafValues></_></weakClassifiers></_>
    <!-- stage 3 -->
    <_>
      <maxWeakCount>11</maxWeakCount>
      <stageThreshold>-1.0078222751617432e+00</stageThreshold>
      <weakClassifiers>
        <_>
          <internalNodes>
            0 -1 129 8.6470302194356918e-03</internalNodes>
          <leafValues>
            -1.9309778511524200e-01 7.6534050703048706e-01</leafValues></_>
        <_>
          <internalNodes>
            0 -1 180 2.4695415049791336e-02</internalNodes>
          <leafValues>
            -4.3516477942466736e-01 4.8165851831436157e-01</leafValues></_>
        <_>
          <internalNodes>
            0 -1 42 1.1110246181488037e-02</internalNodes>
          <leafValues>
            -3.9054784178733826e-01 5.3804349899291992e-01</leafValues></_>
        <_>
          <internalNodes>
            0 -1 28 -1.1718630790710449e-02</internalNodes>
          <leafValues>
            3.5719868540763855e-01 -5.3276318311691284e-01</leafValues></_>
        <_>
          <internalNodes>
            0 -1 68 -3.3592940308153629e-03</internalNodes>
          <leafValues>
            3.1236344575881958e-01 -5.2291518449783325e-01</leafValues></_>
        <_>
          <internalNodes>
            0 -1 94 1.1972371488809586e-02</internalNodes>
          <leafValues>
            -3.2107594609260559e-01 5.2498745918273926e-01</leafValues></_>
        <_>
          <internalNodes>
            0 -1 97 -1.0982302483171225e-03</internalNodes>
          <leafValues>
            -5.9864115715026855e-01 2.9604855179786682e-01</leafValues></_>
        <_>
          <internalNodes>
            0 -1 152 -7.0253551006317139e-02</internalNodes>
          <leafValues>
            4.6771755814552307e-01 -3.0367079377174377e-01</leafValues></_>
        <_>
          <internalNodes>
            0 -1 204 -1.1802250519394875e-02</internalNodes>
          <leafValues>
            6.0210776329040527e-01 -2.1916563808917999e-01</leafValues></_>
        <_>
          <internalNodes>
            0 -1 98 2.3967040702700615e-02</internalNodes>
          <leafValues>
            -3.8808313012123108e-01 3.7707191705703735e-01</leafValues></_>
        <_>
          <internalNodes>
            0 -1 126 -2.5344970636069775e-03</internalNodes>
          <leafValues>
            3.9377513527870178e-01 -3.6448079347610474e-01</leafValues></_></weakClassifiers></_>
    <!-- stage 4 -->
    <_>
      <maxWeakCount>9</maxWeakCount>
      <stageThreshold>-7.8258311748504639e-01</stageThreshold>
      <weakClassifiers>
        <_>
          <internalNodes>
            0 -1 7 1.4365164563059807e-02</internalNodes>
          <leafValues>
            -2.5112512707710266e-01 7.4197608232498169e-01</leafValues></_>
        <_>
          <internalNodes>
            0 -1 123 5.6645395234227180e-03</internalNodes>
          <leafValues>
            -3.4786337614059448e-01 5.6358134746551514e-01</leafValues></_>
        <_>
          <internalNodes>
            0 -1 197 1.5428174287080765e-02</internalNodes>
          <leafValues>
            -3.0897831916809082e-01 6.0523599386215210e-01</leafValues></_>
        <_>
          <internalNodes>
            0 -1 171 5.3070033900439739e-03</internalNodes>
          <leafValues>
            -4.4884943962097168e-01 4.1656315326690674e-01</leafValues></_>
        <_>
          <internalNodes>
            0 -1 48 7.8026186674833298e-03</internalNodes>
          <leafValues>
            -4.3596872687339783e-01 4.0130189061164856e-01</leafValues></_>
        <_>
          <internalNodes>
            0 -1 125 4.2033880017697811e-03</internalNodes>
          <leafValues>
            -4.8066154122352600e-01 3.2479918003082275e-01</leafValues></_>
        <_>
          <internalNodes>
            0 -1 70 -8.8781323283910751e-03</internalNodes>
          <leafValues>
            2.5125885009765625e-01 -5.6171119213104248e-01</leafValues></_>
        <_>
          <internalNodes>
            0 -1 182 9.1147534549236298e-03</internalNodes>
          <leafValues>
            -6.5072023868560791e-01 1.7603780329227448e-01</leafValues></_>
        <_>
          <internalNodes>
            0 -1 93 -2.8709084726870060e-03</internalNodes>
          <leafValues>
            2.5810605287551880e-01 -5.1375466585159302e-01</leafValues></_></weakClassifiers></_>
    <!-- stage 5 -->
    <_>
      <maxWeakCount>14</maxWeakCount>
      <stageThreshold>-1.2014819383621216e+00</stageThreshold>
      <weakClassifiers>
        <_>
          <internalNodes>
            0 -1 128 2.8087818995118141e-02</internalNodes>
          <leafValues>
            -1.2673880159854889e-01 7.5675678253173828e-01</leafValues></_>
        <_>
          <internalNodes>
            0 -1 11 1.8993806093931198e-02</internalNodes>
          <leafValues>
            -2.6044508814811707e-01 5.6520116329193115e-01</leafValues></_>
        <_>
          <internalNodes>
            0 -1 25 -1.9619625061750412e-02</internalNodes>
          <leafValues>
            4.1361206769943237e-01 -3.3446899056434631e-01</leafValues></_>
        <_>
          <internalNodes>
            0 -1 72 -7.2187306359410286e-03</internalNodes>
          <leafValues>
            5.6394547224044800e-01 -3.0784708261489868e-01</leafValues></_>
        <_>
          <internalNodes>
            0 -1 134 1.8384291324764490e-03</internalNodes>
          <leafValues>
            2.2313177585601807e-01 -7.1641421318054199e-01</leafValues></_>
        <_>
          <internalNodes>
            0 -1 127 1.0027188807725906e-02</internalNodes>
          <leafValues>
            -2.7307718992233276e-01 6.4810711145401001e-01</leafValues></_>
        <_>
          <internalNodes>
            0 -1 193 3.1114062294363976e-03</internalNodes>
          <leafValues>
            -4.3088254332542419e-01 3.1176728010177612e-01</leafValues></_>
        <_>
          <internalNodes>
            0 -1 148 -3.2083292026072741e-03</internalNodes>
          <leafValues>
            4.2484641075134277e-01 -2.6286819577217102e-01</leafValues></_>
        <_>
          <internalNodes>
            0 -1 131 -1.8652874976396561e-02</internalNodes>
          <leafValues>
            -7.4225246906280518e-01 1.3351914286613464e-01</leafValues></_>
        <_>
          <internalNodes>
            0 -1 52 7.9233460128307343e-03</internalNodes>
          <leafValues>
            2.0451742410659790e-01 -5.1884025335311890e-01</leafValues></_>
        <_>
          <internalNodes>
            0 -1 100 -9.2448219656944275e-03</internalNodes>
          <leafValues>
            4.2086353898048401e-01 -2.5084221363067627e-01</leafValues></_>
        <_>
          <internalNodes>
            0 -1 49 -5.4126712493598461e-03</internalNodes>
          <leafValues>
            3.1150013208389282e-01 -3.3339232206344604e-01</leafValues></_>
        <_>
          <internalNodes>
            0 -1 38 1.2060574255883694e-02</internalNodes>
          <leafValues>
            -2.1691666543483734e-01 4.3409773707389832e-01</leafValues></_>
        <_>
          <internalNodes>
            0 -1 160 -4.2311467230319977e-02</internalNodes>
          <leafValues>
            2.9248136281967163e-01 -3.1707042455673218e-01</leafValues></_></weakClassifiers></_>
    <!-- stage 6 -->
    <_>
      <maxWeakCount>15</maxWeakCount>
      <stageThreshold>-1.3040685653686523e+00</stageThreshold>
      <weakClassifiers>
        <_>
          <internalNodes>
            0 -1 120 7.0838090032339096e-03</internalNodes>
          <leafValues>
            -2.4252492189407349e-01 6.2270450592041016e-01</leafValues></_>
        <_>
          <internalNodes>
            0 -1 4 1.5819793567061424e-02</internalNodes>
          <leafValues>
            -2.9310020804405212e-01 5.8568114042282104e-01</leafValues></_>
        <_>
          <internalNodes>
            0 -1 183 6.6244397312402725e-03</internalNodes>
          <leafValues>
            -3.2970058917999268e-01 3.7246501445770264e-01</leafValues></_>
        <_>
          <internalNodes>
            0 -1 104 2.3704676423221827e-03</internalNodes>
          <leafValues>
            -2.7554672956466675e-01 3.9708709716796875e-01</leafValues></_>
        <_>
          <internalNodes>
            0 -1 36 -1.5909435227513313e-02</internalNodes>
          <leafValues>
            2.4372325837612152e-01 -4.4052064418792725e-01</leafValues></_>
        <_>
          <internalNodes>
            0 -1 184 -1.4944199938327074e-03</internalNodes>
          <leafValues>
            2.7222156524658203e-01 -4.6717363595962524e-01</leafValues></_>
        <_>
          <internalNodes>
            0 -1 142 -1.9365046173334122e-03</internalNodes>
          <leafValues>
            1.8661271035671234e-01 -5.6102561950683594e-01</leafValues></_>
        <_>
          <internalNodes>
            0 -1 88 -2.8083130717277527e-02</internalNodes>
          <leafValues>
            -8.3630126714706421e-01 1.0148195177316666e-01</leafValues></_>
        <_>
          <internalNodes>
            0 -1 89 -2.1984914201311767e-04</internalNodes>
          <leafValues>
            2.2930802404880524e-01 -4.1077315807342529e-01</leafValues></_>
        <_>
          <internalNodes>
            0 -1 95 1.6334865242242813e-02</internalNodes>
          <leafValues>
            -2.3533861339092255e-01 4.7116810083389282e-01</leafValues></_>
        <_>
          <internalNodes>
            0 -1 202 -1.4867116697132587e-02</internalNodes>
          <leafValues>
            4.9543607234954834e-01 -1.9510656595230103e-01</leafValues></_>
        <_>
          <internalNodes>
            0 -1 187 8.8492147624492645e-03</internalNodes>
          <leafValues>
            -4.6837353706359863e-01 2.6464045047760010e-01</leafValues></_>
        <_>
          <internalNodes>
            0 -1 47 -4.7421096824109554e-03</internalNodes>
          <leafValues>
            3.6766493320465088e-01 -2.7447628974914551e-01</leafValues></_>
        <_>
          <internalNodes>
            0 -1 56 2.6101681869477034e-03</internalNodes>
          <leafValues>
            1.9446243345737457e-01 -5.2382963895797729e-01</leafValues></_>
        <_>
          <internalNodes>
            0 -1 33 -1.9727682229131460e-03</internalNodes>
          <leafValues>
            3.4216976165771484e-01 -3.1580874323844910e-01</leafValues></_></weakClassifiers></_>
    <!-- stage 7 -->
    <_>
      <maxWeakCount>15</maxWeakCount>
      <stageThreshold>-9.1168445348739624e-01</stageThreshold>
      <weakClassifiers>
        <_>
          <internalNodes>
            0 -1 51 1.1745769530534744e-02</internalNodes>
          <leafValues>
            -1.2724167108535767e-01 6.8606930971145630e-01</leafValues></_>
        <_>
          <internalNodes>
            0 -1 102 2.1462408825755119e-02</internalNodes>
          <leafValues>
            -2.6019743084907532e-01 4.9851763248443604e-01</leafValues></_>
        <_>
          <internalNodes>
            0 -1 10 2.4588907137513161e-02</internalNodes>
          <leafValues>
            -2.4308562278747559e-01 4.8088699579238892e-01</leafValues></_>
        <_>
          <internalNodes>
            0 -1 186 -3.1542838551104069e-03</internalNodes>
          <leafValues>
            2.5020942091941833e-01 -4.1265901923179626e-01</leafValues></_>
        <_>
          <internalNodes>
            0 -1 181 3.0269782990217209e-02</internalNodes>
          <leafValues>
            -4.2694035172462463e-01 2.1289268136024475e-01</leafValues></_>
        <_>
          <internalNodes>
            0 -1 115 -4.4540949165821075e-03</internalNodes>
          <leafValues>
            6.3663691282272339e-01 -1.4766719937324524e-01</leafValues></_>
        <_>
          <internalNodes>
            0 -1 43 -4.7201430425047874e-03</internalNodes>
          <leafValues>
            2.7987995743751526e-01 -4.1958379745483398e-01</leafValues></_>
        <_>
          <internalNodes>
            0 -1 21 -4.8783635720610619e-03</internalNodes>
          <leafValues>
            -5.9380054473876953e-01 1.6700711846351624e-01</leafValues></_>
        <_>
          <internalNodes>
            0 -1 106 2.7253197040408850e-03</internalNodes>
          <leafValues>
            -4.9437677860260010e-01 2.2231665253639221e-01</leafValues></_>
        <_>
          <internalNodes>
            0 -1 122 8.4374509751796722e-03</internalNodes>
          <leafValues>
            -1.9197767972946167e-01 4.7267973423004150e-01</leafValues></_>
        <_>
          <internalNodes>
            0 -1 86 1.6109425574541092e-02</internalNodes>
          <leafValues>
            -1.4219690859317780e-01 6.6335260868072510e-01</leafValues></_>
        <_>
          <internalNodes>
            0 -1 57 -4.5647472143173218e-03</internalNodes>
          <leafValues>
            1.9340230524539948e-01 -4.9417325854301453e-01</leafValues></_>
        <_>
          <internalNodes>
            0 -1 196 9.2216636985540390e-03</internalNodes>
          <leafValues>
            -3.5156056284904480e-01 2.3148640990257263e-01</leafValues></_>
        <_>
          <internalNodes>
            0 -1 93 -6.4507843926548958e-03</internalNodes>
          <leafValues>
            2.4118249118328094e-01 -3.8284441828727722e-01</leafValues></_>
        <_>
          <internalNodes>
            0 -1 109 -5.1516462117433548e-03</internalNodes>
          <leafValues>
            2.7230253815650940e-01 -3.4725427627563477e-01</leafValues></_></weakClassifiers></_>
    <!-- stage 8 -->
    <_>
      <maxWeakCount>18</maxWeakCount>
      <stageThreshold>-1.1157588958740234e+00</stageThreshold>
      <weakClassifiers>
        <_>
          <internalNodes>
            0 -1 130 2.9807925224304199e-02</internalNodes>
          <leafValues>
            9.1218128800392151e-02 7.9037433862686157e-01</leafValues></_>
        <_>
          <internalNodes>
            0 -1 207 -1.1988112237304449e-03</internalNodes>
          <leafValues>
            3.1335014104843140e-01 -3.8299655914306641e-01</leafValues></_>
        <_>
          <internalNodes>
            0 -1 203 -1.1909410357475281e-02</internalNodes>
          <leafValues>
            4.4086682796478271e-01 -2.3203073441982269e-01</leafValues></_>
        <_>
          <internalNodes>
            0 -1 188 1.6975622624158859e-02</internalNodes>
          <leafValues>
            -4.3237081170082092e-01 2.3779441416263580e-01</leafValues></_>
        <_>
          <internalNodes>
            0 -1 8 8.4574464708566666e-03</internalNodes>
          <leafValues>
            -4.4949987530708313e-01 2.7982994914054871e-01</leafValues></_>
        <_>
          <internalNodes>
            0 -1 191 5.6730420328676701e-04</internalNodes>
          <leafValues>
            2.0488436520099640e-01 -5.1062083244323730e-01</leafValues></_>
        <_>
          <internalNodes>
            0 -1 82 -3.5064094699919224e-03</internalNodes>
          <leafValues>
            1.7474861443042755e-01 -4.4212570786476135e-01</leafValues></_>
        <_>
          <internalNodes>
            0 -1 114 1.5783969312906265e-02</internalNodes>
          <leafValues>
            -1.9041681289672852e-01 4.8485803604125977e-01</leafValues></_>
        <_>
          <internalNodes>
            0 -1 145 -9.1604201588779688e-04</internalNodes>
          <leafValues>
            3.1860792636871338e-01 -2.9510933160781860e-01</leafValues></_>
        <_>
          <internalNodes>
            0 -1 138 -1.2588677927851677e-02</internalNodes>
          <leafValues>
            -5.9287774562835693e-01 1.5088199079036713e-01</leafValues></_>
        <_>
          <internalNodes>
            0 -1 76 -2.3603234440088272e-03</internalNodes>
          <leafValues>
            5.7081699371337891e-01 -1.6900423169136047e-01</leafValues></_>
        <_>
          <internalNodes>
            0 -1 77 -1.6543916426599026e-03</internalNodes>
          <leafValues>
            4.8118197917938232e-01 -1.7179405689239502e-01</leafValues></_>
        <_>
          <internalNodes>
            0 -1 169 -1.2290885206311941e-03</internalNodes>
          <leafValues>
            1.6643027961254120e-01 -5.7847350835800171e-01</leafValues></_>
        <_>
          <internalNodes>
            0 -1 154 -1.8200386548414826e-03</internalNodes>
          <leafValues>
            3.2920145988464355e-01 -2.5242832303047180e-01</leafValues></_>
        <_>
          <internalNodes>
            0 -1 190 -2.5816438719630241e-03</internalNodes>
          <leafValues>
            -5.3945994377136230e-01 1.6002173721790314e-01</leafValues></_>
        <_>
          <internalNodes>
            0 -1 50 5.1020551472902298e-04</internalNodes>
          <leafValues>
            1.8306107819080353e-01 -4.0280967950820923e-01</leafValues></_>
        <_>
          <internalNodes>
            0 -1 161 7.8460471704602242e-03</internalNodes>
          <leafValues>
            -1.0082881152629852e-01 7.0287394523620605e-01</leafValues></_>
        <_>
          <internalNodes>
            0 -1 14 -2.0312126725912094e-02</internalNodes>
          <leafValues>
            3.2125985622406006e-01 -2.8017252683639526e-01</leafValues></_></weakClassifiers></_>
    <!-- stage 9 -->
    <_>
      <maxWeakCount>21</maxWeakCount>
      <stageThreshold>-1.1649377346038818e+00</stageThreshold>
      <weakClassifiers>
        <_>
          <internalNodes>
            0 -1 87 7.1895793080329895e-03</internalNodes>
          <leafValues>
            -7.9677708446979523e-02 6.2476313114166260e-01</leafValues></_>
        <_>
          <internalNodes>
            0 -1 29 -1.2861115857958794e-02</internalNodes>
          <leafValues>
            2.9004269838333130e-01 -4.6376672387123108e-01</leafValues></_>
        <_>
          <internalNodes>
            0 -1 101 8.0015629529953003e-02</internalNodes>
          <leafValues>
            -2.2711364924907684e-01 4.4276365637779236e-01</leafValues></_>
        <_>
          <internalNodes>
            0 -1 177 -2.4077027774183080e-05</internalNodes>
          <leafValues>
            2.0724512636661530e-01 -4.8420113325119019e-01</leafValues></_>
        <_>
          <internalNodes>
            0 -1 179 3.1609989702701569e-02</internalNodes>
          <leafValues>
            -3.9205232262611389e-01 2.5652557611465454e-01</leafValues></_>
        <_>
          <internalNodes>
            0 -1 75 9.0863998048007488e-04</internalNodes>
          <leafValues>
            1.2760518491268158e-01 -5.0812703371047974e-01</leafValues></_>
        <_>
          <internalNodes>
            0 -1 45 -2.7602503541857004e-04</internalNodes>
          <leafValues>
            2.4900071322917938e-01 -3.4773078560829163e-01</leafValues></_>
        <_>
          <internalNodes>
            0 -1 92 1.4835578389465809e-02</internalNodes>
          <leafValues>
            -1.9917973875999451e-01 4.0915116667747498e-01</leafValues></_>
        <_>
          <internalNodes>
            0 -1 24 -7.1988649666309357e-02</internalNodes>
          <leafValues>
            6.4314192533493042e-01 -1.1186676472425461e-01</leafValues></_>
        <_>
          <internalNodes>
            0 -1 23 -1.2601176276803017e-02</internalNodes>
          <leafValues>
            3.6887899041175842e-01 -2.3820634186267853e-01</leafValues></_>
        <_>
          <internalNodes>
            0 -1 40 -8.8945426978170872e-04</internalNodes>
          <leafValues>
            -5.5547183752059937e-01 1.5579754114151001e-01</leafValues></_>
        <_>
          <internalNodes>
            0 -1 107 -4.1817761957645416e-02</internalNodes>
          <leafValues>
            -8.7830072641372681e-01 5.9573117643594742e-02</leafValues></_>
        <_>
          <internalNodes>
            0 -1 63 6.5305707976222038e-03</internalNodes>
          <leafValues>
            1.5425843000411987e-01 -4.5930308103561401e-01</leafValues></_>
        <_>
          <internalNodes>
            0 -1 112 -7.1356902481056750e-05</internalNodes>
          <leafValues>
            1.6778099536895752e-01 -4.4526657462120056e-01</leafValues></_>
        <_>
          <internalNodes>
            0 -1 117 -1.4965225011110306e-02</internalNodes>
          <leafValues>
            -6.5680116415023804e-01 1.0824297368526459e-01</leafValues></_>
        <_>
          <internalNodes>
            0 -1 18 -1.8246441613882780e-03</internalNodes>
          <leafValues>
            -7.2135877609252930e-01 9.4802863895893097e-02</leafValues></_>
        <_>
          <internalNodes>
            0 -1 192 -4.5102956937626004e-04</internalNodes>
          <leafValues>
            -4.1642421483993530e-01 1.6671046614646912e-01</leafValues></_>
        <_>
          <internalNodes>
            0 -1 133 -8.2894079387187958e-03</internalNodes>
          <leafValues>
            -5.0046575069427490e-01 1.5656891465187073e-01</leafValues></_>
        <_>
          <internalNodes>
            0 -1 150 8.6689111776649952e-04</internalNodes>
          <leafValues>
            -2.7785196900367737e-01 2.9581147432327271e-01</leafValues></_>
        <_>
          <internalNodes>
            0 -1 156 1.5479015186429024e-02</internalNodes>
          <leafValues>
            -1.7467901110649109e-01 4.4654616713523865e-01</leafValues></_>
        <_>
          <internalNodes>
            0 -1 194 1.9263245165348053e-02</internalNodes>
          <leafValues>
            -8.9665688574314117e-02 8.0473494529724121e-01</leafValues></_></weakClassifiers></_>
    <!-- stage 10 -->
    <_>
      <maxWeakCount>19</maxWeakCount>
      <stageThreshold>-9.7240930795669556e-01</stageThreshold>
      <weakClassifiers>
        <_>
          <internalNodes>
            0 -1 60 4.0132075548171997e-02</internalNodes>
          <leafValues>
            3.1864408403635025e-02 6.9632655382156372e-01</leafValues></_>
        <_>
          <internalNodes>
            0 -1 170 2.2314076777547598e-03</internalNodes>
          <leafValues>
            -1.1332353949546814e-01 6.6182023286819458e-01</leafValues></_>
        <_>
          <internalNodes>
            0 -1 2 1.3207144103944302e-02</internalNodes>
          <leafValues>
            -4.0789818763732910e-01 2.3577071726322174e-01</leafValues></_>
        <_>
          <internalNodes>
            0 -1 140 -2.0141370594501495e-02</internalNodes>
          <leafValues>
            -7.4251782894134521e-01 1.2508368492126465e-01</leafValues></_>
        <_>
          <internalNodes>
            0 -1 208 -1.1347346007823944e-02</internalNodes>
          <leafValues>
            5.3748989105224609e-01 -1.6602592170238495e-01</leafValues></_>
        <_>
          <internalNodes>
            0 -1 58 4.2963079176843166e-03</internalNodes>
          <leafValues>
            -1.1916898936033249e-01 7.6884514093399048e-01</leafValues></_>
        <_>
          <internalNodes>
            0 -1 96 3.5415517631918192e-03</internalNodes>
          <leafValues>
            -1.8577577173709869e-01 5.0446194410324097e-01</leafValues></_>
        <_>
          <internalNodes>
            0 -1 26 -2.9289647936820984e-02</internalNodes>
          <leafValues>
            2.8951704502105713e-01 -3.1268110871315002e-01</leafValues></_>
        <_>
          <internalNodes>
            0 -1 53 -2.1486999467015266e-02</internalNodes>
          <leafValues>
            3.2895681262016296e-01 -2.5516176223754883e-01</leafValues></_>
        <_>
          <internalNodes>
            0 -1 141 -1.8172294367104769e-03</internalNodes>
          <leafValues>
            1.8496367335319519e-01 -4.7911819815635681e-01</leafValues></_>
        <_>
          <internalNodes>
            0 -1 81 3.7341497838497162e-02</internalNodes>
          <leafValues>
            -2.6573687791824341e-01 3.1116786599159241e-01</leafValues></_>
        <_>
          <internalNodes>
            0 -1 166 4.5854583731852472e-05</internalNodes>
          <leafValues>
            -4.3144515156745911e-01 1.9045749306678772e-01</leafValues></_>
        <_>
          <internalNodes>
            0 -1 35 -2.4558126460760832e-03</internalNodes>
          <leafValues>
            1.9011776149272919e-01 -4.3444931507110596e-01</leafValues></_>
        <_>
          <internalNodes>
            0 -1 59 2.9691983945667744e-03</internalNodes>
          <leafValues>
            -1.3666459918022156e-01 5.9133237600326538e-01</leafValues></_>
        <_>
          <internalNodes>
            0 -1 76 1.9839899614453316e-03</internalNodes>
          <leafValues>
            -1.6412785649299622e-01 5.2492606639862061e-01</leafValues></_>
        <_>
          <internalNodes>
            0 -1 20 -9.2795351520180702e-04</internalNodes>
          <leafValues>
            -5.9253507852554321e-01 1.7658320069313049e-01</leafValues></_>
        <_>
          <internalNodes>
            0 -1 165 -2.9958330094814301e-02</internalNodes>
          <leafValues>
            8.3572983741760254e-01 -1.0601110011339188e-01</leafValues></_>
        <_>
          <internalNodes>
            0 -1 163 5.8382027782499790e-03</internalNodes>
          <leafValues>
            -2.4707847833633423e-01 3.3178243041038513e-01</leafValues></_>
        <_>
          <internalNodes>
            0 -1 103 -2.2817909717559814e-02</internalNodes>
          <leafValues>
            -8.0470567941665649e-01 9.0175203979015350e-02</leafValues></_></weakClassifiers></_>
    <!-- stage 11 -->
    <_>
      <maxWeakCount>20</maxWeakCount>
      <stageThreshold>-9.5116716623306274e-01</stageThreshold>
      <weakClassifiers>
        <_>
          <internalNodes>
            0 -1 78 -7.0161810144782066e-03</internalNodes>
          <leafValues>
            5.9030300378799438e-01 -7.0476189255714417e-02</leafValues></_>
        <_>
          <internalNodes>
            0 -1 200 -1.5797387808561325e-02</internalNodes>
          <leafValues>
            4.5087036490440369e-01 -2.2127369046211243e-01</leafValues></_>
        <_>
          <internalNodes>
            0 -1 113 -4.8490450717508793e-03</internalNodes>
          <leafValues>
            2.8520980477333069e-01 -3.8209357857704163e-01</leafValues></_>
        <_>
          <internalNodes>
            0 -1 48 1.0925043374300003e-02</internalNodes>
          <leafValues>
            -2.7500462532043457e-01 3.3118885755538940e-01</leafValues></_>
        <_>
          <internalNodes>
            0 -1 13 2.6275269687175751e-02</internalNodes>
          <leafValues>
            -1.9414655864238739e-01 5.6544059514999390e-01</leafValues></_>
        <_>
          <internalNodes>
            0 -1 189 1.8558919429779053e-02</internalNodes>
          <leafValues>
            -3.0908286571502686e-01 3.2357048988342285e-01</leafValues></_>
        <_>
          <internalNodes>
            0 -1 199 4.1246224194765091e-02</internalNodes>
          <leafValues>
            -6.7454382777214050e-02 7.8035491704940796e-01</leafValues></_>
        <_>
          <internalNodes>
            0 -1 136 -1.5178122557699680e-03</internalNodes>
          <leafValues>
            3.2824325561523438e-01 -2.3967783153057098e-01</leafValues></_>
        <_>
          <internalNodes>
            0 -1 158 -2.7379924431443214e-03</internalNodes>
          <leafValues>
            -5.3086787462234497e-01 1.5420663356781006e-01</leafValues></_>
        <_>
          <internalNodes>
            0 -1 212 1.0765097104012966e-03</internalNodes>
          <leafValues>
            1.3611932098865509e-01 -5.2484422922134399e-01</leafValues></_>
        <_>
          <internalNodes>
            0 -1 64 -3.3052200451493263e-03</internalNodes>
          <leafValues>
            4.3414247035980225e-01 -1.8242640793323517e-01</leafValues></_>
        <_>
          <internalNodes>
            0 -1 62 -1.9178062677383423e-02</internalNodes>
          <leafValues>
            6.1992889642715454e-01 -1.1898358166217804e-01</leafValues></_>
        <_>
          <internalNodes>
            0 -1 132 1.1416468769311905e-02</internalNodes>
          <leafValues>
            -1.7250840365886688e-01 3.9478382468223572e-01</leafValues></_>
        <_>
          <internalNodes>
            0 -1 121 -5.8802315033972263e-03</internalNodes>
          <leafValues>
            4.5461630821228027e-01 -1.5373609960079193e-01</leafValues></_>
        <_>
          <internalNodes>
            0 -1 89 -4.1332285036332905e-04</internalNodes>
          <leafValues>
            2.3598314821720123e-01 -3.0295625329017639e-01</leafValues></_>
        <_>
          <internalNodes>
            0 -1 91 5.1069492474198341e-03</internalNodes>
          <leafValues>
            -2.8545385599136353e-01 2.9107138514518738e-01</leafValues></_>
        <_>
          <internalNodes>
            0 -1 211 4.5527768088504672e-04</internalNodes>
          <leafValues>
            1.8122421205043793e-01 -4.0412193536758423e-01</leafValues></_>
        <_>
          <internalNodes>
            0 -1 151 -3.5094986669719219e-03</internalNodes>
          <leafValues>
            4.6900647878646851e-01 -1.6890195012092590e-01</leafValues></_>
        <_>
          <internalNodes>
            0 -1 135 -6.0677509754896164e-03</internalNodes>
          <leafValues>
            1.3392820954322815e-01 -6.3326138257980347e-01</leafValues></_>
        <_>
          <internalNodes>
            0 -1 161 3.6260618362575769e-03</internalNodes>
          <leafValues>
            -2.2186625003814697e-01 4.0523719787597656e-01</leafValues></_></weakClassifiers></_>
    <!-- stage 12 -->
    <_>
      <maxWeakCount>24</maxWeakCount>
      <stageThreshold>-9.2779022455215454e-01</stageThreshold>
      <weakClassifiers>
        <_>
          <internalNodes>
            0 -1 61 7.3948511853814125e-03</internalNodes>
          <leafValues>
            1.1834319680929184e-02 6.5578633546829224e-01</leafValues></_>
        <_>
          <internalNodes>
            0 -1 4 1.3412652537226677e-02</internalNodes>
          <leafValues>
            -2.6663193106651306e-01 3.7234768271446228e-01</leafValues></_>
        <_>
          <internalNodes>
            0 -1 67 1.4241643249988556e-02</internalNodes>
          <leafValues>
            -2.2736866772174835e-01 3.2468524575233459e-01</leafValues></_>
        <_>
          <internalNodes>
            0 -1 55 -6.2984367832541466e-03</internalNodes>
          <leafValues>
            2.1636958420276642e-01 -3.4785306453704834e-01</leafValues></_>
        <_>
          <internalNodes>
            0 -1 15 -2.3273959755897522e-02</internalNodes>
          <leafValues>
            2.2587469220161438e-01 -3.1598535180091858e-01</leafValues></_>
        <_>
          <internalNodes>
            0 -1 17 5.1733199506998062e-02</internalNodes>
          <leafValues>
            -1.3279794156551361e-01 7.5466609001159668e-01</leafValues></_>
        <_>
          <internalNodes>
            0 -1 146 2.7490369975566864e-03</internalNodes>
          <leafValues>
            -2.1498145163059235e-01 3.7995103001594543e-01</leafValues></_>
        <_>
          <internalNodes>
            0 -1 162 8.0620422959327698e-03</internalNodes>
          <leafValues>
            -3.2039266824722290e-01 2.3283578455448151e-01</leafValues></_>
        <_>
          <internalNodes>
            0 -1 205 4.1906375437974930e-02</internalNodes>
          <leafValues>
            -1.0708370804786682e-01 7.9556149244308472e-01</leafValues></_>
        <_>
          <internalNodes>
            0 -1 174 1.8493034876883030e-03</internalNodes>
          <leafValues>
            -3.1960159540176392e-01 2.7224066853523254e-01</leafValues></_>
        <_>
          <internalNodes>
            0 -1 144 -2.6795142330229282e-03</internalNodes>
          <leafValues>
            3.1693187355995178e-01 -2.0430752635002136e-01</leafValues></_>
        <_>
          <internalNodes>
            0 -1 16 7.9569400986656547e-04</internalNodes>
          <leafValues>
            1.4296771585941315e-01 -5.1368647813796997e-01</leafValues></_>
        <_>
          <internalNodes>
            0 -1 149 -5.8341072872281075e-03</internalNodes>
          <leafValues>
            3.4177193045616150e-01 -2.0925574004650116e-01</leafValues></_>
        <_>
          <internalNodes>
            0 -1 35 6.8963156081736088e-03</internalNodes>
          <leafValues>
            1.3333643972873688e-01 -6.2564557790756226e-01</leafValues></_>
        <_>
          <internalNodes>
            0 -1 34 3.7281446158885956e-02</internalNodes>
          <leafValues>
            -1.1613949388265610e-01 8.0659592151641846e-01</leafValues></_>
        <_>
          <internalNodes>
            0 -1 37 7.1436382131651044e-04</internalNodes>
          <leafValues>
            -3.2774585485458374e-01 2.5980907678604126e-01</leafValues></_>
        <_>
          <internalNodes>
            0 -1 176 4.1388566605746746e-03</internalNodes>
          <leafValues>
            -1.0278410464525223e-01 7.0790559053421021e-01</leafValues></_>
        <_>
          <internalNodes>
            0 -1 46 -2.3850761353969574e-03</internalNodes>
          <leafValues>
            5.5566608905792236e-01 -1.1380425840616226e-01</leafValues></_>
        <_>
          <internalNodes>
            0 -1 12 -4.3913228437304497e-03</internalNodes>
          <leafValues>
            4.8984378576278687e-01 -1.4557993412017822e-01</leafValues></_>
        <_>
          <internalNodes>
            0 -1 30 -1.0398026555776596e-02</internalNodes>
          <leafValues>
            3.6585658788681030e-01 -2.0743426680564880e-01</leafValues></_>
        <_>
          <internalNodes>
            0 -1 209 2.5955089367926121e-03</internalNodes>
          <leafValues>
            1.1089269816875458e-01 -6.1689203977584839e-01</leafValues></_>
        <_>
          <internalNodes>
            0 -1 201 9.9845393560826778e-04</internalNodes>
          <leafValues>
            1.1054549366235733e-01 -5.2754479646682739e-01</leafValues></_>
        <_>
          <internalNodes>
            0 -1 66 1.1540757119655609e-01</internalNodes>
          <leafValues>
            6.6401690244674683e-02 -8.3571332693099976e-01</leafValues></_>
        <_>
          <internalNodes>
            0 -1 84 1.3808982446789742e-02</internalNodes>
          <leafValues>
            -2.2980819642543793e-01 2.8374356031417847e-01</leafValues></_></weakClassifiers></_>
    <!-- stage 13 -->
    <_>
      <maxWeakCount>22</maxWeakCount>
      <stageThreshold>-8.6520487070083618e-01</stageThreshold>
      <weakClassifiers>
        <_>
          <internalNodes>
            0 -1 124 -3.1073950231075287e-02</internalNodes>
          <leafValues>
            6.4897382259368896e-01 -1.3209013268351555e-02</leafValues></_>
        <_>
          <internalNodes>
            0 -1 1 1.2201221659779549e-02</internalNodes>
          <leafValues>
            -2.6325055956840515e-01 3.3275720477104187e-01</leafValues></_>
        <_>
          <internalNodes>
            0 -1 54 -5.2676922641694546e-03</internalNodes>
          <leafValues>
            4.8280864953994751e-01 -1.5103144943714142e-01</leafValues></_>
        <_>
          <internalNodes>
            0 -1 58 3.7857843562960625e-03</internalNodes>
          <leafValues>
            -1.9927830994129181e-01 6.5419626235961914e-01</leafValues></_>
        <_>
          <internalNodes>
            0 -1 27 1.3413548469543457e-02</internalNodes>
          <leafValues>
            -1.7732344567775726e-01 4.5153874158859253e-01</leafValues></_>
        <_>
          <internalNodes>
            0 -1 31 -2.6258988305926323e-02</internalNodes>
          <leafValues>
            4.6733477711677551e-01 -1.8437536060810089e-01</leafValues></_>
        <_>
          <internalNodes>
            0 -1 22 4.0305960923433304e-02</internalNodes>
          <leafValues>
            -9.0846896171569824e-02 8.2643550634384155e-01</leafValues></_>
        <_>
          <internalNodes>
            0 -1 71 -9.6931979060173035e-03</internalNodes>
          <leafValues>
            7.6993751525878906e-01 -7.8145273029804230e-02</leafValues></_>
        <_>
          <internalNodes>
            0 -1 19 -9.2287606094032526e-04</internalNodes>
          <leafValues>
            -4.6840766072273254e-01 1.7618185281753540e-01</leafValues></_>
        <_>
          <internalNodes>
            0 -1 44 -6.5747266635298729e-03</internalNodes>
          <leafValues>
            1.3455455005168915e-01 -4.9091148376464844e-01</leafValues></_>
        <_>
          <internalNodes>
            0 -1 74 4.3398616835474968e-03</internalNodes>
          <leafValues>
            -1.0469483584165573e-01 6.8338143825531006e-01</leafValues></_>
        <_>
          <internalNodes>
            0 -1 99 2.6645436882972717e-02</internalNodes>
          <leafValues>
            9.6886172890663147e-02 -7.9056930541992188e-01</leafValues></_>
        <_>
          <internalNodes>
            0 -1 73 -1.9828589633107185e-02</internalNodes>
          <leafValues>
            -4.6047863364219666e-01 1.4462660253047943e-01</leafValues></_>
        <_>
          <internalNodes>
            0 -1 210 -5.9501139912754297e-04</internalNodes>
          <leafValues>
            -4.4167050719261169e-01 1.4537383615970612e-01</leafValues></_>
        <_>
          <internalNodes>
            0 -1 159 -7.2231898084282875e-03</internalNodes>
          <leafValues>
            -6.6494029760360718e-01 9.1986939311027527e-02</leafValues></_>
        <_>
          <internalNodes>
            0 -1 164 6.1076134443283081e-05</internalNodes>
          <leafValues>
            -3.6152565479278564e-01 2.1889561414718628e-01</leafValues></_>
        <_>
          <internalNodes>
            0 -1 195 1.1840283870697021e-02</internalNodes>
          <leafValues>
            -3.0956417322158813e-01 2.4258607625961304e-01</leafValues></_>
        <_>
          <internalNodes>
            0 -1 143 -5.7810865342617035e-02</internalNodes>
          <leafValues>
            6.0818004608154297e-01 -1.2219470739364624e-01</leafValues></_>
        <_>
          <internalNodes>
            0 -1 79 1.2881997041404247e-02</internalNodes>
          <leafValues>
            1.0693807899951935e-01 -8.0211210250854492e-01</leafValues></_>
        <_>
          <internalNodes>
            0 -1 80 -5.0888583064079285e-03</internalNodes>
          <leafValues>
            3.7928634881973267e-01 -1.8669122457504272e-01</leafValues></_>
        <_>
          <internalNodes>
            0 -1 147 -1.5656047035008669e-03</internalNodes>
          <leafValues>
            2.8134736418724060e-01 -2.5556284189224243e-01</leafValues></_>
        <_>
          <internalNodes>
            0 -1 155 1.8613229622133076e-04</internalNodes>
          <leafValues>
            -2.9173073172569275e-01 2.6240253448486328e-01</leafValues></_></weakClassifiers></_>
    <!-- stage 14 -->
    <_>
      <maxWeakCount>23</maxWeakCount>
      <stageThreshold>-9.2784702777862549e-01</stageThreshold>
      <weakClassifiers>
        <_>
          <internalNodes>
            0 -1 118 6.9097787141799927e-02</internalNodes>
          <leafValues>
            -2.7914613485336304e-02 6.3022941350936890e-01</leafValues></_>
        <_>
          <internalNodes>
            0 -1 125 5.8320416137576103e-03</internalNodes>
          <leafValues>
            -3.6677816510200500e-01 2.6173275709152222e-01</leafValues></_>
        <_>
          <internalNodes>
            0 -1 206 1.5948399901390076e-02</internalNodes>
          <leafValues>
            -1.3045606017112732e-01 5.7400035858154297e-01</leafValues></_>
        <_>
          <internalNodes>
            0 -1 198 2.5303024798631668e-02</internalNodes>
          <leafValues>
            -1.9332067668437958e-01 5.9184491634368896e-01</leafValues></_>
        <_>
          <internalNodes>
            0 -1 173 -1.0808271355926991e-02</internalNodes>
          <leafValues>
            -8.2965534925460815e-01 1.1461998522281647e-01</leafValues></_>
        <_>
          <internalNodes>
            0 -1 185 3.1205462291836739e-03</internalNodes>
          <leafValues>
            -4.3169090151786804e-01 1.8528948724269867e-01</leafValues></_>
        <_>
          <internalNodes>
            0 -1 172 -2.3964014835655689e-03</internalNodes>
          <leafValues>
            5.3407084941864014e-01 -1.3020175695419312e-01</leafValues></_>
        <_>
          <internalNodes>
            0 -1 65 -3.2769953832030296e-03</internalNodes>
          <leafValues>
            -5.4436790943145752e-01 1.1550256609916687e-01</leafValues></_>
        <_>
          <internalNodes>
            0 -1 3 -9.6486869733780622e-04</internalNodes>
          <leafValues>
            -5.3448736667633057e-01 1.1227343231439590e-01</leafValues></_>
        <_>
          <internalNodes>
            0 -1 139 -1.8863562494516373e-02</internalNodes>
          <leafValues>
            -4.3874454498291016e-01 1.4156655967235565e-01</leafValues></_>
        <_>
          <internalNodes>
            0 -1 90 6.5399361774325371e-03</internalNodes>
          <leafValues>
            -2.0582249760627747e-01 3.0978986620903015e-01</leafValues></_>
        <_>
          <internalNodes>
            0 -1 116 2.0608399063348770e-03</internalNodes>
          <leafValues>
            -2.5892314314842224e-01 2.5918042659759521e-01</leafValues></_>
        <_>
          <internalNodes>
            0 -1 94 1.4362515881657600e-02</internalNodes>
          <leafValues>
            -1.8865591287612915e-01 3.3185371756553650e-01</leafValues></_>
        <_>
          <internalNodes>
            0 -1 137 9.4756335020065308e-03</internalNodes>
          <leafValues>
            -3.5318154096603394e-01 2.1060515940189362e-01</leafValues></_>
        <_>
          <internalNodes>
            0 -1 115 2.1566234063357115e-03</internalNodes>
          <leafValues>
            -1.5314294397830963e-01 4.4000309705734253e-01</leafValues></_>
        <_>
          <internalNodes>
            0 -1 0 1.0624276474118233e-02</internalNodes>
          <leafValues>
            -3.1266474723815918e-01 2.2561673820018768e-01</leafValues></_>
        <_>
          <internalNodes>
            0 -1 153 -5.4573658853769302e-03</internalNodes>
          <leafValues>
            -6.7698466777801514e-01 8.9851573109626770e-02</leafValues></_>
        <_>
          <internalNodes>
            0 -1 9 1.0819066315889359e-02</internalNodes>
          <leafValues>
            -1.5944901108741760e-01 4.2498397827148438e-01</leafValues></_>
        <_>
          <internalNodes>
            0 -1 39 -9.4515702221542597e-04</internalNodes>
          <leafValues>
            -4.9311527609825134e-01 1.5192766487598419e-01</leafValues></_>
        <_>
          <internalNodes>
            0 -1 83 4.2919956147670746e-02</internalNodes>
          <leafValues>
            7.1790724992752075e-02 -7.5133281946182251e-01</leafValues></_>
        <_>
          <internalNodes>
            0 -1 111 -5.8137730229645967e-04</internalNodes>
          <leafValues>
            2.3163843154907227e-01 -2.7102896571159363e-01</leafValues></_>
        <_>
          <internalNodes>
            0 -1 110 1.6669073374941945e-04</internalNodes>
          <leafValues>
            -2.6578295230865479e-01 2.3882818222045898e-01</leafValues></_>
        <_>
          <internalNodes>
            0 -1 32 -3.8614305667579174e-03</internalNodes>
          <leafValues>
            -4.8387417197227478e-01 1.4394664764404297e-01</leafValues></_></weakClassifiers></_></stages>
  <features>
    <_>
      <rects>
        <_>
          0 0 3 14 -1.</_>
        <_>
          1 0 1 14 3.</_></rects>
      <tilted>0</tilted></_>
    <_>
      <rects>
        <_>
          0 0 17 2 -1.</_>
        <_>
          0 1 17 1 2.</_></rects>
      <tilted>0</tilted></_>
    <_>
      <rects>
        <_>
          0 1 3 15 -1.</_>
        <_>
          1 1 1 15 3.</_></rects>
      <tilted>0</tilted></_>
    <_>
      <rects>
        <_>
          0 2 2 2 -1.</_>
        <_>
          0 2 1 1 2.</_>
        <_>
          1 3 1 1 2.</_></rects>
      <tilted>0</tilted></_>
    <_>
      <rects>
        <_>
          0 2 2 15 -1.</_>
        <_>
          1 2 1 15 2.</_></rects>
      <tilted>0</tilted></_>
    <_>
      <rects>
        <_>
          0 2 3 16 -1.</_>
        <_>
          1 2 1 16 3.</_></rects>
      <tilted>0</tilted></_>
    <_>
      <rects>
        <_>
          0 3 2 17 -1.</_>
        <_>
          1 3 1 17 2.</_></rects>
      <tilted>0</tilted></_>
    <_>
      <rects>
        <_>
          0 4 3 13 -1.</_>
        <_>
          1 4 1 13 3.</_></rects>
      <tilted>0</tilted></_>
    <_>
      <rects>
        <_>
          0 4 3 16 -1.</_>
        <_>
          1 4 1 16 3.</_></rects>
      <tilted>0</tilted></_>
    <_>
      <rects>
        <_>
          0 5 2 12 -1.</_>
        <_>
          0 5 1 6 2.</_>
        <_>
          1 11 1 6 2.</_></rects>
      <tilted>0</tilted></_>
    <_>
      <rects>
        <_>
          0 5 3 12 -1.</_>
        <_>
          1 5 1 12 3.</_></rects>
      <tilted>0</tilted></_>
    <_>
      <rects>
        <_>
          0 6 3 12 -1.</_>
        <_>
          1 6 1 12 3.</_></rects>
      <tilted>0</tilted></_>
    <_>
      <rects>
        <_>
          0 8 3 4 -1.</_>
        <_>
          1 8 1 4 3.</_></rects>
      <tilted>0</tilted></_>
    <_>
      <rects>
        <_>
          0 11 3 7 -1.</_>
        <_>
          1 11 1 7 3.</_></rects>
      <tilted>0</tilted></_>
    <_>
      <rects>
        <_>
          0 11 6 8 -1.</_>
        <_>
          3 11 3 8 2.</_></rects>
      <tilted>0</tilted></_>
    <_>
      <rects>
        <_>
          0 11 8 8 -1.</_>
        <_>
          4 11 4 8 2.</_></rects>
      <tilted>0</tilted></_>
    <_>
      <rects>
        <_>
          0 17 2 2 -1.</_>
        <_>
          0 17 1 1 2.</_>
        <_>
          1 18 1 1 2.</_></rects>
      <tilted>0</tilted></_>
    <_>
      <rects>
        <_>
          0 17 12 2 -1.</_>
        <_>
          4 17 4 2 3.</_></rects>
      <tilted>0</tilted></_>
    <_>
      <rects>
        <_>
          0 18 2 1 -1.</_>
        <_>
          1 18 1 1 2.</_></rects>
      <tilted>0</tilted></_>
    <_>
      <rects>
        <_>
          1 0 2 1 -1.</_>
        <_>
          2 0 1 1 2.</_></rects>
      <tilted>0</tilted></_>
    <_>
      <rects>
        <_>
          1 0 2 2 -1.</_>
        <_>
          1 0 1 1 2.</_>
        <_>
          2 1 1 1 2.</_></rects>
      <tilted>0</tilted></_>
    <_>
      <rects>
        <_>
          1 0 6 1 -1.</_>
        <_>
          4 0 3 1 2.</_></rects>
      <tilted>0</tilted></_>
    <_>
      <rects>
        <_>
          1 1 1 12 -1.</_>
        <_>
          1 5 1 4 3.</_></rects>
      <tilted>0</tilted></_>
    <_>
      <rects>
        <_>
          1 1 1 15 -1.</_>
        <_>
          1 6 1 5 3.</_></rects>
      <tilted>0</tilted></_>
    <_>
      <rects>
        <_>
          1 1 16 6 -1.</_>
        <_>
          1 1 8 3 2.</_>
        <_>
          9 4 8 3 2.</_></rects>
      <tilted>0</tilted></_>
    <_>
      <rects>
        <_>
          1 2 6 6 -1.</_>
        <_>
          4 2 3 6 2.</_></rects>
      <tilted>0</tilted></_>
    <_>
      <rects>
        <_>
          1 2 15 3 -1.</_>
        <_>
          6 2 5 3 3.</_></rects>
      <tilted>0</tilted></_>
    <_>
      <rects>
        <_>
          1 3 4 12 -1.</_>
        <_>
          1 3 2 6 2.</_>
        <_>
          3 9 2 6 2.</_></rects>
      <tilted>0</tilted></_>
    <_>
      <rects>
        <_>
          1 3 4 13 -1.</_>
        <_>
          3 3 2 13 2.</_></rects>
      <tilted>0</tilted></_>
    <_>
      <rects>
        <_>
          1 3 4 14 -1.</_>
        <_>
          3 3 2 14 2.</_></rects>
      <tilted>0</tilted></_>
    <_>
      <rects>
        <_>
          1 6 2 10 -1.</_>
        <_>
          2 6 1 10 2.</_></rects>
      <tilted>0</tilted></_>
    <_>
      <rects>
        <_>
          1 6 4 12 -1.</_>
        <_>
          1 6 2 6 2.</_>
        <_>
          3 12 2 6 2.</_></rects>
      <tilted>0</tilted></_>
    <_>
      <rects>
        <_>
          1 6 3 3 -1.</_>
        <_>
          1 7 3 1 3.</_></rects>
      <tilted>0</tilted></_>
    <_>
      <rects>
        <_>
          1 7 1 6 -1.</_>
        <_>
          1 9 1 2 3.</_></rects>
      <tilted>0</tilted></_>
    <_>
      <rects>
        <_>
          1 7 1 12 -1.</_>
        <_>
          1 11 1 4 3.</_></rects>
      <tilted>0</tilted></_>
    <_>
      <rects>
        <_>
          1 7 8 4 -1.</_>
        <_>
          1 9 8 2 2.</_></rects>
      <tilted>0</tilted></_>
    <_>
      <rects>
        <_>
          1 14 18 4 -1.</_>
        <_>
          7 14 6 4 3.</_></rects>
      <tilted>0</tilted></_>
    <_>
      <rects>
        <_>
          1 15 5 2 -1.</_>
        <_>
          1 16 5 1 2.</_></rects>
      <tilted>0</tilted></_>
    <_>
      <rects>
        <_>
          1 17 16 3 -1.</_>
        <_>
          1 18 16 1 3.</_></rects>
      <tilted>0</tilted></_>
    <_>
      <rects>
        <_>
          1 19 2 1 -1.</_>
        <_>
          2 19 1 1 2.</_></rects>
      <tilted>0</tilted></_>
    <_>
      <rects>
        <_>
          2 0 2 2 -1.</_>
        <_>
          2 0 1 1 2.</_>
        <_>
          3 1 1 1 2.</_></rects>
      <tilted>0</tilted></_>
    <_>
      <rects>
        <_>
          2 0 15 2 -1.</_>
        <_>
          2 1 15 1 2.</_></rects>
      <tilted>0</tilted></_>
    <_>
      <rects>
        <_>
          2 0 16 2 -1.</_>
        <_>
          2 1 16 1 2.</_></rects>
      <tilted>0</tilted></_>
    <_>
      <rects>
        <_>
          2 2 6 5 -1.</_>
        <_>
          5 2 3 5 2.</_></rects>
      <tilted>0</tilted></_>
    <_>
      <rects>
        <_>
          2 2 15 4 -1.</_>
        <_>
          2 4 15 2 2.</_></rects>
      <tilted>0</tilted></_>
    <_>
      <rects>
        <_>
          2 3 4 3 -1.</_>
        <_>
          2 4 4 1 3.</_></rects>
      <tilted>0</tilted></_>
    <_>
      <rects>
        <_>
          2 5 2 2 -1.</_>
        <_>
          2 5 1 1 2.</_>
        <_>
          3 6 1 1 2.</_></rects>
      <tilted>0</tilted></_>
    <_>
      <rects>
        <_>
          2 13 3 6 -1.</_>
        <_>
          3 13 1 6 3.</_></rects>
      <tilted>0</tilted></_>
    <_>
      <rects>
        <_>
          2 15 6 4 -1.</_>
        <_>
          2 17 6 2 2.</_></rects>
      <tilted>0</tilted></_>
    <_>
      <rects>
        <_>
          2 16 15 1 -1.</_>
        <_>
          7 16 5 1 3.</_></rects>
      <tilted>0</tilted></_>
    <_>
      <rects>
        <_>
          3 0 2 1 -1.</_>
        <_>
          4 0 1 1 2.</_></rects>
      <tilted>0</tilted></_>
    <_>
      <rects>
        <_>
          3 0 17 2 -1.</_>
        <_>
          3 1 17 1 2.</_></rects>
      <tilted>0</tilted></_>
    <_>
      <rects>
        <_>
          3 1 5 14 -1.</_>
        <_>
          3 8 5 7 2.</_></rects>
      <tilted>0</tilted></_>
    <_>
      <rects>
        <_>
          3 1 6 4 -1.</_>
        <_>
          3 3 6 2 2.</_></rects>
      <tilted>0</tilted></_>
    <_>
      <rects>
        <_>
          3 2 4 2 -1.</_>
        <_>
          3 2 2 1 2.</_>
        <_>
          5 3 2 1 2.</_></rects>
      <tilted>0</tilted></_>
    <_>
      <rects>
        <_>
          3 2 6 4 -1.</_>
        <_>
          6 2 3 4 2.</_></rects>
      <tilted>0</tilted></_>
    <_>
      <rects>
        <_>
          3 2 12 3 -1.</_>
        <_>
          7 2 4 3 3.</_></rects>
      <tilted>0</tilted></_>
    <_>
      <rects>
        <_>
          3 2 14 4 -1.</_>
        <_>
          3 4 14 2 2.</_></rects>
      <tilted>0</tilted></_>
    <_>
      <rects>
        <_>
          3 3 2 2 -1.</_>
        <_>
          3 3 1 1 2.</_>
        <_>
          4 4 1 1 2.</_></rects>
      <tilted>0</tilted></_>
    <_>
      <rects>
        <_>
          3 4 2 2 -1.</_>
        <_>
          3 4 1 1 2.</_>
        <_>
          4 5 1 1 2.</_></rects>
      <tilted>0</tilted></_>
    <_>
      <rects>
        <_>
          3 6 12 2 -1.</_>
        <_>
          7 6 4 2 3.</_></rects>
      <tilted>0</tilted></_>
    <_>
      <rects>
        <_>
          3 7 6 1 -1.</_>
        <_>
          6 7 3 1 2.</_></rects>
      <tilted>0</tilted></_>
    <_>
      <rects>
        <_>
          3 9 6 2 -1.</_>
        <_>
          5 9 2 2 3.</_></rects>
      <tilted>0</tilted></_>
    <_>
      <rects>
        <_>
          3 9 2 9 -1.</_>
        <_>
          3 12 2 3 3.</_></rects>
      <tilted>0</tilted></_>
    <_>
      <rects>
        <_>
          3 10 3 2 -1.</_>
        <_>
          4 10 1 2 3.</_></rects>
      <tilted>0</tilted></_>
    <_>
      <rects>
        <_>
          3 14 4 1 -1.</_>
        <_>
          5 14 2 1 2.</_></rects>
      <tilted>0</tilted></_>
    <_>
      <rects>
        <_>
          4 0 7 12 -1.</_>
        <_>
          4 4 7 4 3.</_></rects>
      <tilted>0</tilted></_>
    <_>
      <rects>
        <_>
          4 0 13 2 -1.</_>
        <_>
          4 1 13 1 2.</_></rects>
      <tilted>0</tilted></_>
    <_>
      <rects>
        <_>
          4 1 12 2 -1.</_>
        <_>
          8 1 4 2 3.</_></rects>
      <tilted>0</tilted></_>
    <_>
      <rects>
        <_>
          4 1 11 4 -1.</_>
        <_>
          4 3 11 2 2.</_></rects>
      <tilted>0</tilted></_>
    <_>
      <rects>
        <_>
          4 1 13 6 -1.</_>
        <_>
          4 4 13 3 2.</_></rects>
      <tilted>0</tilted></_>
    <_>
      <rects>
        <_>
          4 2 4 2 -1.</_>
        <_>
          4 2 2 1 2.</_>
        <_>
          6 3 2 1 2.</_></rects>
      <tilted>0</tilted></_>
    <_>
      <rects>
        <_>
          4 2 4 2 -1.</_>
        <_>
          4 3 4 1 2.</_></rects>
      <tilted>0</tilted></_>
    <_>
      <rects>
        <_>
          4 2 8 10 -1.</_>
        <_>
          8 2 4 10 2.</_></rects>
      <tilted>0</tilted></_>
    <_>
      <rects>
        <_>
          4 3 2 2 -1.</_>
        <_>
          4 3 1 1 2.</_>
        <_>
          5 4 1 1 2.</_></rects>
      <tilted>0</tilted></_>
    <_>
      <rects>
        <_>
          4 3 4 3 -1.</_>
        <_>
          6 3 2 3 2.</_></rects>
      <tilted>0</tilted></_>
    <_>
      <rects>
        <_>
          4 4 2 2 -1.</_>
        <_>
          4 4 1 1 2.</_>
        <_>
          5 5 1 1 2.</_></rects>
      <tilted>0</tilted></_>
    <_>
      <rects>
        <_>
          4 5 2 2 -1.</_>
        <_>
          4 5 1 1 2.</_>
        <_>
          5 6 1 1 2.</_></rects>
      <tilted>0</tilted></_>
    <_>
      <rects>
        <_>
          4 7 4 6 -1.</_>
        <_>
          4 7 2 3 2.</_>
        <_>
          6 10 2 3 2.</_></rects>
      <tilted>0</tilted></_>
    <_>
      <rects>
        <_>
          4 7 4 3 -1.</_>
        <_>
          4 8 4 1 3.</_></rects>
      <tilted>0</tilted></_>
    <_>
      <rects>
        <_>
          4 16 8 2 -1.</_>
        <_>
          4 16 4 1 2.</_>
        <_>
          8 17 4 1 2.</_></rects>
      <tilted>0</tilted></_>
    <_>
      <rects>
        <_>
          5 0 15 6 -1.</_>
        <_>
          5 2 15 2 3.</_></rects>
      <tilted>0</tilted></_>
    <_>
      <rects>
        <_>
          5 1 9 2 -1.</_>
        <_>
          8 1 3 2 3.</_></rects>
      <tilted>0</tilted></_>
    <_>
      <rects>
        <_>
          5 2 6 8 -1.</_>
        <_>
          7 2 2 8 3.</_></rects>
      <tilted>0</tilted></_>
    <_>
      <rects>
        <_>
          5 2 14 1 -1.</_>
        <_>
          12 2 7 1 2.</_></rects>
      <tilted>0</tilted></_>
    <_>
      <rects>
        <_>
          5 4 4 4 -1.</_>
        <_>
          5 4 2 2 2.</_>
        <_>
          7 6 2 2 2.</_></rects>
      <tilted>0</tilted></_>
    <_>
      <rects>
        <_>
          5 5 4 6 -1.</_>
        <_>
          5 5 2 3 2.</_>
        <_>
          7 8 2 3 2.</_></rects>
      <tilted>0</tilted></_>
    <_>
      <rects>
        <_>
          5 6 4 2 -1.</_>
        <_>
          7 6 2 2 2.</_></rects>
      <tilted>0</tilted></_>
    <_>
      <rects>
        <_>
          5 6 8 4 -1.</_>
        <_>
          9 6 4 4 2.</_></rects>
      <tilted>0</tilted></_>
    <_>
      <rects>
        <_>
          5 9 2 2 -1.</_>
        <_>
          6 9 1 2 2.</_></rects>
      <tilted>0</tilted></_>
    <_>
      <rects>
        <_>
          5 16 7 2 -1.</_>
        <_>
          5 17 7 1 2.</_></rects>
      <tilted>0</tilted></_>
    <_>
      <rects>
        <_>
          5 17 15 3 -1.</_>
        <_>
          5 18 15 1 3.</_></rects>
      <tilted>0</tilted></_>
    <_>
      <rects>
        <_>
          6 0 9 3 -1.</_>
        <_>
          6 1 9 1 3.</_></rects>
      <tilted>0</tilted></_>
    <_>
      <rects>
        <_>
          6 1 9 2 -1.</_>
        <_>
          9 1 3 2 3.</_></rects>
      <tilted>0</tilted></_>
    <_>
      <rects>
        <_>
          6 1 8 3 -1.</_>
        <_>
          6 2 8 1 3.</_></rects>
      <tilted>0</tilted></_>
    <_>
      <rects>
        <_>
          6 1 12 3 -1.</_>
        <_>
          6 2 12 1 3.</_></rects>
      <tilted>0</tilted></_>
    <_>
      <rects>
        <_>
          6 3 2 3 -1.</_>
        <_>
          6 4 2 1 3.</_></rects>
      <tilted>0</tilted></_>
    <_>
      <rects>
        <_>
          6 3 6 6 -1.</_>
        <_>
          8 3 2 6 3.</_></rects>
      <tilted>0</tilted></_>
    <_>
      <rects>
        <_>
          6 3 14 3 -1.</_>
        <_>
          13 3 7 3 2.</_></rects>
      <tilted>0</tilted></_>
    <_>
      <rects>
        <_>
          6 4 4 5 -1.</_>
        <_>
          8 4 2 5 2.</_></rects>
      <tilted>0</tilted></_>
    <_>
      <rects>
        <_>
          6 4 7 3 -1.</_>
        <_>
          6 5 7 1 3.</_></rects>
      <tilted>0</tilted></_>
    <_>
      <rects>
        <_>
          6 4 8 9 -1.</_>
        <_>
          6 7 8 3 3.</_></rects>
      <tilted>0</tilted></_>
    <_>
      <rects>
        <_>
          6 5 3 6 -1.</_>
        <_>
          6 7 3 2 3.</_></rects>
      <tilted>0</tilted></_>
    <_>
      <rects>
        <_>
          6 5 6 5 -1.</_>
        <_>
          9 5 3 5 2.</_></rects>
      <tilted>0</tilted></_>
    <_>
      <rects>
        <_>
          6 6 2 2 -1.</_>
        <_>
          7 6 1 2 2.</_></rects>
      <tilted>0</tilted></_>
    <_>
      <rects>
        <_>
          6 6 2 3 -1.</_>
        <_>
          7 6 1 3 2.</_></rects>
      <tilted>0</tilted></_>
    <_>
      <rects>
        <_>
          6 6 6 2 -1.</_>
        <_>
          8 6 2 2 3.</_></rects>
      <tilted>0</tilted></_>
    <_>
      <rects>
        <_>
          6 6 8 4 -1.</_>
        <_>
          10 6 4 4 2.</_></rects>
      <tilted>0</tilted></_>
    <_>
      <rects>
        <_>
          6 7 2 4 -1.</_>
        <_>
          6 9 2 2 2.</_></rects>
      <tilted>0</tilted></_>
    <_>
      <rects>
        <_>
          6 8 2 4 -1.</_>
        <_>
          6 10 2 2 2.</_></rects>
      <tilted>0</tilted></_>
    <_>
      <rects>
        <_>
          6 9 4 2 -1.</_>
        <_>
          6 9 2 1 2.</_>
        <_>
          8 10 2 1 2.</_></rects>
      <tilted>0</tilted></_>
    <_>
      <rects>
        <_>
          6 10 2 2 -1.</_>
        <_>
          6 11 2 1 2.</_></rects>
      <tilted>0</tilted></_>
    <_>
      <rects>
        <_>
          7 1 6 2 -1.</_>
        <_>
          9 1 2 2 3.</_></rects>
      <tilted>0</tilted></_>
    <_>
      <rects>
        <_>
          7 1 9 2 -1.</_>
        <_>
          10 1 3 2 3.</_></rects>
      <tilted>0</tilted></_>
    <_>
      <rects>
        <_>
          7 1 6 3 -1.</_>
        <_>
          7 2 6 1 3.</_></rects>
      <tilted>0</tilted></_>
    <_>
      <rects>
        <_>
          7 2 1 3 -1.</_>
        <_>
          7 3 1 1 3.</_></rects>
      <tilted>0</tilted></_>
    <_>
      <rects>
        <_>
          7 2 2 6 -1.</_>
        <_>
          7 2 1 3 2.</_>
        <_>
          8 5 1 3 2.</_></rects>
      <tilted>0</tilted></_>
    <_>
      <rects>
        <_>
          7 2 6 6 -1.</_>
        <_>
          9 2 2 6 3.</_></rects>
      <tilted>0</tilted></_>
    <_>
      <rects>
        <_>
          7 2 5 12 -1.</_>
        <_>
          7 6 5 4 3.</_></rects>
      <tilted>0</tilted></_>
    <_>
      <rects>
        <_>
          7 3 10 6 -1.</_>
        <_>
          7 3 5 3 2.</_>
        <_>
          12 6 5 3 2.</_></rects>
      <tilted>0</tilted></_>
    <_>
      <rects>
        <_>
          7 4 1 9 -1.</_>
        <_>
          7 7 1 3 3.</_></rects>
      <tilted>0</tilted></_>
    <_>
      <rects>
        <_>
          7 4 5 2 -1.</_>
        <_>
          7 5 5 1 2.</_></rects>
      <tilted>0</tilted></_>
    <_>
      <rects>
        <_>
          7 5 3 3 -1.</_>
        <_>
          7 6 3 1 3.</_></rects>
      <tilted>0</tilted></_>
    <_>
      <rects>
        <_>
          7 5 4 2 -1.</_>
        <_>
          7 6 4 1 2.</_></rects>
      <tilted>0</tilted></_>
    <_>
      <rects>
        <_>
          7 6 3 8 -1.</_>
        <_>
          7 10 3 4 2.</_></rects>
      <tilted>0</tilted></_>
    <_>
      <rects>
        <_>
          7 7 6 4 -1.</_>
        <_>
          7 7 3 2 2.</_>
        <_>
          10 9 3 2 2.</_></rects>
      <tilted>0</tilted></_>
    <_>
      <rects>
        <_>
          7 8 1 4 -1.</_>
        <_>
          7 10 1 2 2.</_></rects>
      <tilted>0</tilted></_>
    <_>
      <rects>
        <_>
          8 0 8 2 -1.</_>
        <_>
          8 0 4 1 2.</_>
        <_>
          12 1 4 1 2.</_></rects>
      <tilted>0</tilted></_>
    <_>
      <rects>
        <_>
          8 3 2 9 -1.</_>
        <_>
          8 6 2 3 3.</_></rects>
      <tilted>0</tilted></_>
    <_>
      <rects>
        <_>
          8 4 2 4 -1.</_>
        <_>
          8 6 2 2 2.</_></rects>
      <tilted>0</tilted></_>
    <_>
      <rects>
        <_>
          8 4 2 6 -1.</_>
        <_>
          8 6 2 2 3.</_></rects>
      <tilted>0</tilted></_>
    <_>
      <rects>
        <_>
          8 4 4 6 -1.</_>
        <_>
          10 4 2 6 2.</_></rects>
      <tilted>0</tilted></_>
    <_>
      <rects>
        <_>
          8 5 5 3 -1.</_>
        <_>
          8 6 5 1 3.</_></rects>
      <tilted>0</tilted></_>
    <_>
      <rects>
        <_>
          8 6 4 14 -1.</_>
        <_>
          8 6 2 7 2.</_>
        <_>
          10 13 2 7 2.</_></rects>
      <tilted>0</tilted></_>
    <_>
      <rects>
        <_>
          8 6 6 3 -1.</_>
        <_>
          11 6 3 3 2.</_></rects>
      <tilted>0</tilted></_>
    <_>
      <rects>
        <_>
          8 6 12 3 -1.</_>
        <_>
          12 6 4 3 3.</_></rects>
      <tilted>0</tilted></_>
    <_>
      <rects>
        <_>
          8 7 2 3 -1.</_>
        <_>
          9 7 1 3 2.</_></rects>
      <tilted>0</tilted></_>
    <_>
      <rects>
        <_>
          8 14 12 6 -1.</_>
        <_>
          14 14 6 6 2.</_></rects>
      <tilted>0</tilted></_>
    <_>
      <rects>
        <_>
          8 15 8 4 -1.</_>
        <_>
          12 15 4 4 2.</_></rects>
      <tilted>0</tilted></_>
    <_>
      <rects>
        <_>
          9 0 6 7 -1.</_>
        <_>
          11 0 2 7 3.</_></rects>
      <tilted>0</tilted></_>
    <_>
      <rects>
        <_>
          9 4 4 6 -1.</_>
        <_>
          11 4 2 6 2.</_></rects>
      <tilted>0</tilted></_>
    <_>
      <rects>
        <_>
          9 5 4 4 -1.</_>
        <_>
          11 5 2 4 2.</_></rects>
      <tilted>0</tilted></_>
    <_>
      <rects>
        <_>
          9 6 4 3 -1.</_>
        <_>
          11 6 2 3 2.</_></rects>
      <tilted>0</tilted></_>
    <_>
      <rects>
        <_>
          9 6 10 8 -1.</_>
        <_>
          9 6 5 4 2.</_>
        <_>
          14 10 5 4 2.</_></rects>
      <tilted>0</tilted></_>
    <_>
      <rects>
        <_>
          9 15 8 2 -1.</_>
        <_>
          9 15 4 1 2.</_>
        <_>
          13 16 4 1 2.</_></rects>
      <tilted>0</tilted></_>
    <_>
      <rects>
        <_>
          10 1 6 3 -1.</_>
        <_>
          12 1 2 3 3.</_></rects>
      <tilted>0</tilted></_>
    <_>
      <rects>
        <_>
          10 2 2 3 -1.</_>
        <_>
          10 3 2 1 3.</_></rects>
      <tilted>0</tilted></_>
    <_>
      <rects>
        <_>
          10 6 3 2 -1.</_>
        <_>
          10 7 3 1 2.</_></rects>
      <tilted>0</tilted></_>
    <_>
      <rects>
        <_>
          10 7 3 3 -1.</_>
        <_>
          10 8 3 1 3.</_></rects>
      <tilted>0</tilted></_>
    <_>
      <rects>
        <_>
          10 7 4 3 -1.</_>
        <_>
          10 8 4 1 3.</_></rects>
      <tilted>0</tilted></_>
    <_>
      <rects>
        <_>
          10 9 3 2 -1.</_>
        <_>
          11 9 1 2 3.</_></rects>
      <tilted>0</tilted></_>
    <_>
      <rects>
        <_>
          10 16 4 2 -1.</_>
        <_>
          10 16 2 1 2.</_>
        <_>
          12 17 2 1 2.</_></rects>
      <tilted>0</tilted></_>
    <_>
      <rects>
        <_>
          11 0 6 10 -1.</_>
        <_>
          11 5 6 5 2.</_></rects>
      <tilted>0</tilted></_>
    <_>
      <rects>
        <_>
          11 6 1 4 -1.</_>
        <_>
          11 8 1 2 2.</_></rects>
      <tilted>0</tilted></_>
    <_>
      <rects>
        <_>
          11 6 2 2 -1.</_>
        <_>
          11 7 2 1 2.</_></rects>
      <tilted>0</tilted></_>
    <_>
      <rects>
        <_>
          11 6 4 3 -1.</_>
        <_>
          11 7 4 1 3.</_></rects>
      <tilted>0</tilted></_>
    <_>
      <rects>
        <_>
          11 8 2 9 -1.</_>
        <_>
          11 11 2 3 3.</_></rects>
      <tilted>0</tilted></_>
    <_>
      <rects>
        <_>
          11 15 2 2 -1.</_>
        <_>
          11 16 2 1 2.</_></rects>
      <tilted>0</tilted></_>
    <_>
      <rects>
        <_>
          12 0 8 6 -1.</_>
        <_>
          12 0 4 3 2.</_>
        <_>
          16 3 4 3 2.</_></rects>
      <tilted>0</tilted></_>
    <_>
      <rects>
        <_>
          12 1 3 5 -1.</_>
        <_>
          13 1 1 5 3.</_></rects>
      <tilted>0</tilted></_>
    <_>
      <rects>
        <_>
          12 1 8 10 -1.</_>
        <_>
          12 6 8 5 2.</_></rects>
      <tilted>0</tilted></_>
    <_>
      <rects>
        <_>
          12 2 4 2 -1.</_>
        <_>
          12 2 2 1 2.</_>
        <_>
          14 3 2 1 2.</_></rects>
      <tilted>0</tilted></_>
    <_>
      <rects>
        <_>
          12 11 6 8 -1.</_>
        <_>
          12 15 6 4 2.</_></rects>
      <tilted>0</tilted></_>
    <_>
      <rects>
        <_>
          12 14 4 4 -1.</_>
        <_>
          12 16 4 2 2.</_></rects>
      <tilted>0</tilted></_>
    <_>
      <rects>
        <_>
          13 1 2 3 -1.</_>
        <_>
          14 1 1 3 2.</_></rects>
      <tilted>0</tilted></_>
    <_>
      <rects>
        <_>
          13 2 6 2 -1.</_>
        <_>
          16 2 3 2 2.</_></rects>
      <tilted>0</tilted></_>
    <_>
      <rects>
        <_>
          13 3 4 4 -1.</_>
        <_>
          15 3 2 4 2.</_></rects>
      <tilted>0</tilted></_>
    <_>
      <rects>
        <_>
          13 6 6 8 -1.</_>
        <_>
          15 6 2 8 3.</_></rects>
      <tilted>0</tilted></_>
    <_>
      <rects>
        <_>
          13 8 2 4 -1.</_>
        <_>
          13 8 1 2 2.</_>
        <_>
          14 10 1 2 2.</_></rects>
      <tilted>0</tilted></_>
    <_>
      <rects>
        <_>
          13 8 6 5 -1.</_>
        <_>
          15 8 2 5 3.</_></rects>
      <tilted>0</tilted></_>
    <_>
      <rects>
        <_>
          13 16 2 2 -1.</_>
        <_>
          13 16 1 1 2.</_>
        <_>
          14 17 1 1 2.</_></rects>
      <tilted>0</tilted></_>
    <_>
      <rects>
        <_>
          14 3 4 4 -1.</_>
        <_>
          16 3 2 4 2.</_></rects>
      <tilted>0</tilted></_>
    <_>
      <rects>
        <_>
          14 4 2 2 -1.</_>
        <_>
          14 4 1 1 2.</_>
        <_>
          15 5 1 1 2.</_></rects>
      <tilted>0</tilted></_>
    <_>
      <rects>
        <_>
          14 8 4 4 -1.</_>
        <_>
          14 8 2 2 2.</_>
        <_>
          16 10 2 2 2.</_></rects>
      <tilted>0</tilted></_>
    <_>
      <rects>
        <_>
          15 1 2 6 -1.</_>
        <_>
          16 1 1 6 2.</_></rects>
      <tilted>0</tilted></_>
    <_>
      <rects>
        <_>
          15 3 2 8 -1.</_>
        <_>
          15 7 2 4 2.</_></rects>
      <tilted>0</tilted></_>
    <_>
      <rects>
        <_>
          15 4 2 2 -1.</_>
        <_>
          15 4 1 1 2.</_>
        <_>
          16 5 1 1 2.</_></rects>
      <tilted>0</tilted></_>
    <_>
      <rects>
        <_>
          15 4 2 4 -1.</_>
        <_>
          15 6 2 2 2.</_></rects>
      <tilted>0</tilted></_>
    <_>
      <rects>
        <_>
          15 4 4 12 -1.</_>
        <_>
          17 4 2 12 2.</_></rects>
      <tilted>0</tilted></_>
    <_>
      <rects>
        <_>
          15 4 4 13 -1.</_>
        <_>
          17 4 2 13 2.</_></rects>
      <tilted>0</tilted></_>
    <_>
      <rects>
        <_>
          15 5 4 12 -1.</_>
        <_>
          17 5 2 12 2.</_></rects>
      <tilted>0</tilted></_>
    <_>
      <rects>
        <_>
          15 5 4 13 -1.</_>
        <_>
          17 5 2 13 2.</_></rects>
      <tilted>0</tilted></_>
    <_>
      <rects>
        <_>
          15 6 4 12 -1.</_>
        <_>
          17 6 2 12 2.</_></rects>
      <tilted>0</tilted></_>
    <_>
      <rects>
        <_>
          16 3 2 7 -1.</_>
        <_>
          17 3 1 7 2.</_></rects>
      <tilted>0</tilted></_>
    <_>
      <rects>
        <_>
          16 4 1 10 -1.</_>
        <_>
          16 9 1 5 2.</_></rects>
      <tilted>0</tilted></_>
    <_>
      <rects>
        <_>
          16 4 2 6 -1.</_>
        <_>
          17 4 1 6 2.</_></rects>
      <tilted>0</tilted></_>
    <_>
      <rects>
        <_>
          16 5 4 9 -1.</_>
        <_>
          16 8 4 3 3.</_></rects>
      <tilted>0</tilted></_>
    <_>
      <rects>
        <_>
          16 7 4 7 -1.</_>
        <_>
          18 7 2 7 2.</_></rects>
      <tilted>0</tilted></_>
    <_>
      <rects>
        <_>
          16 7 4 9 -1.</_>
        <_>
          18 7 2 9 2.</_></rects>
      <tilted>0</tilted></_>
    <_>
      <rects>
        <_>
          16 10 4 6 -1.</_>
        <_>
          18 10 2 6 2.</_></rects>
      <tilted>0</tilted></_>
    <_>
      <rects>
        <_>
          17 0 2 3 -1.</_>
        <_>
          18 0 1 3 2.</_></rects>
      <tilted>0</tilted></_>
    <_>
      <rects>
        <_>
          17 2 2 1 -1.</_>
        <_>
          18 2 1 1 2.</_></rects>
      <tilted>0</tilted></_>
    <_>
      <rects>
        <_>
          17 2 1 2 -1.</_>
        <_>
          17 3 1 1 2.</_></rects>
      <tilted>0</tilted></_>
    <_>
      <rects>
        <_>
          17 4 3 13 -1.</_>
        <_>
          18 4 1 13 3.</_></rects>
      <tilted>0</tilted></_>
    <_>
      <rects>
        <_>
          17 5 2 10 -1.</_>
        <_>
          17 5 1 5 2.</_>
        <_>
          18 10 1 5 2.</_></rects>
      <tilted>0</tilted></_>
    <_>
      <rects>
        <_>
          17 5 3 11 -1.</_>
        <_>
          18 5 1 11 3.</_></rects>
      <tilted>0</tilted></_>
    <_>
      <rects>
        <_>
          17 5 3 13 -1.</_>
        <_>
          18 5 1 13 3.</_></rects>
      <tilted>0</tilted></_>
    <_>
      <rects>
        <_>
          17 6 3 10 -1.</_>
        <_>
          18 6 1 10 3.</_></rects>
      <tilted>0</tilted></_>
    <_>
      <rects>
        <_>
          17 11 3 6 -1.</_>
        <_>
          18 11 1 6 3.</_></rects>
      <tilted>0</tilted></_>
    <_>
      <rects>
        <_>
          18 0 1 15 -1.</_>
        <_>
          18 5 1 5 3.</_></rects>
      <tilted>0</tilted></_>
    <_>
      <rects>
        <_>
          18 0 2 19 -1.</_>
        <_>
          19 0 1 19 2.</_></rects>
      <tilted>0</tilted></_>
    <_>
      <rects>
        <_>
          18 1 2 1 -1.</_>
        <_>
          19 1 1 1 2.</_></rects>
      <tilted>0</tilted></_>
    <_>
      <rects>
        <_>
          18 3 2 13 -1.</_>
        <_>
          19 3 1 13 2.</_></rects>
      <tilted>0</tilted></_>
    <_>
      <rects>
        <_>
          18 4 2 9 -1.</_>
        <_>
          19 4 1 9 2.</_></rects>
      <tilted>0</tilted></_>
    <_>
      <rects>
        <_>
          18 4 2 15 -1.</_>
        <_>
          19 4 1 15 2.</_></rects>
      <tilted>0</tilted></_>
    <_>
      <rects>
        <_>
          18 5 1 15 -1.</_>
        <_>
          18 10 1 5 3.</_></rects>
      <tilted>0</tilted></_>
    <_>
      <rects>
        <_>
          18 6 2 10 -1.</_>
        <_>
          18 6 1 5 2.</_>
        <_>
          19 11 1 5 2.</_></rects>
      <tilted>0</tilted></_>
    <_>
      <rects>
        <_>
          18 6 2 9 -1.</_>
        <_>
          18 9 2 3 3.</_></rects>
      <tilted>0</tilted></_>
    <_>
      <rects>
        <_>
          18 8 2 5 -1.</_>
        <_>
          19 8 1 5 2.</_></rects>
      <tilted>0</tilted></_>
    <_>
      <rects>
        <_>
          18 17 2 2 -1.</_>
        <_>
          19 17 1 2 2.</_></rects>
      <tilted>0</tilted></_>
    <_>
      <rects>
        <_>
          19 12 1 2 -1.</_>
        <_>
          19 13 1 1 2.</_></rects>
      <tilted>0</tilted></_>
    <_>
      <rects>
        <_>
          19 16 1 2 -1.</_>
        <_>
          19 17 1 1 2.</_></rects>
      <tilted>0</tilted></_>
    <_>
      <rects>
        <_>
          19 17 1 2 -1.</_>
        <_>
          19 18 1 1 2.</_></rects>
      <tilted>0</tilted></_></features></cascade>
</opencv_storage>
