<?xml version="1.0"?>
<opencv_storage>
<stage5>
  <maxWeakCount>14</maxWeakCount>
  <stageThreshold>-1.2014819383621216e+00</stageThreshold>
  <weakClassifiers>
    <_>
      <internalNodes>
        0 -1 51324 2.8087818995118141e-02</internalNodes>
      <leafValues>
        -1.2673880159854889e-01 7.5675678253173828e-01</leafValues></_>
    <_>
      <internalNodes>
        0 -1 3911 1.8993806093931198e-02</internalNodes>
      <leafValues>
        -2.6044508814811707e-01 5.6520116329193115e-01</leafValues></_>
    <_>
      <internalNodes>
        0 -1 9110 -1.9619625061750412e-02</internalNodes>
      <leafValues>
        4.1361206769943237e-01 -3.3446899056434631e-01</leafValues></_>
    <_>
      <internalNodes>
        0 -1 29388 -7.2187306359410286e-03</internalNodes>
      <leafValues>
        5.6394547224044800e-01 -3.0784708261489868e-01</leafValues></_>
    <_>
      <internalNodes>
        0 -1 52432 1.8384291324764490e-03</internalNodes>
      <leafValues>
        2.2313177585601807e-01 -7.1641421318054199e-01</leafValues></_>
    <_>
      <internalNodes>
        0 -1 50168 1.0027188807725906e-02</internalNodes>
      <leafValues>
        -2.7307718992233276e-01 6.4810711145401001e-01</leafValues></_>
    <_>
      <internalNodes>
        0 -1 77059 3.1114062294363976e-03</internalNodes>
      <leafValues>
        -4.3088254332542419e-01 3.1176728010177612e-01</leafValues></_>
    <_>
      <internalNodes>
        0 -1 60874 -3.2083292026072741e-03</internalNodes>
      <leafValues>
        4.2484641075134277e-01 -2.6286819577217102e-01</leafValues></_>
    <_>
      <internalNodes>
        0 -1 51708 -1.8652874976396561e-02</internalNodes>
      <leafValues>
        -7.4225246906280518e-01 1.3351914286613464e-01</leafValues></_>
    <_>
      <internalNodes>
        0 -1 22642 7.9233460128307343e-03</internalNodes>
      <leafValues>
        2.0451742410659790e-01 -5.1884025335311890e-01</leafValues></_>
    <_>
      <internalNodes>
        0 -1 42035 -9.2448219656944275e-03</internalNodes>
      <leafValues>
        4.2086353898048401e-01 -2.5084221363067627e-01</leafValues></_>
    <_>
      <internalNodes>
        0 -1 21511 -5.4126712493598461e-03</internalNodes>
      <leafValues>
        3.1150013208389282e-01 -3.3339232206344604e-01</leafValues></_>
    <_>
      <internalNodes>
        0 -1 14687 1.2060574255883694e-02</internalNodes>
      <leafValues>
        -2.1691666543483734e-01 4.3409773707389832e-01</leafValues></_>
    <_>
      <internalNodes>
        0 -1 66293 -4.2311467230319977e-02</internalNodes>
      <leafValues>
        2.9248136281967163e-01 -3.1707042455673218e-01</leafValues></_></weakClassifiers></stage5>
</opencv_storage>
