<?xml version="1.0"?>
<opencv_storage>
<stage13>
  <maxWeakCount>22</maxWeakCount>
  <stageThreshold>-8.6520487070083618e-01</stageThreshold>
  <weakClassifiers>
    <_>
      <internalNodes>
        0 -1 47703 -3.1073950231075287e-02</internalNodes>
      <leafValues>
        6.4897382259368896e-01 -1.3209013268351555e-02</leafValues></_>
    <_>
      <internalNodes>
        0 -1 676 1.2201221659779549e-02</internalNodes>
      <leafValues>
        -2.6325055956840515e-01 3.3275720477104187e-01</leafValues></_>
    <_>
      <internalNodes>
        0 -1 23001 -5.2676922641694546e-03</internalNodes>
      <leafValues>
        4.8280864953994751e-01 -1.5103144943714142e-01</leafValues></_>
    <_>
      <internalNodes>
        0 -1 23502 3.7857843562960625e-03</internalNodes>
      <leafValues>
        -1.9927830994129181e-01 6.5419626235961914e-01</leafValues></_>
    <_>
      <internalNodes>
        0 -1 9684 1.3413548469543457e-02</internalNodes>
      <leafValues>
        -1.7732344567775726e-01 4.5153874158859253e-01</leafValues></_>
    <_>
      <internalNodes>
        0 -1 11323 -2.6258988305926323e-02</internalNodes>
      <leafValues>
        4.6733477711677551e-01 -1.8437536060810089e-01</leafValues></_>
    <_>
      <internalNodes>
        0 -1 8332 4.0305960923433304e-02</internalNodes>
      <leafValues>
        -9.0846896171569824e-02 8.2643550634384155e-01</leafValues></_>
    <_>
      <internalNodes>
        0 -1 29271 -9.6931979060173035e-03</internalNodes>
      <leafValues>
        7.6993751525878906e-01 -7.8145273029804230e-02</leafValues></_>
    <_>
      <internalNodes>
        0 -1 7620 -9.2287606094032526e-04</internalNodes>
      <leafValues>
        -4.6840766072273254e-01 1.7618185281753540e-01</leafValues></_>
    <_>
      <internalNodes>
        0 -1 16644 -6.5747266635298729e-03</internalNodes>
      <leafValues>
        1.3455455005168915e-01 -4.9091148376464844e-01</leafValues></_>
    <_>
      <internalNodes>
        0 -1 29757 4.3398616835474968e-03</internalNodes>
      <leafValues>
        -1.0469483584165573e-01 6.8338143825531006e-01</leafValues></_>
    <_>
      <internalNodes>
        0 -1 41820 2.6645436882972717e-02</internalNodes>
      <leafValues>
        9.6886172890663147e-02 -7.9056930541992188e-01</leafValues></_>
    <_>
      <internalNodes>
        0 -1 29429 -1.9828589633107185e-02</internalNodes>
      <leafValues>
        -4.6047863364219666e-01 1.4462660253047943e-01</leafValues></_>
    <_>
      <internalNodes>
        0 -1 78435 -5.9501139912754297e-04</internalNodes>
      <leafValues>
        -4.4167050719261169e-01 1.4537383615970612e-01</leafValues></_>
    <_>
      <internalNodes>
        0 -1 66052 -7.2231898084282875e-03</internalNodes>
      <leafValues>
        -6.6494029760360718e-01 9.1986939311027527e-02</leafValues></_>
    <_>
      <internalNodes>
        0 -1 68958 6.1076134443283081e-05</internalNodes>
      <leafValues>
        -3.6152565479278564e-01 2.1889561414718628e-01</leafValues></_>
    <_>
      <internalNodes>
        0 -1 77132 1.1840283870697021e-02</internalNodes>
      <leafValues>
        -3.0956417322158813e-01 2.4258607625961304e-01</leafValues></_>
    <_>
      <internalNodes>
        0 -1 56826 -5.7810865342617035e-02</internalNodes>
      <leafValues>
        6.0818004608154297e-01 -1.2219470739364624e-01</leafValues></_>
    <_>
      <internalNodes>
        0 -1 31712 1.2881997041404247e-02</internalNodes>
      <leafValues>
        1.0693807899951935e-01 -8.0211210250854492e-01</leafValues></_>
    <_>
      <internalNodes>
        0 -1 33975 -5.0888583064079285e-03</internalNodes>
      <leafValues>
        3.7928634881973267e-01 -1.8669122457504272e-01</leafValues></_>
    <_>
      <internalNodes>
        0 -1 60623 -1.5656047035008669e-03</internalNodes>
      <leafValues>
        2.8134736418724060e-01 -2.5556284189224243e-01</leafValues></_>
    <_>
      <internalNodes>
        0 -1 64240 1.8613229622133076e-04</internalNodes>
      <leafValues>
        -2.9173073172569275e-01 2.6240253448486328e-01</leafValues></_></weakClassifiers></stage13>
</opencv_storage>
