<?xml version="1.0"?>
<opencv_storage>
<stage12>
  <maxWeakCount>24</maxWeakCount>
  <stageThreshold>-9.2779022455215454e-01</stageThreshold>
  <weakClassifiers>
    <_>
      <internalNodes>
        0 -1 25461 7.3948511853814125e-03</internalNodes>
      <leafValues>
        1.1834319680929184e-02 6.5578633546829224e-01</leafValues></_>
    <_>
      <internalNodes>
        0 -1 1486 1.3412652537226677e-02</internalNodes>
      <leafValues>
        -2.6663193106651306e-01 3.7234768271446228e-01</leafValues></_>
    <_>
      <internalNodes>
        0 -1 28584 1.4241643249988556e-02</internalNodes>
      <leafValues>
        -2.2736866772174835e-01 3.2468524575233459e-01</leafValues></_>
    <_>
      <internalNodes>
        0 -1 23072 -6.2984367832541466e-03</internalNodes>
      <leafValues>
        2.1636958420276642e-01 -3.4785306453704834e-01</leafValues></_>
    <_>
      <internalNodes>
        0 -1 6172 -2.3273959755897522e-02</internalNodes>
      <leafValues>
        2.2587469220161438e-01 -3.1598535180091858e-01</leafValues></_>
    <_>
      <internalNodes>
        0 -1 7477 5.1733199506998062e-02</internalNodes>
      <leafValues>
        -1.3279794156551361e-01 7.5466609001159668e-01</leafValues></_>
    <_>
      <internalNodes>
        0 -1 59375 2.7490369975566864e-03</internalNodes>
      <leafValues>
        -2.1498145163059235e-01 3.7995103001594543e-01</leafValues></_>
    <_>
      <internalNodes>
        0 -1 68211 8.0620422959327698e-03</internalNodes>
      <leafValues>
        -3.2039266824722290e-01 2.3283578455448151e-01</leafValues></_>
    <_>
      <internalNodes>
        0 -1 77957 4.1906375437974930e-02</internalNodes>
      <leafValues>
        -1.0708370804786682e-01 7.9556149244308472e-01</leafValues></_>
    <_>
      <internalNodes>
        0 -1 73710 1.8493034876883030e-03</internalNodes>
      <leafValues>
        -3.1960159540176392e-01 2.7224066853523254e-01</leafValues></_>
    <_>
      <internalNodes>
        0 -1 58394 -2.6795142330229282e-03</internalNodes>
      <leafValues>
        3.1693187355995178e-01 -2.0430752635002136e-01</leafValues></_>
    <_>
      <internalNodes>
        0 -1 7448 7.9569400986656547e-04</internalNodes>
      <leafValues>
        1.4296771585941315e-01 -5.1368647813796997e-01</leafValues></_>
    <_>
      <internalNodes>
        0 -1 60915 -5.8341072872281075e-03</internalNodes>
      <leafValues>
        3.4177193045616150e-01 -2.0925574004650116e-01</leafValues></_>
    <_>
      <internalNodes>
        0 -1 12018 6.8963156081736088e-03</internalNodes>
      <leafValues>
        1.3333643972873688e-01 -6.2564557790756226e-01</leafValues></_>
    <_>
      <internalNodes>
        0 -1 11750 3.7281446158885956e-02</internalNodes>
      <leafValues>
        -1.1613949388265610e-01 8.0659592151641846e-01</leafValues></_>
    <_>
      <internalNodes>
        0 -1 14378 7.1436382131651044e-04</internalNodes>
      <leafValues>
        -3.2774585485458374e-01 2.5980907678604126e-01</leafValues></_>
    <_>
      <internalNodes>
        0 -1 74118 4.1388566605746746e-03</internalNodes>
      <leafValues>
        -1.0278410464525223e-01 7.0790559053421021e-01</leafValues></_>
    <_>
      <internalNodes>
        0 -1 17813 -2.3850761353969574e-03</internalNodes>
      <leafValues>
        5.5566608905792236e-01 -1.1380425840616226e-01</leafValues></_>
    <_>
      <internalNodes>
        0 -1 4869 -4.3913228437304497e-03</internalNodes>
      <leafValues>
        4.8984378576278687e-01 -1.4557993412017822e-01</leafValues></_>
    <_>
      <internalNodes>
        0 -1 11286 -1.0398026555776596e-02</internalNodes>
      <leafValues>
        3.6585658788681030e-01 -2.0743426680564880e-01</leafValues></_>
    <_>
      <internalNodes>
        0 -1 78287 2.5955089367926121e-03</internalNodes>
      <leafValues>
        1.1089269816875458e-01 -6.1689203977584839e-01</leafValues></_>
    <_>
      <internalNodes>
        0 -1 77723 9.9845393560826778e-04</internalNodes>
      <leafValues>
        1.1054549366235733e-01 -5.2754479646682739e-01</leafValues></_>
    <_>
      <internalNodes>
        0 -1 28442 1.1540757119655609e-01</internalNodes>
      <leafValues>
        6.6401690244674683e-02 -8.3571332693099976e-01</leafValues></_>
    <_>
      <internalNodes>
        0 -1 35598 1.3808982446789742e-02</internalNodes>
      <leafValues>
        -2.2980819642543793e-01 2.8374356031417847e-01</leafValues></_></weakClassifiers></stage12>
</opencv_storage>
