<?xml version="1.0"?>
<opencv_storage>
<cascade>
  <stageType>BOOST</stageType>
  <featureType>HAAR</featureType>
  <height>20</height>
  <width>20</width>
  <stageParams>
    <boostType>GAB</boostType>
    <minHitRate>9.9500000476837158e-01</minHitRate>
    <maxFalseAlarm>5.0000000000000000e-01</maxFalseAlarm>
    <weightTrimRate>9.4999999999999996e-01</weightTrimRate>
    <maxDepth>1</maxDepth>
    <maxWeakCount>100</maxWeakCount></stageParams>
  <featureParams>
    <maxCatCount>0</maxCatCount>
    <featSize>1</featSize>
    <mode>BASIC</mode></featureParams>
  <stageNum>9</stageNum>
  <stages>
    <!-- stage 0 -->
    <_>
      <maxWeakCount>1</maxWeakCount>
      <stageThreshold>8.9340370893478394e-01</stageThreshold>
      <weakClassifiers>
        <_>
          <internalNodes>
            0 -1 18 1.2830026680603623e-03</internalNodes>
          <leafValues>
            -9.8509317636489868e-01 8.9340370893478394e-01</leafValues></_></weakClassifiers></_>
    <!-- stage 1 -->
    <_>
      <maxWeakCount>2</maxWeakCount>
      <stageThreshold>-3.1775227189064026e-01</stageThreshold>
      <weakClassifiers>
        <_>
          <internalNodes>
            0 -1 2 -1.2928998097777367e-02</internalNodes>
          <leafValues>
            8.3625125885009766e-01 -9.5514512062072754e-01</leafValues></_>
        <_>
          <internalNodes>
            0 -1 24 3.8698315620422363e-03</internalNodes>
          <leafValues>
            -9.1457116603851318e-01 6.3739281892776489e-01</leafValues></_></weakClassifiers></_>
    <!-- stage 2 -->
    <_>
      <maxWeakCount>4</maxWeakCount>
      <stageThreshold>-3.7684106826782227e-01</stageThreshold>
      <weakClassifiers>
        <_>
          <internalNodes>
            0 -1 9 6.0280885547399521e-02</internalNodes>
          <leafValues>
            -8.5928142070770264e-01 7.2539371252059937e-01</leafValues></_>
        <_>
          <internalNodes>
            0 -1 19 1.9549266435205936e-03</internalNodes>
          <leafValues>
            5.8189570903778076e-01 -8.7793254852294922e-01</leafValues></_>
        <_>
          <internalNodes>
            0 -1 25 -8.3609499037265778e-02</internalNodes>
          <leafValues>
            8.1331235170364380e-01 -5.7051342725753784e-01</leafValues></_>
        <_>
          <internalNodes>
            0 -1 13 3.3286723919445649e-05</internalNodes>
          <leafValues>
            -9.9517631530761719e-01 4.7105807065963745e-01</leafValues></_></weakClassifiers></_>
    <!-- stage 3 -->
    <_>
      <maxWeakCount>4</maxWeakCount>
      <stageThreshold>-6.9067949056625366e-01</stageThreshold>
      <weakClassifiers>
        <_>
          <internalNodes>
            0 -1 17 1.2321932613849640e-01</internalNodes>
          <leafValues>
            -5.0894629955291748e-01 8.3353012800216675e-01</leafValues></_>
        <_>
          <internalNodes>
            0 -1 15 -2.0021983800688758e-05</internalNodes>
          <leafValues>
            4.8209413886070251e-01 -9.5524567365646362e-01</leafValues></_>
        <_>
          <internalNodes>
            0 -1 10 1.4674968551844358e-03</internalNodes>
          <leafValues>
            3.2530808448791504e-01 -9.5235943794250488e-01</leafValues></_>
        <_>
          <internalNodes>
            0 -1 14 7.4808136560022831e-04</internalNodes>
          <leafValues>
            -9.4613164663314819e-01 2.8853213787078857e-01</leafValues></_></weakClassifiers></_>
    <!-- stage 4 -->
    <_>
      <maxWeakCount>3</maxWeakCount>
      <stageThreshold>1.1742851138114929e-01</stageThreshold>
      <weakClassifiers>
        <_>
          <internalNodes>
            0 -1 23 3.9726063609123230e-02</internalNodes>
          <leafValues>
            -5.3933864831924438e-01 7.5315415859222412e-01</leafValues></_>
        <_>
          <internalNodes>
            0 -1 4 3.9080074056982994e-03</internalNodes>
          <leafValues>
            -9.5857495069503784e-01 4.4960328936576843e-01</leafValues></_>
        <_>
          <internalNodes>
            0 -1 1 5.4218871518969536e-03</internalNodes>
          <leafValues>
            3.2284930348396301e-01 -9.5691716670989990e-01</leafValues></_></weakClassifiers></_>
    <!-- stage 5 -->
    <_>
      <maxWeakCount>3</maxWeakCount>
      <stageThreshold>-8.3234262466430664e-01</stageThreshold>
      <weakClassifiers>
        <_>
          <internalNodes>
            0 -1 6 2.2689813704346307e-05</internalNodes>
          <leafValues>
            -9.6326529979705811e-01 6.2081450223922729e-01</leafValues></_>
        <_>
          <internalNodes>
            0 -1 27 -1.5096601098775864e-02</internalNodes>
          <leafValues>
            6.6251450777053833e-01 -5.3244823217391968e-01</leafValues></_>
        <_>
          <internalNodes>
            0 -1 22 1.2113121920265257e-04</internalNodes>
          <leafValues>
            -9.2070889472961426e-01 3.5505902767181396e-01</leafValues></_></weakClassifiers></_>
    <!-- stage 6 -->
    <_>
      <maxWeakCount>3</maxWeakCount>
      <stageThreshold>6.3976973295211792e-02</stageThreshold>
      <weakClassifiers>
        <_>
          <internalNodes>
            0 -1 16 -5.6138401851058006e-04</internalNodes>
          <leafValues>
            6.5965771675109863e-01 -6.8549621105194092e-01</leafValues></_>
        <_>
          <internalNodes>
            0 -1 8 7.0817302912473679e-03</internalNodes>
          <leafValues>
            3.9902794361114502e-01 -9.2265665531158447e-01</leafValues></_>
        <_>
          <internalNodes>
            0 -1 12 4.2689889669418335e-03</internalNodes>
          <leafValues>
            -9.2806339263916016e-01 3.5044521093368530e-01</leafValues></_></weakClassifiers></_>
    <!-- stage 7 -->
    <_>
      <maxWeakCount>4</maxWeakCount>
      <stageThreshold>-5.3251928091049194e-01</stageThreshold>
      <weakClassifiers>
        <_>
          <internalNodes>
            0 -1 11 6.1178929172456264e-04</internalNodes>
          <leafValues>
            6.1451244354248047e-01 -9.1919189691543579e-01</leafValues></_>
        <_>
          <internalNodes>
            0 -1 3 3.1252428889274597e-02</internalNodes>
          <leafValues>
            -4.6962815523147583e-01 7.5847804546356201e-01</leafValues></_>
        <_>
          <internalNodes>
            0 -1 5 -5.0874699809355661e-05</internalNodes>
          <leafValues>
            4.0384784340858459e-01 -8.2060045003890991e-01</leafValues></_>
        <_>
          <internalNodes>
            0 -1 0 5.0387186929583549e-03</internalNodes>
          <leafValues>
            -6.4294970035552979e-01 4.5245295763015747e-01</leafValues></_></weakClassifiers></_>
    <!-- stage 8 -->
    <_>
      <maxWeakCount>4</maxWeakCount>
      <stageThreshold>-6.2117767333984375e-01</stageThreshold>
      <weakClassifiers>
        <_>
          <internalNodes>
            0 -1 21 5.2374636288732290e-04</internalNodes>
          <leafValues>
            -9.6992480754852295e-01 5.5932205915451050e-01</leafValues></_>
        <_>
          <internalNodes>
            0 -1 26 -9.2498064041137695e-02</internalNodes>
          <leafValues>
            6.9397205114364624e-01 -4.7028890252113342e-01</leafValues></_>
        <_>
          <internalNodes>
            0 -1 20 1.2225437909364700e-02</internalNodes>
          <leafValues>
            4.0455716848373413e-01 -9.0216028690338135e-01</leafValues></_>
        <_>
          <internalNodes>
            0 -1 7 -1.7508840755908750e-05</internalNodes>
          <leafValues>
            1.9194950163364410e-01 -8.0245745182037354e-01</leafValues></_></weakClassifiers></_></stages>
  <features>
    <_>
      <rects>
        <_>
          4 10 10 6 -1.</_>
        <_>
          4 10 5 3 2.</_>
        <_>
          9 13 5 3 2.</_></rects>
      <tilted>0</tilted></_>
    <_>
      <rects>
        <_>
          5 5 6 8 -1.</_>
        <_>
          5 9 6 4 2.</_></rects>
      <tilted>0</tilted></_>
    <_>
      <rects>
        <_>
          5 8 4 8 -1.</_>
        <_>
          5 12 4 4 2.</_></rects>
      <tilted>0</tilted></_>
    <_>
      <rects>
        <_>
          6 0 9 4 -1.</_>
        <_>
          6 2 9 2 2.</_></rects>
      <tilted>0</tilted></_>
    <_>
      <rects>
        <_>
          6 3 4 12 -1.</_>
        <_>
          8 3 2 12 2.</_></rects>
      <tilted>0</tilted></_>
    <_>
      <rects>
        <_>
          6 5 6 1 -1.</_>
        <_>
          8 5 2 1 3.</_></rects>
      <tilted>0</tilted></_>
    <_>
      <rects>
        <_>
          6 5 8 2 -1.</_>
        <_>
          6 6 8 1 2.</_></rects>
      <tilted>0</tilted></_>
    <_>
      <rects>
        <_>
          6 8 3 1 -1.</_>
        <_>
          7 8 1 1 3.</_></rects>
      <tilted>0</tilted></_>
    <_>
      <rects>
        <_>
          6 8 9 4 -1.</_>
        <_>
          9 8 3 4 3.</_></rects>
      <tilted>0</tilted></_>
    <_>
      <rects>
        <_>
          7 1 6 18 -1.</_>
        <_>
          7 7 6 6 3.</_></rects>
      <tilted>0</tilted></_>
    <_>
      <rects>
        <_>
          7 4 1 8 -1.</_>
        <_>
          7 8 1 4 2.</_></rects>
      <tilted>0</tilted></_>
    <_>
      <rects>
        <_>
          7 5 2 2 -1.</_>
        <_>
          7 6 2 1 2.</_></rects>
      <tilted>0</tilted></_>
    <_>
      <rects>
        <_>
          7 6 3 9 -1.</_>
        <_>
          7 9 3 3 3.</_></rects>
      <tilted>0</tilted></_>
    <_>
      <rects>
        <_>
          7 6 4 6 -1.</_>
        <_>
          7 8 4 2 3.</_></rects>
      <tilted>0</tilted></_>
    <_>
      <rects>
        <_>
          7 8 3 6 -1.</_>
        <_>
          7 10 3 2 3.</_></rects>
      <tilted>0</tilted></_>
    <_>
      <rects>
        <_>
          7 13 1 2 -1.</_>
        <_>
          7 14 1 1 2.</_></rects>
      <tilted>0</tilted></_>
    <_>
      <rects>
        <_>
          7 14 1 4 -1.</_>
        <_>
          7 16 1 2 2.</_></rects>
      <tilted>0</tilted></_>
    <_>
      <rects>
        <_>
          8 4 12 12 -1.</_>
        <_>
          12 4 4 12 3.</_></rects>
      <tilted>0</tilted></_>
    <_>
      <rects>
        <_>
          8 8 4 2 -1.</_>
        <_>
          10 8 2 2 2.</_></rects>
      <tilted>0</tilted></_>
    <_>
      <rects>
        <_>
          8 8 6 2 -1.</_>
        <_>
          10 8 2 2 3.</_></rects>
      <tilted>0</tilted></_>
    <_>
      <rects>
        <_>
          8 8 6 6 -1.</_>
        <_>
          8 10 6 2 3.</_></rects>
      <tilted>0</tilted></_>
    <_>
      <rects>
        <_>
          9 8 5 6 -1.</_>
        <_>
          9 10 5 2 3.</_></rects>
      <tilted>0</tilted></_>
    <_>
      <rects>
        <_>
          9 9 1 6 -1.</_>
        <_>
          9 11 1 2 3.</_></rects>
      <tilted>0</tilted></_>
    <_>
      <rects>
        <_>
          10 4 9 8 -1.</_>
        <_>
          13 4 3 8 3.</_></rects>
      <tilted>0</tilted></_>
    <_>
      <rects>
        <_>
          11 9 6 3 -1.</_>
        <_>
          13 9 2 3 3.</_></rects>
      <tilted>0</tilted></_>
    <_>
      <rects>
        <_>
          14 3 6 12 -1.</_>
        <_>
          17 3 3 12 2.</_></rects>
      <tilted>0</tilted></_>
    <_>
      <rects>
        <_>
          14 7 6 10 -1.</_>
        <_>
          17 7 3 10 2.</_></rects>
      <tilted>0</tilted></_>
    <_>
      <rects>
        <_>
          15 8 4 3 -1.</_>
        <_>
          17 8 2 3 2.</_></rects>
      <tilted>0</tilted></_></features></cascade>
</opencv_storage>
